2.02795e-06, 5.64934e-07, -2.8034e-05, -0.00111743, -0.000369103, 1.44307e-05, 0.0316228, 0.0316228, 0.0316228, 0.0316228, 0.0316228, 0.0316228
2.02795e-06, 5.64934e-07, -2.8034e-05, -0.00111743, -0.000369103, 1.44307e-05, 0.0316228, 0.0316228, 0.0316228, 0.0316228, 0.0316228, 0.0316228
7.43031e-06, -2.60205e-05, -0.000574135, -0.00134001, 0.000104636, 7.70384e-06, 0.0315148, 0.0315155, 0.0312247, 0.0302722, 0.0302755, 0.0315994
-4.78009e-05, -2.83579e-05, -0.000948103, -0.0013146, 0.00064155, -8.46151e-05, 0.0314992, 0.0315009, 0.0308668, 0.0298526, 0.0298668, 0.0315804
-5.89329e-05, -2.45566e-05, -0.00106548, -0.00109755, 0.00091623, -9.28026e-05, 0.0314929, 0.0314961, 0.0305117, 0.0294352, 0.0294491, 0.031561
-2.79911e-05, -8.11235e-06, -0.00155413, -0.000803016, 0.00104955, -8.5972e-05, 0.0314894, 0.0314945, 0.0301427, 0.0289019, 0.0288991, 0.0315413
6.31143e-05, 2.53034e-05, -0.00279752, -0.000656184, 0.000942001, -8.61092e-05, 0.0314871, 0.031494, 0.0297365, 0.0281657, 0.0281442, 0.0315201
0.00014552, 4.61863e-05, -0.00387853, -0.000581875, 0.000881886, -7.71281e-05, 0.0314851, 0.0314938, 0.0293141, 0.0271846, 0.0271513, 0.0314957
0.000245667, 6.92015e-05, -0.00532105, -0.000386255, 0.000525829, -6.63382e-05, 0.0314831, 0.0314935, 0.0289159, 0.0259531, 0.0259062, 0.0314693
0.00035981, 9.6298e-05, -0.00721042, -0.000122176, -0.000251489, -7.7631e-05, 0.0314807, 0.0314928, 0.0284925, 0.0244973, 0.0244237, 0.0314383
0.000523422, 0.000134217, -0.00990543, 9.44992e-05, -0.000837193, -8.1152e-05, 0.0314777, 0.0314916, 0.0280192, 0.0228667, 0.0227622, 0.0314047
0.000722998, 0.000175185, -0.0131802, 0.000312211, -0.0010836, -4.84598e-05, 0.0314744, 0.0314899, 0.0275086, 0.0211249, 0.0210064, 0.0313721
0.000946206, 0.000237072, -0.0169364, 0.000158453, -0.00108705, 2.45479e-06, 0.0314708, 0.0314878, 0.0269663, 0.0193548, 0.0192324, 0.0313426
0.00113543, 0.000308367, -0.0206827, 8.23913e-05, -0.00146772, -9.36226e-06, 0.0314674, 0.0314856, 0.0264365, 0.0176614, 0.0175129, 0.0313153
0.00130628, 0.000384018, -0.0240694, -6.62763e-05, -0.00152304, -2.67428e-05, 0.0314643, 0.0314834, 0.0258851, 0.0160851, 0.0159171, 0.0312873
0.00143295, 0.000446751, -0.0269938, -0.000198136, -0.00170746, -8.22859e-05, 0.0314617, 0.0314815, 0.0252403, 0.0146401, 0.0144901, 0.0312662
0.00152126, 0.000493385, -0.0294426, -0.00026052, -0.00195544, -0.00016754, 0.0314595, 0.0314798, 0.0243666, 0.0133145, 0.0132922, 0.0312504
0.00155959, 0.000524238, -0.0309122, -0.000370143, -0.00211084, -0.000202462, 0.031458, 0.0314783, 0.0234333, 0.0120996, 0.0122655, 0.031222
0.00161542, 0.000510659, -0.0317939, 0.000178457, -0.00142001, -0.000320635, 0.031457, 0.0314771, 0.0225135, 0.0110166, 0.0113786, 0.0311721
0.00163825, 0.000488411, -0.0315009, 0.000482438, -0.000961066, -0.000520519, 0.0314561, 0.0314761, 0.0218197, 0.0101377, 0.010546, 0.0311049
0.00163877, 0.000477509, -0.0304951, 0.000236577, -0.000741967, -0.000360752, 0.031455, 0.0314754, 0.0215081, 0.0095722, 0.00970867, 0.0310485
0.00161925, 0.000448421, -0.0298798, 2.53477e-05, -0.000812946, -0.000162395, 0.031454, 0.0314749, 0.0214329, 0.0092996, 0.00895932, 0.0309719
0.00148921, 0.000450187, -0.0296083, -0.000948721, -0.00242629, -0.000423693, 0.0314534, 0.0314741, 0.0214134, 0.00913046, 0.00834779, 0.0307876
0.00142602, 0.000396424, -0.0294007, -0.00147576, -0.0034054, -0.000953709, 0.0314531, 0.0314732, 0.0214027, 0.00897412, 0.00786606, 0.0305277
0.00139388, 0.000326612, -0.0292126, -0.00165942, -0.00389904, -0.00135414, 0.0314529, 0.0314717, 0.0213935, 0.00878597, 0.00746185, 0.0302759
0.00137618, 0.000260213, -0.0290241, -0.00188814, -0.00415079, -0.00140445, 0.0314525, 0.0314696, 0.0213836, 0.00852244, 0.00708302, 0.030068
0.00138144, 0.000158707, -0.0287768, -0.00193667, -0.00416503, -0.00135493, 0.0314519, 0.0314661, 0.0213662, 0.00812236, 0.00670526, 0.0299087
0.0013992, 2.08743e-05, -0.0284806, -0.00190815, -0.00408695, -0.00125382, 0.031451, 0.031461, 0.0213422, 0.00760951, 0.00632864, 0.0297932
0.00143301, -0.000258401, -0.0278254, -0.00202852, -0.00397754, -0.00114503, 0.0314498, 0.0314535, 0.0213021, 0.00697775, 0.00593845, 0.0297027
0.00148279, -0.000620566, -0.0268702, -0.00223257, -0.00374303, -0.00104258, 0.0314485, 0.0314422, 0.0212157, 0.00622991, 0.00554295, 0.0296294
0.00155242, -0.00112679, -0.0254253, -0.00241159, -0.0034047, -0.00103163, 0.031447, 0.0314247, 0.0210359, 0.00540726, 0.00513843, 0.029574
0.00163504, -0.00188622, -0.0229054, -0.00253876, -0.00300824, -0.0011928, 0.0314456, 0.0313965, 0.0205934, 0.004573, 0.00474566, 0.0295367
0.00172028, -0.0031572, -0.0178474, -0.00274005, -0.00250467, -0.00165651, 0.0314443, 0.0313551, 0.0195733, 0.00386636, 0.00438853, 0.0295128
0.00176584, -0.00481297, -0.0102276, -0.0027121, -0.00200631, -0.00261422, 0.0314431, 0.0313082, 0.0179126, 0.00339198, 0.00405431, 0.0294549
0.00175787, -0.00604007, -0.0039139, -0.00254136, -0.00162182, -0.0036016, 0.031442, 0.0312701, 0.0160764, 0.00312289, 0.00372599, 0.0292323
0.00174754, -0.00679952, 0.000229681, -0.00247662, -0.00128974, -0.0045154, 0.0314409, 0.0312433, 0.0144575, 0.00297011, 0.00343039, 0.0289267
0.00176267, -0.00723027, 0.00264092, -0.00239861, -0.000996332, -0.00524735, 0.03144, 0.0312254, 0.0131856, 0.00287492, 0.0031943, 0.0287239
0.00181306, -0.00751244, 0.00412913, -0.00225516, -0.000666972, -0.00585278, 0.0314392, 0.0312131, 0.0122641, 0.00280761, 0.00302283, 0.0286633
0.00186578, -0.0076644, 0.00475566, -0.002163, -0.000423389, -0.00588243, 0.0314385, 0.0312024, 0.0116327, 0.00275012, 0.00290691, 0.0286482
0.00191518, -0.00785569, 0.00532757, -0.00209494, -0.000242932, -0.00536133, 0.0314379, 0.0311875, 0.0111566, 0.00268954, 0.00283803, 0.0285295
0.00196734, -0.00811364, 0.0059524, -0.00201789, -0.000106531, -0.00448685, 0.0314374, 0.0311675, 0.0107467, 0.00262301, 0.00280239, 0.0281544
0.00201519, -0.00826686, 0.00627454, -0.00196994, -1.65925e-05, -0.00324373, 0.0314369, 0.0311498, 0.0104273, 0.00255245, 0.002785, 0.0274996
0.00205423, -0.00837381, 0.0064692, -0.00194894, 2.83116e-05, -0.00185182, 0.0314364, 0.0311328, 0.0101642, 0.00247829, 0.0027762, 0.0265933
0.00207697, -0.0084488, 0.00656602, -0.00191319, 4.7482e-05, -0.000831651, 0.0314361, 0.0311147, 0.00994875, 0.00239427, 0.00276964, 0.0254909
0.00208831, -0.0085093, 0.00661981, -0.00185805, 5.82756e-05, -0.000173395, 0.0314358, 0.0310947, 0.00976217, 0.00230073, 0.00276126, 0.0242546
0.00209066, -0.00852927, 0.00660537, -0.00179871, 6.62754e-05, 0.000183775, 0.0314355, 0.0310749, 0.00959968, 0.0022036, 0.00274942, 0.0229815
0.00208658, -0.00848387, 0.00650112, -0.00176852, 6.69654e-05, 0.000427704, 0.0314352, 0.0310591, 0.00945977, 0.00211379, 0.00273443, 0.0217629
0.0020724, -0.00835363, 0.00624796, -0.00179296, 5.05519e-05, 0.000675593, 0.031435, 0.0310512, 0.00935454, 0.00204033, 0.00271812, 0.0206794
0.00204586, -0.00822715, 0.00591521, -0.00184315, 2.27112e-05, 0.000879386, 0.0314347, 0.0310483, 0.00928161, 0.00198215, 0.00270102, 0.0197204
0.002009, -0.00814494, 0.00557529, -0.00189357, -6.42637e-06, 0.00098824, 0.0314344, 0.0310464, 0.00923227, 0.00192855, 0.00268285, 0.0188429
0.00196333, -0.00809398, 0.00524918, -0.00193278, -2.17475e-05, 0.000905118, 0.031434, 0.0310442, 0.00919383, 0.00187235, 0.00266355, 0.0180218
0.00191067, -0.00809641, 0.00494247, -0.00194493, -1.6294e-05, 0.000602756, 0.0314337, 0.0310412, 0.00916473, 0.00181147, 0.00264425, 0.0172657
0.00185224, -0.00814084, 0.00465522, -0.00194406, -3.92296e-06, 0.000270284, 0.0314334, 0.0310377, 0.00913733, 0.00174746, 0.00262596, 0.016593
0.00178945, -0.00824128, 0.00438834, -0.00192741, 1.25389e-05, -5.54919e-05, 0.031433, 0.0310335, 0.00911238, 0.00168066, 0.00260983, 0.0160135
0.00172279, -0.00842862, 0.0041473, -0.00188593, 3.52589e-05, -0.000406466, 0.0314326, 0.0310276, 0.00909191, 0.00161107, 0.0025964, 0.0155255
0.00163757, -0.0086806, 0.00385465, -0.00182041, 6.56981e-05, -0.000789317, 0.0314321, 0.0310216, 0.00906669, 0.0015392, 0.00258533, 0.0151192
0.00153847, -0.00897872, 0.00351348, -0.00173862, 0.000100864, -0.0011932, 0.0314314, 0.031015, 0.00903441, 0.00146573, 0.00257688, 0.0147909
0.00142829, -0.00932096, 0.00312329, -0.00164329, 0.000137033, -0.00158033, 0.0314306, 0.0310075, 0.00899145, 0.00139259, 0.00257121, 0.0145373
0.00129897, -0.0097363, 0.00263728, -0.00153606, 0.000173442, -0.00197137, 0.0314296, 0.0309984, 0.00893526, 0.00132087, 0.00256814, 0.0143534
0.000897001, -0.0109067, 0.000874583, -0.00147802, 0.000227653, -0.00238296, 0.0314285, 0.0309886, 0.00885682, 0.00125045, 0.00256691, 0.0142303
0.000499177, -0.0117012, -0.00109873, -0.00141833, 0.00029645, -0.00284086, 0.0314269, 0.030982, 0.00871328, 0.00118013, 0.00256608, 0.0141513
0.000157743, -0.0120928, -0.00309511, -0.00134643, 0.000359827, -0.00323134, 0.031425, 0.0309786, 0.00846408, 0.00111147, 0.00256313, 0.0141052
-3.91409e-05, -0.0121575, -0.00434516, -0.0012076, 0.000347637, -0.00317092, 0.0314231, 0.0309767, 0.00811643, 0.00104928, 0.00255176, 0.0140552
-7.92144e-06, -0.0120592, -0.00384974, -0.0010935, 0.000240246, -0.00259498, 0.0314211, 0.0309757, 0.00766746, 0.000996683, 0.00252977, 0.0139787
0.000169599, -0.0120431, -0.00225443, -0.00101851, 0.0001065, -0.00193143, 0.0314191, 0.0309744, 0.00719678, 0.000954494, 0.002505, 0.0139133
0.000401246, -0.0120195, -0.00057542, -0.000956169, 6.56865e-06, -0.00145213, 0.0314169, 0.0309736, 0.00677356, 0.000922652, 0.00248074, 0.0138697
0.000612994, -0.0117868, 0.000702721, -0.000911491, -6.32595e-05, -0.00115822, 0.0314146, 0.0309715, 0.00644082, 0.000898501, 0.00244937, 0.0138049
0.00079143, -0.0114376, 0.00166534, -0.000880786, -0.000126597, -0.000905332, 0.0314121, 0.0309648, 0.00616447, 0.000878934, 0.00240523, 0.0136862
0.000946451, -0.0110992, 0.00244532, -0.000849697, -0.000173044, -0.000716504, 0.0314096, 0.0309563, 0.00591734, 0.000862174, 0.0023474, 0.0135035
0.0010725, -0.0108276, 0.00308252, -0.000819475, -0.000222447, -0.000505318, 0.0314071, 0.0309488, 0.00569079, 0.000847643, 0.00227586, 0.0132511
0.00117195, -0.010612, 0.00358672, -0.000787075, -0.000262585, -0.000327755, 0.0314048, 0.030942, 0.00548589, 0.000835045, 0.00219135, 0.0129275
0.00124174, -0.0104324, 0.00399117, -0.000762504, -0.000331292, 5.8198e-06, 0.0314027, 0.0309354, 0.00530241, 0.000824054, 0.00209558, 0.0125357
0.00127506, -0.0102973, 0.00425869, -0.000758812, -0.000428055, 0.00050109, 0.0314008, 0.0309287, 0.0051399, 0.000814456, 0.00199078, 0.0120828
0.00129137, -0.0102106, 0.00443767, -0.000751696, -0.000514796, 0.000956434, 0.0313991, 0.0309232, 0.00499719, 0.000805815, 0.00188192, 0.0115908
0.00129738, -0.0101495, 0.00455481, -0.000747945, -0.000594642, 0.00138781, 0.0313975, 0.0309177, 0.00487285, 0.000797755, 0.00177203, 0.0110741
0.00132744, -0.0100285, 0.00473273, -0.000760641, -0.00065867, 0.00173325, 0.0313961, 0.0309112, 0.0047648, 0.000790082, 0.00166368, 0.0105467
0.00136042, -0.00991397, 0.00488775, -0.000774579, -0.000702573, 0.00196836, 0.0313947, 0.0309047, 0.00467042, 0.00078259, 0.00156089, 0.0100324
0.00141213, -0.00975981, 0.00506209, -0.000795853, -0.000715362, 0.00202386, 0.0313934, 0.0308957, 0.00458667, 0.000774947, 0.00146515, 0.00954197
0.00147664, -0.00955682, 0.00524261, -0.000825292, -0.000712278, 0.00198134, 0.031392, 0.0308814, 0.00451036, 0.00076677, 0.00137797, 0.00908704
0.00154719, -0.00934597, 0.00541542, -0.000861557, -0.000699074, 0.00187454, 0.0313906, 0.0308645, 0.00444077, 0.000758241, 0.00129927, 0.00866897
0.00162595, -0.00910924, 0.00560257, -0.000893032, -0.000680887, 0.00173884, 0.0313892, 0.0308493, 0.00437767, 0.000749503, 0.00122948, 0.00829356
0.00169287, -0.00892154, 0.00574782, -0.000922761, -0.00065974, 0.00158584, 0.0313879, 0.0308351, 0.00432022, 0.000740542, 0.00116808, 0.00796069
0.00175547, -0.00875163, 0.00586716, -0.000953992, -0.000635759, 0.00141532, 0.0313865, 0.030816, 0.00426393, 0.000730796, 0.00111395, 0.00766545
0.00184248, -0.00847625, 0.00602207, -0.000985879, -0.000610121, 0.00123572, 0.0313845, 0.0307829, 0.00420271, 0.000719741, 0.00106601, 0.00740255
0.00180332, -0.00863782, 0.00595122, -0.000973408, -0.000593618, 0.00114742, 0.0313818, 0.0307285, 0.0041339, 0.00070775, 0.00102361, 0.00716985
0.00174062, -0.0089798, 0.00582606, -0.000979425, -0.000564851, 0.000970148, 0.0313784, 0.0306573, 0.00405854, 0.000695763, 0.000986286, 0.00696582
0.00167561, -0.00934215, 0.0056974, -0.000997348, -0.000542713, 0.000828067, 0.0313746, 0.030583, 0.0039798, 0.00068454, 0.000953734, 0.00679029
0.00164438, -0.00956109, 0.00562343, -0.00101959, -0.000525426, 0.000713257, 0.0313707, 0.0305163, 0.00390304, 0.000674616, 0.000925426, 0.00664089
0.00165364, -0.00961258, 0.00561658, -0.00103817, -0.000512814, 0.000627258, 0.0313671, 0.0304607, 0.00383299, 0.000666067, 0.000900987, 0.00651654
0.00165295, -0.00971419, 0.00559441, -0.0010553, -0.000502074, 0.000556105, 0.0313635, 0.0304087, 0.00376716, 0.000658572, 0.000879929, 0.00641492
0.00172718, -0.00958482, 0.00566232, -0.00108612, -0.000496172, 0.000501631, 0.0313596, 0.0303532, 0.00370282, 0.000651656, 0.000862012, 0.00633556
0.00179374, -0.00944624, 0.00571886, -0.00111109, -0.000494173, 0.000472629, 0.0313554, 0.0303008, 0.0036399, 0.000645222, 0.000846651, 0.00627407
0.00188565, -0.00918374, 0.00580434, -0.00113208, -0.000486599, 0.000417194, 0.0313508, 0.0302426, 0.00357772, 0.000639192, 0.00083335, 0.00622654
0.00191479, -0.00911178, 0.0058083, -0.00115002, -0.000478813, 0.000364867, 0.0313458, 0.0301656, 0.00351596, 0.000633592, 0.000821727, 0.00618986
0.00189665, -0.00919309, 0.00578095, -0.00115238, -0.000472597, 0.000331897, 0.0313406, 0.0300739, 0.00345592, 0.000628447, 0.000811642, 0.00616269
0.00186807, -0.00930922, 0.00573545, -0.00115912, -0.000468004, 0.000306755, 0.0313352, 0.0299812, 0.00339914, 0.000623813, 0.000802869, 0.00614307
0.00179644, -0.0096034, 0.0056466, -0.00116498, -0.000463084, 0.000284263, 0.0313299, 0.0298838, 0.00334574, 0.000619659, 0.000795224, 0.0061294
0.00171103, -0.00995428, 0.00554368, -0.00117271, -0.000458832, 0.000266755, 0.0313246, 0.0297868, 0.00329563, 0.000615904, 0.000788484, 0.00612
0.00161334, -0.0103613, 0.00543518, -0.0011788, -0.000454622, 0.000253415, 0.0313195, 0.0296923, 0.00324903, 0.000612409, 0.000782492, 0.0061137
0.00151168, -0.0107907, 0.00532908, -0.00118346, -0.000450156, 0.000242416, 0.0313146, 0.0296008, 0.00320604, 0.000609041, 0.000777121, 0.00610963
0.00140919, -0.0112147, 0.00522898, -0.0011863, -0.000447026, 0.00023634, 0.0313098, 0.0295169, 0.00316614, 0.000605668, 0.000772243, 0.00610697
0.00130877, -0.0115977, 0.00513518, -0.00118818, -0.000442935, 0.000228587, 0.0313051, 0.0294467, 0.0031282, 0.00060216, 0.000767759, 0.00610512
0.00120317, -0.0119566, 0.00504174, -0.00118754, -0.000438127, 0.00021891, 0.0313004, 0.0293886, 0.00309116, 0.000598487, 0.000763677, 0.00610391
0.00110837, -0.0122073, 0.0049619, -0.00118406, -0.000432977, 0.000210409, 0.0312955, 0.0293485, 0.00305363, 0.000594477, 0.000759866, 0.0061027
0.00104311, -0.0122993, 0.00491107, -0.00117626, -0.000428054, 0.000203322, 0.0312905, 0.0293265, 0.00301504, 0.000590076, 0.00075629, 0.00610126
0.00100851, -0.0122749, 0.00488902, -0.00116236, -0.000423513, 0.00020154, 0.0312854, 0.0293165, 0.00297646, 0.000585464, 0.000752993, 0.00609984
0.00105146, -0.0121737, 0.00493029, -0.00114852, -0.000420102, 0.000206349, 0.0312805, 0.0293105, 0.00293977, 0.000580874, 0.000749923, 0.00609874
0.00113117, -0.0120314, 0.00499837, -0.00113391, -0.000419434, 0.000211851, 0.0312757, 0.0293039, 0.00290456, 0.000576427, 0.000746891, 0.00609824
0.00122747, -0.0118407, 0.00507516, -0.00112079, -0.000419653, 0.000213107, 0.0312707, 0.0292914, 0.00286985, 0.000572224, 0.000743772, 0.00609802
0.00133185, -0.0116296, 0.00515351, -0.00110937, -0.000419064, 0.000210182, 0.0312654, 0.0292749, 0.00283513, 0.000568229, 0.000740467, 0.00609747
0.00136123, -0.0115454, 0.00517392, -0.00109836, -0.000413458, 0.000194743, 0.0312595, 0.0292596, 0.00280127, 0.000564399, 0.000736956, 0.00609617
0.00134443, -0.0115355, 0.00516415, -0.00108976, -0.000400918, 0.000162557, 0.0312535, 0.0292496, 0.00277062, 0.000560715, 0.000733217, 0.0060938
0.00127648, -0.0115712, 0.00512731, -0.00108287, -0.000382805, 0.000111429, 0.0312478, 0.0292448, 0.00274651, 0.00055717, 0.00072924, 0.00609004
0.00118623, -0.0116067, 0.00508354, -0.00107671, -0.000364215, 5.30241e-05, 0.0312428, 0.0292425, 0.00273023, 0.000553771, 0.000725059, 0.00608483
0.00115028, -0.0116227, 0.00507043, -0.00107185, -0.000345686, -1.33835e-05, 0.0312387, 0.029241, 0.00272066, 0.000550512, 0.0007207, 0.00607811
0.00114161, -0.0116425, 0.00506823, -0.00106695, -0.000327412, -8.8658e-05, 0.031235, 0.0292396, 0.00271568, 0.000547349, 0.000716191, 0.00606941
0.00114196, -0.0116652, 0.00506701, -0.00106284, -0.000310752, -0.000164291, 0.031231, 0.0292382, 0.00271258, 0.00054425, 0.000711471, 0.00605818
0.00113683, -0.0116806, 0.00506411, -0.00105964, -0.000297032, -0.000230927, 0.0312257, 0.0292367, 0.0027099, 0.000541197, 0.000706462, 0.00604402
0.00111894, -0.011697, 0.00505949, -0.00105762, -0.000286623, -0.000283063, 0.0312181, 0.0292343, 0.00270709, 0.000538185, 0.000701111, 0.00602667
0.00108637, -0.0117183, 0.00505352, -0.00105637, -0.000279319, -0.000320882, 0.0312072, 0.0292307, 0.00270412, 0.000535217, 0.000695445, 0.00600621
0.000907731, -0.0118226, 0.00502788, -0.00105548, -0.000269297, -0.000368593, 0.0311913, 0.029225, 0.00270069, 0.000532287, 0.000689443, 0.00598242
0.000601862, -0.0119913, 0.00499059, -0.00105474, -0.000266444, -0.000376241, 0.0311693, 0.0292172, 0.00269697, 0.000529405, 0.000683138, 0.0059555
0.000198862, -0.0122214, 0.00494481, -0.00105478, -0.000266381, -0.000365601, 0.0311382, 0.0292059, 0.00269238, 0.000526563, 0.00067653, 0.00592549
-0.000389609, -0.0125467, 0.00488452, -0.00105482, -0.000253753, -0.000425399, 0.0310968, 0.0291924, 0.00268747, 0.000523763, 0.000669697, 0.00589229
-0.00110743, -0.012942, 0.00481386, -0.00105536, -0.000246256, -0.000454323, 0.0310398, 0.0291738, 0.00268109, 0.000521004, 0.000662632, 0.00585604
-0.0020972, -0.0135276, 0.0047107, -0.00105662, -0.000246761, -0.000431028, 0.0309568, 0.0291425, 0.00267059, 0.000518282, 0.000655293, 0.00581654
-0.00363855, -0.0145819, 0.00452618, -0.00105895, -0.000251936, -0.000372023, 0.030827, 0.0290771, 0.00264861, 0.000515587, 0.000647628, 0.00577373
-0.0061432, -0.016523, 0.00418462, -0.00106238, -0.000275804, -0.000188292, 0.0306307, 0.0289537, 0.00260651, 0.000512919, 0.000639706, 0.00572694
-0.00955026, -0.0193205, 0.00368992, -0.00106641, -0.000304477, 3.12636e-05, 0.0303698, 0.0287698, 0.00254223, 0.000510296, 0.000631621, 0.00567313
-0.0113777, -0.0208997, 0.00340671, -0.00107146, -0.000344893, 0.000326778, 0.0300676, 0.0285403, 0.00245954, 0.000507752, 0.000623447, 0.00560822
-0.0117845, -0.0212557, 0.00333388, -0.00107477, -0.000395148, 0.000675277, 0.0297674, 0.0282966, 0.00236773, 0.000505322, 0.000615408, 0.00553423
-0.0120182, -0.0214197, 0.00329465, -0.00107743, -0.000439913, 0.000990864, 0.0295079, 0.028101, 0.0022921, 0.000503034, 0.000607762, 0.00545636
-0.0121982, -0.0215258, 0.00326703, -0.00108042, -0.000477302, 0.0012644, 0.0292862, 0.0279447, 0.00223099, 0.000500891, 0.000600512, 0.00537601
-0.0124326, -0.0216648, 0.0032358, -0.00108168, -0.000506293, 0.0014662, 0.0290985, 0.0278211, 0.0021819, 0.000498895, 0.000593641, 0.00529429
-0.0128296, -0.02193, 0.00318424, -0.00108176, -0.000527815, 0.0016037, 0.0289477, 0.0277189, 0.00214106, 0.000497045, 0.000587137, 0.00521171
-0.0131499, -0.0221436, 0.00314348, -0.00108308, -0.000544774, 0.00172751, 0.0288241, 0.0276394, 0.0021091, 0.000495346, 0.000580917, 0.00512791
-0.0134476, -0.0223403, 0.0031075, -0.00108315, -0.000556145, 0.00179805, 0.0287217, 0.0275761, 0.00208397, 0.000493786, 0.000574993, 0.00504422
-0.0136473, -0.0224615, 0.00308518, -0.00108392, -0.000567354, 0.00187842, 0.0286358, 0.0275283, 0.00206436, 0.000492362, 0.000569315, 0.00496137
-0.0138223, -0.0225586, 0.00306744, -0.00108387, -0.00057728, 0.00193888, 0.028564, 0.0274924, 0.00204891, 0.000491061, 0.000563867, 0.00488046
-0.0139913, -0.0226539, 0.00305036, -0.00108293, -0.000583068, 0.00195931, 0.028503, 0.0274632, 0.0020364, 0.000489867, 0.000558635, 0.00480223
-0.0141123, -0.0227261, 0.00303753, -0.00108185, -0.000584221, 0.00194808, 0.028447, 0.0274369, 0.00202593, 0.00048876, 0.000553601, 0.00472769
-0.014195, -0.022774, 0.00302913, -0.00108088, -0.000583061, 0.00192482, 0.0283901, 0.0274139, 0.00201704, 0.000487731, 0.00054871, 0.00465728
-0.0141942, -0.0227695, 0.00302882, -0.00108008, -0.000573346, 0.00185367, 0.0283117, 0.0273924, 0.00200911, 0.000486748, 0.000543844, 0.0045921
-0.0149816, -0.0230716, 0.00297999, -0.00107835, -0.000560505, 0.00174693, 0.028188, 0.027371, 0.0020016, 0.000485793, 0.000538934, 0.00453218
-0.0156613, -0.0232967, 0.00294302, -0.00107709, -0.000548615, 0.00165224, 0.0280257, 0.0273499, 0.00199437, 0.00048488, 0.000534095, 0.00447631
-0.0163901, -0.023518, 0.00290723, -0.00107625, -0.000536519, 0.00156458, 0.0278314, 0.0273295, 0.00198738, 0.000484002, 0.000529451, 0.00442527
-0.0178213, -0.0239673, 0.00283904, -0.0010789, -0.000519367, 0.00149062, 0.0276177, 0.0273088, 0.00198057, 0.000483152, 0.000525104, 0.00437968
-0.0192623, -0.0244434, 0.00277167, -0.00108169, -0.000502661, 0.00143009, 0.0273874, 0.0272845, 0.00197372, 0.000482312, 0.000521075, 0.00433983
-0.0212825, -0.0251561, 0.00267735, -0.00108527, -0.000490463, 0.00140401, 0.0271533, 0.0272571, 0.00196692, 0.000481475, 0.000517347, 0.00430527
-0.0231868, -0.0258344, 0.0025895, -0.00108822, -0.000477984, 0.00137098, 0.0269215, 0.0272298, 0.00196047, 0.000480628, 0.000513909, 0.0042759
-0.0249088, -0.0264029, 0.00251339, -0.00109043, -0.000465638, 0.00133282, 0.0266924, 0.0272068, 0.00195468, 0.000479763, 0.000510733, 0.00425115
-0.0264395, -0.026856, 0.0024493, -0.00109168, -0.000453523, 0.00128861, 0.026467, 0.0271884, 0.00194959, 0.000478873, 0.000507804, 0.00423064
-0.0279628, -0.0272647, 0.0023891, -0.00109127, -0.000442913, 0.00123899, 0.0262468, 0.0271729, 0.00194513, 0.000477951, 0.00050509, 0.00421381
-0.0292601, -0.0275827, 0.00234014, -0.00109056, -0.000433074, 0.00119508, 0.0260352, 0.0271604, 0.00194129, 0.000476988, 0.000502561, 0.00420028
-0.0307146, -0.0279419, 0.00228241, -0.00108834, -0.000425359, 0.00115459, 0.0258601, 0.0271497, 0.00193771, 0.000475958, 0.000500193, 0.00419026
-0.0319751, -0.0282481, 0.00223256, -0.00108581, -0.000418275, 0.00111932, 0.0256989, 0.0271399, 0.00193444, 0.000474885, 0.000497951, 0.00418256
-0.0331157, -0.0285242, 0.00218719, -0.00108365, -0.000412412, 0.00109457, 0.0255516, 0.0271311, 0.00193143, 0.000473769, 0.000495793, 0.00417662
-0.0340764, -0.0287419, 0.0021502, -0.00108162, -0.000407226, 0.00107483, 0.025411, 0.0271239, 0.00192875, 0.000472621, 0.000493713, 0.00417197
-0.0348237, -0.028894, 0.00212309, -0.00107952, -0.000402244, 0.00105714, 0.0252732, 0.027118, 0.00192642, 0.000471457, 0.00049171, 0.00416827
-0.0353296, -0.0289897, 0.00210595, -0.00107744, -0.000397464, 0.00104117, 0.0251358, 0.0271128, 0.00192439, 0.000470284, 0.000489775, 0.00416528
-0.0356607, -0.0290453, 0.00209547, -0.0010754, -0.000393423, 0.00102785, 0.0250014, 0.0271084, 0.00192262, 0.000469103, 0.000487889, 0.00416284
-0.0357488, -0.0290544, 0.00209315, -0.0010736, -0.000388457, 0.00101398, 0.0248661, 0.0271052, 0.00192117, 0.000467926, 0.000486054, 0.00416077
-0.0359086, -0.0290728, 0.00208903, -0.00107232, -0.000382937, 0.00100251, 0.0247322, 0.0271027, 0.00191991, 0.000466757, 0.00048426, 0.00415899
-0.0359995, -0.0290804, 0.00208703, -0.0010712, -0.000377964, 0.00099307, 0.0245974, 0.0271009, 0.0019189, 0.000465599, 0.0004825, 0.00415736
-0.0361554, -0.0290897, 0.00208381, -0.00106949, -0.000372996, 0.000984047, 0.0244644, 0.0271, 0.00191806, 0.000464449, 0.000480776, 0.00415592
-0.0367322, -0.0291298, 0.00206923, -0.0010681, -0.000370085, 0.000980511, 0.0243442, 0.0270993, 0.00191711, 0.000463285, 0.000479058, 0.0041547
-0.0373386, -0.0291675, 0.0020513, -0.00106743, -0.000368457, 0.00098042, 0.0242381, 0.0270989, 0.00191597, 0.000462122, 0.000477356, 0.0041535
-0.0365932, -0.0291315, 0.00207571, -0.00106796, -0.000375837, 0.000979151, 0.0241423, 0.0270985, 0.0019147, 0.000460994, 0.000475695, 0.00415209
-0.0357862, -0.0291053, 0.00210268, -0.00106845, -0.00038334, 0.000975503, 0.0240534, 0.0270983, 0.00191344, 0.0004599, 0.000474099, 0.00415043
-0.0352913, -0.0290981, 0.00212097, -0.00106759, -0.000386855, 0.000969363, 0.0239752, 0.0270982, 0.00191216, 0.000458844, 0.000472578, 0.00414837
-0.0350069, -0.0291015, 0.00213243, -0.00106628, -0.000388477, 0.000963066, 0.0239077, 0.0270982, 0.00191092, 0.000457836, 0.000471137, 0.00414586
-0.0347978, -0.0291058, 0.00214137, -0.00106494, -0.000388433, 0.000958635, 0.0238489, 0.0270981, 0.00190975, 0.000456881, 0.000469769, 0.00414291
-0.0345294, -0.0291123, 0.00215278, -0.00106365, -0.000388774, 0.000953948, 0.0237957, 0.0270981, 0.00190871, 0.000455972, 0.000468466, 0.00413961
-0.0342633, -0.0291231, 0.00216339, -0.00106258, -0.00039043, 0.000947781, 0.0237446, 0.027098, 0.00190786, 0.00045509, 0.000467211, 0.00413624
-0.0340496, -0.029138, 0.0021716, -0.00106114, -0.000392016, 0.000938556, 0.0236965, 0.0270978, 0.00190715, 0.000454234, 0.000465991, 0.00413276
-0.0338608, -0.0291585, 0.0021786, -0.0010599, -0.000392857, 0.00093209, 0.0236523, 0.0270975, 0.00190655, 0.000453408, 0.000464795, 0.00412907
-0.0337338, -0.0291773, 0.00218334, -0.00105832, -0.000393358, 0.000922645, 0.0236121, 0.0270969, 0.00190602, 0.000452609, 0.000463621, 0.00412519
-0.0335932, -0.0291965, 0.00218829, -0.001057, -0.000393739, 0.000914994, 0.0235722, 0.0270963, 0.00190555, 0.000451824, 0.000462451, 0.00412143
-0.0332529, -0.029238, 0.00219733, -0.0010558, -0.000395549, 0.00090656, 0.023521, 0.0270957, 0.0019052, 0.000451014, 0.000461262, 0.00411834
-0.032518, -0.0293415, 0.00220985, -0.00105517, -0.000398429, 0.000900101, 0.0234466, 0.0270943, 0.00190501, 0.000450163, 0.000460032, 0.00411603
-0.0314746, -0.0295204, 0.00222179, -0.00105484, -0.000402001, 0.00089319, 0.0233522, 0.0270919, 0.00190494, 0.000449304, 0.00045879, 0.00411401
-0.0307023, -0.0296633, 0.0022288, -0.00105616, -0.000404581, 0.000891932, 0.0232465, 0.0270888, 0.00190493, 0.000448462, 0.000457569, 0.00411197
-0.0300406, -0.0297855, 0.00223443, -0.00105656, -0.000403672, 0.000894468, 0.0231334, 0.0270855, 0.00190494, 0.000447642, 0.000456388, 0.00410982
-0.0298817, -0.0298118, 0.002236, -0.0010557, -0.000397848, 0.000900338, 0.0230129, 0.0270819, 0.00190497, 0.000446838, 0.000455245, 0.00410764
-0.0296324, -0.0298551, 0.00223797, -0.00105511, -0.000393497, 0.000904669, 0.0228905, 0.0270788, 0.00190501, 0.000446042, 0.000454128, 0.00410562
-0.0296052, -0.0298607, 0.00223817, -0.00105473, -0.000393344, 0.000902735, 0.022775, 0.0270755, 0.00190506, 0.000445245, 0.000453043, 0.0041038
-0.0296028, -0.0298616, 0.0022382, -0.00105415, -0.000392367, 0.000901983, 0.022666, 0.0270713, 0.00190513, 0.000444438, 0.000451997, 0.00410219
-0.0296034, -0.0298619, 0.00223817, -0.00105331, -0.000391264, 0.000900682, 0.0225653, 0.0270661, 0.00190521, 0.000443617, 0.000450985, 0.0041008
-0.0295562, -0.0298744, 0.00223838, -0.00105237, -0.000389702, 0.000899742, 0.0224696, 0.0270605, 0.00190529, 0.000442789, 0.000449998, 0.00409961
-0.029439, -0.0299039, 0.00223887, -0.00105148, -0.000387243, 0.000900262, 0.0223765, 0.0270553, 0.00190538, 0.000441964, 0.000449022, 0.00409856
-0.0302087, -0.0296798, 0.00223683, -0.0010489, -0.000380526, 0.000904468, 0.0222872, 0.0270492, 0.00190548, 0.000441138, 0.000448056, 0.0040976
-0.0310306, -0.0294144, 0.00223504, -0.00104615, -0.00037701, 0.000906311, 0.0222045, 0.0270421, 0.00190558, 0.000440276, 0.0004471, 0.00409692
-0.0318232, -0.0291406, 0.00223315, -0.00104407, -0.000374736, 0.000909801, 0.0221287, 0.0270347, 0.00190568, 0.000439381, 0.00044614, 0.00409645
-0.0326421, -0.0288414, 0.00222967, -0.00104289, -0.00037394, 0.000914067, 0.0220619, 0.0270273, 0.00190577, 0.000438458, 0.000445166, 0.00409611
-0.0331398, -0.0286318, 0.00222632, -0.00104427, -0.00037466, 0.00091585, 0.0220043, 0.0270189, 0.00190583, 0.000437515, 0.000444175, 0.00409579
-0.0329361, -0.028736, 0.00222672, -0.00104756, -0.000382591, 0.000906193, 0.0219548, 0.0270104, 0.00190586, 0.000436584, 0.000443173, 0.00409546
-0.0326582, -0.0288902, 0.00222834, -0.00105054, -0.000391672, 0.000896562, 0.0219102, 0.027002, 0.00190586, 0.000435681, 0.00044217, 0.00409512
-0.0324871, -0.0290047, 0.00222951, -0.00105263, -0.000398437, 0.000890292, 0.021872, 0.0269923, 0.00190584, 0.000434805, 0.000441167, 0.00409468
-0.0324037, -0.0290733, 0.00223001, -0.00105419, -0.000403441, 0.000886588, 0.0218385, 0.0269819, 0.0019058, 0.000433963, 0.000440177, 0.00409419
-0.0323637, -0.0291145, 0.00223013, -0.00105527, -0.000407309, 0.000883485, 0.0218089, 0.0269721, 0.00190574, 0.000433158, 0.000439211, 0.0040936
-0.0323619, -0.0291296, 0.00222966, -0.00105588, -0.000410264, 0.00088082, 0.0217829, 0.0269628, 0.00190566, 0.000432389, 0.000438269, 0.00409287
-0.0323631, -0.0291394, 0.00222913, -0.00105544, -0.000412135, 0.000877585, 0.021759, 0.0269534, 0.00190559, 0.000431645, 0.000437349, 0.00409206
-0.0323562, -0.0291524, 0.00222906, -0.00105573, -0.000414311, 0.000877499, 0.0217363, 0.0269445, 0.00190554, 0.00043092, 0.000436434, 0.00409126
-0.0323623, -0.0291537, 0.00222881, -0.00105635, -0.000416179, 0.0008782, 0.0217145, 0.0269355, 0.0019055, 0.000430219, 0.000435529, 0.00409035
-0.0323573, -0.0291609, 0.00222879, -0.00105679, -0.000417384, 0.000878675, 0.0216908, 0.0269249, 0.00190551, 0.000429534, 0.000434632, 0.00408937
-0.0322233, -0.0292499, 0.00222969, -0.00105736, -0.000418334, 0.000880206, 0.0216574, 0.0269129, 0.00190557, 0.000428831, 0.000433716, 0.00408861
-0.0319329, -0.0294345, 0.00222849, -0.00105656, -0.000423196, 0.000875232, 0.0216126, 0.0268998, 0.00190565, 0.000428131, 0.00043278, 0.00408794
-0.0315732, -0.0296467, 0.0022262, -0.00105619, -0.00042762, 0.000872267, 0.021558, 0.026886, 0.00190573, 0.000427453, 0.000431839, 0.00408718
-0.0313457, -0.029775, 0.00222476, -0.00105643, -0.00042888, 0.000872552, 0.0214997, 0.0268714, 0.0019058, 0.000426796, 0.000430914, 0.00408636
-0.0312517, -0.0298279, 0.00222432, -0.00105677, -0.000428774, 0.000873283, 0.0214431, 0.0268564, 0.00190588, 0.000426146, 0.000430021, 0.00408553
-0.0312306, -0.0298374, 0.00222444, -0.00105703, -0.000427927, 0.000874403, 0.02139, 0.0268408, 0.00190595, 0.000425489, 0.000429146, 0.00408481
-0.031321, -0.0297759, 0.00222508, -0.00105705, -0.000426783, 0.000874824, 0.0213423, 0.0268254, 0.00190603, 0.000424825, 0.000428295, 0.00408418
-0.0316491, -0.0295706, 0.00222558, -0.00105608, -0.000426761, 0.000872726, 0.0212983, 0.0268099, 0.00190608, 0.00042415, 0.000427503, 0.00408353
-0.0318578, -0.0293764, 0.00222383, -0.00104981, -0.000424456, 0.000863802, 0.0212561, 0.0267883, 0.00190601, 0.000423445, 0.000426862, 0.0040821
-0.0318397, -0.0293102, 0.00220905, -0.00103484, -0.000422958, 0.000835081, 0.0212137, 0.0267491, 0.00190561, 0.000422704, 0.000426451, 0.0040776
-0.0315004, -0.0294017, 0.00217019, -0.00101068, -0.000418643, 0.000767996, 0.0211688, 0.0266843, 0.00190464, 0.000421955, 0.000426262, 0.00406702
-0.0308368, -0.029819, 0.00210237, -0.000983257, -0.00041054, 0.000625695, 0.0211222, 0.0265988, 0.00190314, 0.000421272, 0.000426189, 0.00405057
-0.0299558, -0.0305009, 0.00201028, -0.000956232, -0.000397623, 0.000405999, 0.0210755, 0.0264981, 0.00190123, 0.000420705, 0.000426144, 0.00402926
-0.02891, -0.0312928, 0.00190524, -0.000932218, -0.000378722, 0.000126397, 0.0210285, 0.0263892, 0.00189902, 0.000420277, 0.000426065, 0.00400425
-0.0278302, -0.0321137, 0.00179623, -0.000912334, -0.000355732, -0.000195057, 0.0209812, 0.0262804, 0.00189668, 0.000419988, 0.000425913, 0.00397829
-0.0268423, -0.032718, 0.0016969, -0.000895855, -0.000331198, -0.000497699, 0.0209338, 0.0261743, 0.00189429, 0.000419818, 0.000425677, 0.00395375
-0.026008, -0.033192, 0.00160844, -0.000882632, -0.000307473, -0.000781967, 0.0208874, 0.0260773, 0.00189193, 0.000419738, 0.000425364, 0.00393302
-0.0254585, -0.0334379, 0.00154168, -0.000872088, -0.000288832, -0.0010022, 0.0208416, 0.0259934, 0.00188967, 0.000419703, 0.000424962, 0.0039175
-0.025245, -0.0335278, 0.00150229, -0.000865234, -0.000279964, -0.00112553, 0.0207967, 0.0259215, 0.00188753, 0.000419643, 0.000424431, 0.00390716
-0.0252835, -0.0335254, 0.00148893, -0.000863087, -0.000279714, -0.00115457, 0.0207529, 0.0258633, 0.00188554, 0.000419477, 0.000423696, 0.00390108
-0.0254392, -0.0336505, 0.00148821, -0.000865741, -0.000289191, -0.00110505, 0.0207097, 0.0258227, 0.00188383, 0.000419073, 0.000422551, 0.00389725
-0.0256688, -0.0335985, 0.00148939, -0.00086885, -0.000297751, -0.00104412, 0.0206695, 0.0257963, 0.00188251, 0.000418366, 0.000420867, 0.00389169
-0.0257321, -0.0337784, 0.00147893, -0.000873945, -0.00034476, -0.000701998, 0.0206335, 0.0257782, 0.00188168, 0.000417365, 0.00041863, 0.00388064
-0.0255452, -0.0336524, 0.00146537, -0.000869191, -0.000410222, -0.000155374, 0.0206047, 0.0257665, 0.00188126, 0.000416201, 0.000416008, 0.00386231
-0.025593, -0.0332518, 0.00147839, -0.000875, -0.000455994, 0.000305217, 0.0205835, 0.0257563, 0.00188108, 0.000415039, 0.000413319, 0.00383829
-0.025812, -0.0327135, 0.00150495, -0.000889804, -0.000481051, 0.000622798, 0.0205679, 0.0257433, 0.00188097, 0.00041407, 0.000410905, 0.00381368
-0.0260647, -0.0321152, 0.00153751, -0.000910054, -0.000491422, 0.000835699, 0.0205557, 0.0257268, 0.00188083, 0.00041337, 0.000408919, 0.00379231
-0.0263396, -0.0314568, 0.0015703, -0.000933761, -0.00048937, 0.000960796, 0.0205454, 0.0257082, 0.00188056, 0.000412925, 0.000407368, 0.00377612
-0.0265573, -0.0305731, 0.00160704, -0.000956708, -0.000485385, 0.00110027, 0.0205349, 0.0256857, 0.00188012, 0.000412668, 0.000406161, 0.00376421
-0.0265205, -0.0299287, 0.00162383, -0.000980948, -0.000464244, 0.00111862, 0.0205234, 0.0256571, 0.00187947, 0.000412531, 0.000405208, 0.00375579
-0.026088, -0.0295216, 0.00161259, -0.00100625, -0.000426351, 0.00106106, 0.0205103, 0.0256217, 0.00187856, 0.000412451, 0.000404464, 0.0037507
-0.0255189, -0.0290298, 0.00159717, -0.00102628, -0.000392637, 0.00104032, 0.0204943, 0.0255811, 0.00187737, 0.000412373, 0.000403856, 0.00374787
-0.0220541, -0.0329936, 0.0013663, -0.00102392, -0.000288935, 0.000663576, 0.0204754, 0.0255376, 0.00187594, 0.000412255, 0.000403302, 0.00374632
-0.0187502, -0.037422, 0.00111788, -0.000997804, -0.000209904, 0.000520938, 0.0204553, 0.0254893, 0.00187416, 0.000412025, 0.000402875, 0.00374601
-0.0154076, -0.0431367, 0.000839004, -0.000945674, -0.000147914, 0.000507848, 0.020434, 0.0254376, 0.00187216, 0.000411671, 0.000402507, 0.00374576
-0.0125621, -0.0477996, 0.000612691, -0.000899631, -9.74698e-05, 0.000574936, 0.0204126, 0.0253868, 0.00187008, 0.000411205, 0.000402175, 0.00374518
-0.010302, -0.0513079, 0.000444488, -0.000864795, -5.58251e-05, 0.000645783, 0.0203914, 0.0253396, 0.00186801, 0.000410683, 0.000401852, 0.00374429
-0.00865569, -0.0530005, 0.000356914, -0.000856597, -2.29047e-05, 0.00069115, 0.020371, 0.0252992, 0.00186601, 0.000410156, 0.000401515, 0.00374314
-0.00786949, -0.0542178, 0.000315022, -0.000842866, -4.09273e-06, 0.00068361, 0.020352, 0.0252688, 0.00186416, 0.000409636, 0.000401112, 0.00374148
-0.00760227, -0.0546333, 0.000315296, -0.000835875, 4.18982e-06, 0.000635987, 0.0203346, 0.025247, 0.00186247, 0.000409151, 0.00040061, 0.00373937
-0.00766732, -0.0545857, 0.000344718, -0.000832856, 2.89758e-06, 0.000569871, 0.0203182, 0.0252298, 0.00186085, 0.000408717, 0.000400015, 0.00373713
-0.00806539, -0.0541716, 0.000401978, -0.000830441, -8.27579e-06, 0.000478544, 0.0203027, 0.0252155, 0.00185919, 0.000408315, 0.000399358, 0.00373463
-0.00865348, -0.0535311, 0.000470384, -0.000829172, -2.52369e-05, 0.000383455, 0.0202866, 0.0252021, 0.00185748, 0.00040794, 0.000398691, 0.00373234
-0.00932693, -0.0527129, 0.000547505, -0.000831131, -4.72826e-05, 0.000302559, 0.0202687, 0.0251878, 0.00185565, 0.000407575, 0.000398049, 0.00373042
-0.009998, -0.0518024, 0.000628252, -0.000834424, -7.06329e-05, 0.000240384, 0.0202482, 0.0251712, 0.00185363, 0.000407208, 0.000397465, 0.00372903
-0.0106817, -0.050802, 0.000713404, -0.000837765, -9.45276e-05, 0.000188929, 0.0202251, 0.0251523, 0.00185142, 0.000406846, 0.000396942, 0.00372804
-0.0114191, -0.0497894, 0.000801613, -0.000838784, -0.000117561, 0.000138294, 0.020201, 0.025133, 0.00184911, 0.000406495, 0.000396476, 0.0037272
-0.012173, -0.0487726, 0.000887166, -0.000839572, -0.0001399, 8.67247e-05, 0.0201768, 0.025115, 0.00184683, 0.000406159, 0.000396067, 0.00372643
-0.0129353, -0.0477867, 0.000971112, -0.000839933, -0.000161677, 3.48925e-05, 0.0201535, 0.0250987, 0.00184458, 0.000405841, 0.000395703, 0.00372559
-0.0136923, -0.04684, 0.00105156, -0.00084078, -0.000182482, -2.43351e-05, 0.0201312, 0.0250834, 0.00184234, 0.000405557, 0.000395383, 0.00372466
-0.0139894, -0.0458862, 0.00110378, -0.000851932, -0.000201739, -3.21315e-05, 0.0201098, 0.0250684, 0.0018401, 0.000405305, 0.000395097, 0.00372381
-0.0143009, -0.0449165, 0.00115753, -0.000861864, -0.000221104, -2.7747e-05, 0.020089, 0.0250539, 0.00183784, 0.00040506, 0.000394816, 0.00372324
-0.0146096, -0.0440066, 0.00120834, -0.000870076, -0.000239026, -1.34057e-05, 0.0200689, 0.0250395, 0.00183555, 0.000404821, 0.000394538, 0.00372275
-0.0150376, -0.0430324, 0.0012677, -0.000875947, -0.000259382, 1.00545e-05, 0.0200503, 0.0250247, 0.00183327, 0.000404571, 0.000394253, 0.00372245
-0.0154663, -0.0420738, 0.00132743, -0.000880972, -0.000278738, 4.37136e-05, 0.0200332, 0.025008, 0.00183094, 0.000404297, 0.000393947, 0.00372217
-0.0158437, -0.0411279, 0.00138406, -0.000886483, -0.000296205, 8.57688e-05, 0.0200174, 0.024988, 0.00182845, 0.000404004, 0.000393611, 0.0037217
-0.0161519, -0.0400751, 0.00143864, -0.000894585, -0.000313125, 0.000135772, 0.0200028, 0.0249648, 0.00182576, 0.000403688, 0.000393244, 0.003721
-0.0164235, -0.0390049, 0.00149139, -0.000904201, -0.000328925, 0.000177604, 0.01999, 0.0249405, 0.00182306, 0.000403318, 0.000392847, 0.00372003
-0.016707, -0.0380004, 0.00154049, -0.000913609, -0.00034508, 0.000219765, 0.0199794, 0.0249174, 0.00182041, 0.000402887, 0.000392404, 0.00371858
-0.0170044, -0.0370609, 0.00158371, -0.000923586, -0.000361961, 0.000264014, 0.0199702, 0.0248963, 0.00181766, 0.00040238, 0.000391893, 0.00371624
-0.0173094, -0.0362143, 0.00162243, -0.000934262, -0.000379717, 0.000309304, 0.0199625, 0.0248768, 0.00181475, 0.000401808, 0.000391322, 0.00371317
-0.0175838, -0.0355424, 0.00165256, -0.000945799, -0.000395809, 0.000345928, 0.0199561, 0.0248572, 0.00181155, 0.000401188, 0.000390691, 0.00370951
-0.0178589, -0.0350332, 0.0016795, -0.000957567, -0.000412415, 0.000388868, 0.0199507, 0.0248384, 0.00180812, 0.000400529, 0.000389998, 0.00370531
-0.0181241, -0.0347576, 0.00170144, -0.000967732, -0.000431481, 0.000452083, 0.0199463, 0.0248209, 0.0018046, 0.000399844, 0.000389254, 0.00370081
-0.0183565, -0.0347159, 0.00171759, -0.000978943, -0.000454163, 0.000538072, 0.0199415, 0.0248038, 0.00180087, 0.000399133, 0.000388447, 0.00369594
-0.0185081, -0.0349681, 0.00172218, -0.000992279, -0.000479546, 0.00063893, 0.0199344, 0.024785, 0.0017967, 0.000398392, 0.000387578, 0.00369068
-0.0185502, -0.0355352, 0.00170845, -0.00100716, -0.000506177, 0.0007511, 0.0199238, 0.024762, 0.00179192, 0.000397626, 0.000386646, 0.00368489
-0.018475, -0.0363512, 0.00168166, -0.00102331, -0.000533638, 0.000871527, 0.0199109, 0.024735, 0.0017868, 0.000396835, 0.000385666, 0.00367851
-0.0183228, -0.0373316, 0.00164314, -0.00104077, -0.000560359, 0.000987651, 0.0198958, 0.0247061, 0.00178135, 0.00039604, 0.000384671, 0.0036717
-0.0181009, -0.0385788, 0.00159027, -0.00106137, -0.000591217, 0.00111936, 0.0198799, 0.0246755, 0.00177567, 0.000395293, 0.000383719, 0.0036652
-0.018032, -0.0397688, 0.00154852, -0.00108763, -0.000615003, 0.00119029, 0.0198647, 0.0246441, 0.0017698, 0.000394611, 0.000382842, 0.00365931
-0.0178947, -0.0409572, 0.00149006, -0.00111011, -0.000637696, 0.00126778, 0.0198493, 0.0246118, 0.00176342, 0.000394023, 0.000382055, 0.00365437
-0.0177973, -0.04192, 0.00143503, -0.00113103, -0.000654302, 0.00130573, 0.0198348, 0.0245808, 0.00175678, 0.000393504, 0.000381375, 0.00365031
-0.0177976, -0.0421348, 0.00141565, -0.0011362, -0.000653736, 0.00129428, 0.0198221, 0.0245516, 0.00175015, 0.000393038, 0.000380797, 0.00364697
-0.0177843, -0.0423681, 0.00138933, -0.00114152, -0.000651999, 0.00127757, 0.0198092, 0.0245208, 0.00174323, 0.0003926, 0.00038033, 0.00364434
-0.0177331, -0.0426212, 0.0013566, -0.00114634, -0.000649258, 0.00125903, 0.019796, 0.0244874, 0.00173601, 0.000392165, 0.000379922, 0.00364168
-0.0176697, -0.0428089, 0.00132739, -0.00115221, -0.000643556, 0.00122374, 0.0197824, 0.0244516, 0.00172858, 0.000391736, 0.00037952, 0.00363847
-0.0176057, -0.0428933, 0.00130166, -0.00115999, -0.000635194, 0.00116391, 0.0197687, 0.0244146, 0.00172115, 0.000391327, 0.000379128, 0.00363506
-0.0175081, -0.0428271, 0.00128148, -0.00116844, -0.000619289, 0.0010651, 0.0197552, 0.0243756, 0.00171377, 0.000390938, 0.000378739, 0.00363165
-0.0173798, -0.0426918, 0.00126305, -0.00117641, -0.000603014, 0.000964117, 0.0197406, 0.0243325, 0.00170624, 0.000390563, 0.000378341, 0.00362823
-0.0172572, -0.0424662, 0.00125028, -0.00118484, -0.000586455, 0.000853405, 0.0197252, 0.0242842, 0.00169854, 0.000390197, 0.000377904, 0.00362453
-0.0171135, -0.0422395, 0.00123723, -0.00119186, -0.000569639, 0.000740461, 0.0197094, 0.0242358, 0.00169085, 0.00038985, 0.00037743, 0.00362082
-0.0169711, -0.0420348, 0.00122518, -0.00119714, -0.00055348, 0.000631204, 0.0196942, 0.024192, 0.00168346, 0.000389511, 0.000376917, 0.00361703
-0.0168478, -0.0418687, 0.00121467, -0.00120057, -0.000538524, 0.00052947, 0.0196803, 0.0241523, 0.00167636, 0.000389167, 0.000376362, 0.00361317
-0.0166909, -0.0417739, 0.00119791, -0.00120135, -0.000522683, 0.000424194, 0.0196672, 0.0241164, 0.00166947, 0.000388826, 0.000375784, 0.00360957
-0.0165586, -0.0417317, 0.00118253, -0.00119785, -0.000510452, 0.00034695, 0.0196545, 0.0240834, 0.00166271, 0.000388498, 0.000375213, 0.00360672
-0.0164753, -0.0416443, 0.00117136, -0.00119107, -0.000500873, 0.000283686, 0.0196416, 0.0240515, 0.00165603, 0.000388181, 0.000374655, 0.00360465
-0.0164328, -0.0414791, 0.00116498, -0.00118194, -0.000493816, 0.0002308, 0.0196272, 0.0240174, 0.00164924, 0.000387863, 0.000374101, 0.00360306
-0.0164064, -0.0412635, 0.00116083, -0.0011711, -0.000490005, 0.000190376, 0.0196119, 0.0239788, 0.00164234, 0.000387538, 0.000373545, 0.00360174
-0.0164468, -0.0409347, 0.00116724, -0.00115964, -0.000488258, 0.000155213, 0.0195974, 0.0239354, 0.00163559, 0.000387213, 0.000372975, 0.00360035
-0.0165356, -0.0405262, 0.00117825, -0.00114672, -0.000487182, 0.000114235, 0.019582, 0.0238921, 0.00162889, 0.000386912, 0.000372419, 0.00359904
-0.0166813, -0.0400199, 0.0011945, -0.00113302, -0.000485658, 5.44851e-05, 0.0195653, 0.023849, 0.00162224, 0.000386655, 0.00037188, 0.00359769
-0.0169136, -0.0392971, 0.00122334, -0.0011177, -0.000483408, -3.51267e-05, 0.0195481, 0.0238057, 0.00161576, 0.000386445, 0.000371362, 0.00359616
-0.0172186, -0.0384703, 0.00125987, -0.00110254, -0.000478678, -0.000151137, 0.0195304, 0.0237625, 0.00160941, 0.00038628, 0.000370861, 0.00359433
-0.0175403, -0.0376815, 0.00130271, -0.00109052, -0.000474324, -0.000260124, 0.0195123, 0.0237178, 0.00160302, 0.000386149, 0.000370371, 0.00359221
-0.0179749, -0.0364061, 0.00137084, -0.00107035, -0.000475716, -0.000422609, 0.019495, 0.0236722, 0.0015967, 0.000386046, 0.000369887, 0.00358982
-0.0184485, -0.0353396, 0.00142882, -0.00105216, -0.000477037, -0.000570385, 0.0194761, 0.0236265, 0.00159021, 0.000385978, 0.000369415, 0.00358695
-0.0188752, -0.0345549, 0.00147566, -0.0010391, -0.000479669, -0.000662843, 0.0194538, 0.0235803, 0.00158349, 0.00038592, 0.000368945, 0.00358379
-0.0187102, -0.0345328, 0.00146863, -0.0010404, -0.000487752, -0.000606318, 0.0194289, 0.0235332, 0.00157662, 0.000385856, 0.000368485, 0.00358065
-0.018672, -0.0345098, 0.00146672, -0.00104028, -0.00048982, -0.0005955, 0.0194017, 0.0234855, 0.00156972, 0.000385769, 0.000368038, 0.00357786
-0.0186522, -0.0345398, 0.00146391, -0.00104064, -0.000489603, -0.000597721, 0.0193719, 0.0234337, 0.00156279, 0.000385643, 0.000367602, 0.00357551
-0.0187389, -0.0345219, 0.00147042, -0.00103984, -0.000488015, -0.000606739, 0.0193387, 0.0233756, 0.00155569, 0.000385487, 0.000367184, 0.00357359
-0.0189119, -0.0344824, 0.00148739, -0.00103921, -0.000484762, -0.000622796, 0.0193, 0.023311, 0.00154828, 0.00038531, 0.000366778, 0.00357186
-0.0192492, -0.0342874, 0.00152843, -0.00103843, -0.000480384, -0.000638275, 0.0192562, 0.02324, 0.00154058, 0.000385106, 0.000366379, 0.00357032
-0.0197643, -0.0339106, 0.00159635, -0.00103757, -0.000474902, -0.000651748, 0.0192086, 0.0231645, 0.00153274, 0.000384872, 0.000365986, 0.00356892
-0.0204663, -0.0333692, 0.00168837, -0.00103661, -0.00046842, -0.000663812, 0.019157, 0.0230853, 0.00152459, 0.000384613, 0.000365592, 0.00356761
-0.0213684, -0.0326545, 0.00180441, -0.00103542, -0.000461007, -0.000673449, 0.0191028, 0.023005, 0.00151625, 0.00038433, 0.000365197, 0.00356638
-0.0224776, -0.0317353, 0.00194525, -0.00103401, -0.000452801, -0.000680412, 0.0190472, 0.0229243, 0.00150777, 0.000384024, 0.000364803, 0.0035653
-0.0237811, -0.0305506, 0.00211196, -0.00103222, -0.000444114, -0.000684733, 0.0189924, 0.0228441, 0.00149935, 0.00038369, 0.000364419, 0.00356444
-0.0252353, -0.0292234, 0.00229451, -0.00103054, -0.000435429, -0.000682753, 0.0189362, 0.0227647, 0.00149079, 0.00038332, 0.000364042, 0.00356369
-0.0267905, -0.0277663, 0.00248765, -0.00102818, -0.000427266, -0.000671725, 0.0188816, 0.0226897, 0.00148241, 0.000382895, 0.000363671, 0.00356293
-0.0283199, -0.026289, 0.0026765, -0.00102519, -0.000419802, -0.000654984, 0.0188307, 0.0226196, 0.00147434, 0.000382413, 0.000363307, 0.00356208
-0.0296995, -0.0248991, 0.00284793, -0.00102169, -0.000413158, -0.000635311, 0.0187852, 0.0225549, 0.00146675, 0.000381874, 0.000362944, 0.00356104
-0.0308281, -0.0237625, 0.00298656, -0.00101829, -0.000406977, -0.000618664, 0.0187445, 0.0224946, 0.0014595, 0.000381294, 0.000362576, 0.00355986
-0.0316105, -0.0229991, 0.00308054, -0.0010149, -0.000401579, -0.000603743, 0.0187089, 0.0224387, 0.00145265, 0.000380667, 0.000362197, 0.00355843
-0.03202, -0.0227168, 0.00312374, -0.00101214, -0.000396059, -0.000593378, 0.0186777, 0.0223862, 0.00144612, 0.000379996, 0.000361809, 0.00355674
-0.0320357, -0.0229966, 0.00311175, -0.00101069, -0.000390032, -0.000588006, 0.0186481, 0.0223364, 0.00143965, 0.000379293, 0.000361419, 0.00355485
-0.0316936, -0.0237278, 0.00305128, -0.00100939, -0.000384402, -0.000582853, 0.0186207, 0.0222913, 0.00143344, 0.00037856, 0.000361031, 0.00355268
-0.0310518, -0.0248325, 0.00295033, -0.0010087, -0.000379235, -0.000579593, 0.0185946, 0.0222496, 0.00142739, 0.0003778, 0.000360647, 0.0035502
-0.0301134, -0.0262948, 0.00281014, -0.00100723, -0.000374823, -0.000569984, 0.0185685, 0.0222096, 0.00142136, 0.000377023, 0.000360269, 0.00354747
-0.028993, -0.0280267, 0.00264213, -0.0010035, -0.000372812, -0.000539821, 0.0185446, 0.0221699, 0.00141555, 0.00037621, 0.000359899, 0.00354417
-0.0277734, -0.0299441, 0.00245718, -0.000995466, -0.000373231, -0.000473091, 0.0185226, 0.0221294, 0.00140992, 0.000375344, 0.000359532, 0.00354011
-0.0264706, -0.0319379, 0.00226391, -0.000987003, -0.000374708, -0.000399489, 0.0184995, 0.0220882, 0.00140421, 0.000374461, 0.00035916, 0.00353579
-0.0251916, -0.0337438, 0.00208247, -0.00097913, -0.00037609, -0.000336077, 0.0184735, 0.0220468, 0.00139831, 0.000373581, 0.000358772, 0.00353159
-0.024115, -0.0351609, 0.00193449, -0.000972198, -0.00037654, -0.000285451, 0.0184446, 0.0220032, 0.00139222, 0.000372728, 0.000358356, 0.00352789
-0.0233248, -0.0361485, 0.0018275, -0.000967035, -0.000375923, -0.000251721, 0.0184133, 0.0219557, 0.00138592, 0.000371908, 0.000357901, 0.00352474
-0.02285, -0.0366948, 0.00176392, -0.000962643, -0.000374685, -0.000226675, 0.0183802, 0.0219013, 0.00137941, 0.000371114, 0.000357402, 0.00352195
-0.0226637, -0.036822, 0.00174046, -0.000958588, -0.000373157, -0.00020835, 0.0183451, 0.0218403, 0.00137264, 0.000370348, 0.000356865, 0.00351941
-0.0227469, -0.0367275, 0.0017495, -0.000959244, -0.000372112, -0.000213372, 0.018307, 0.0217749, 0.00136559, 0.000369606, 0.000356299, 0.00351701
-0.023159, -0.0362439, 0.00179787, -0.000960852, -0.000369633, -0.00022791, 0.0182656, 0.0217081, 0.00135836, 0.000368905, 0.000355704, 0.00351487
-0.0238222, -0.0354503, 0.00187789, -0.000962095, -0.000366933, -0.000241824, 0.0182244, 0.0216413, 0.00135125, 0.000368225, 0.000355091, 0.0035128
-0.0246413, -0.0344028, 0.00198072, -0.000962059, -0.000364891, -0.000253088, 0.0181834, 0.0215722, 0.00134418, 0.000367552, 0.000354469, 0.00351072
-0.0255934, -0.0332239, 0.00209862, -0.000961972, -0.0003637, -0.000264832, 0.0181401, 0.0215023, 0.00133688, 0.000366876, 0.00035384, 0.00350856
-0.0265559, -0.0321272, 0.00221475, -0.000961494, -0.000363988, -0.000267011, 0.0180944, 0.021436, 0.00132952, 0.000366195, 0.000353193, 0.00350623
-0.0273844, -0.0312335, 0.0023133, -0.000961401, -0.000364406, -0.000266018, 0.0180498, 0.0213754, 0.00132243, 0.000365513, 0.000352528, 0.00350383
-0.0279352, -0.0306424, 0.00237916, -0.000961853, -0.000364532, -0.000266812, 0.0180081, 0.0213196, 0.0013157, 0.000364832, 0.000351847, 0.0035014
-0.0281233, -0.0304639, 0.00240069, -0.000962613, -0.000364682, -0.000268305, 0.0179671, 0.0212677, 0.00130913, 0.000364173, 0.000351154, 0.00349918
-0.0279246, -0.0307174, 0.00237537, -0.000963176, -0.000365055, -0.000267811, 0.0179261, 0.0212191, 0.00130267, 0.000363542, 0.000350461, 0.00349731
-0.0274318, -0.031349, 0.00231207, -0.000963354, -0.000366575, -0.000261107, 0.0178888, 0.0211736, 0.00129663, 0.000362912, 0.000349777, 0.00349563
-0.0267996, -0.0322212, 0.00222576, -0.000963865, -0.000368952, -0.000253295, 0.0178563, 0.0211322, 0.00129115, 0.000362273, 0.000349107, 0.00349404
-0.0260818, -0.0331831, 0.00212752, -0.000964865, -0.000370965, -0.000249186, 0.0178251, 0.0210939, 0.00128586, 0.000361648, 0.000348448, 0.00349262
-0.0253996, -0.0341386, 0.00203242, -0.000966871, -0.000373161, -0.000244657, 0.0177949, 0.0210555, 0.0012806, 0.000361011, 0.000347766, 0.00349085
-0.0247798, -0.0350645, 0.00194399, -0.000970299, -0.000375387, -0.000239848, 0.0177644, 0.0210152, 0.00127525, 0.000360358, 0.000347035, 0.00348835
-0.0242515, -0.0358798, 0.00186496, -0.000976459, -0.000374947, -0.000251869, 0.0177334, 0.0209738, 0.00126984, 0.000359694, 0.000346225, 0.0034846
-0.023855, -0.0366056, 0.00179813, -0.000985584, -0.000373114, -0.000279608, 0.0177038, 0.0209306, 0.00126449, 0.000358975, 0.000345299, 0.00347833
-0.0235709, -0.0372381, 0.0017425, -0.000997732, -0.000369519, -0.000330506, 0.0176749, 0.0208849, 0.00125911, 0.000358172, 0.000344238, 0.00346841
-0.0233798, -0.0377959, 0.00169591, -0.0010131, -0.000364773, -0.000403651, 0.0176461, 0.0208388, 0.00125377, 0.000357293, 0.00034305, 0.00345437
-0.0233313, -0.0380256, 0.00166504, -0.00103792, -0.000348276, -0.000618076, 0.0176175, 0.0207919, 0.00124842, 0.000356332, 0.000341726, 0.00343512
-0.0234316, -0.0381665, 0.00164435, -0.00107196, -0.000327189, -0.00091449, 0.0175888, 0.0207409, 0.001243, 0.000355277, 0.000340261, 0.00340947
-0.0236101, -0.0382362, 0.00163111, -0.00110772, -0.000305562, -0.00122958, 0.0175598, 0.0206837, 0.00123746, 0.000354159, 0.000338694, 0.00337822
-0.0238811, -0.0380994, 0.00162615, -0.00115138, -0.000276318, -0.00164997, 0.0175302, 0.020624, 0.00123187, 0.000353039, 0.000337106, 0.00334417
-0.024182, -0.0379665, 0.00162358, -0.00119215, -0.000250259, -0.00201405, 0.0175029, 0.020566, 0.00122659, 0.000351993, 0.000335579, 0.00331135
-0.0244944, -0.037871, 0.00162348, -0.00122812, -0.000229143, -0.00228925, 0.0174783, 0.0205155, 0.00122176, 0.000351087, 0.000334187, 0.00328381
-0.0247275, -0.0379521, 0.0016165, -0.00125399, -0.00021707, -0.00241028, 0.0174561, 0.0204738, 0.00121738, 0.000350409, 0.000333024, 0.00326628
-0.0247836, -0.0381403, 0.00159962, -0.00126729, -0.00021182, -0.00242538, 0.0174374, 0.0204425, 0.00121358, 0.000349984, 0.000332142, 0.00325927
-0.0246303, -0.0384861, 0.00157177, -0.00126831, -0.00021663, -0.00240201, 0.017423, 0.0204218, 0.00121042, 0.000349739, 0.000331551, 0.00325807
-0.0242623, -0.0388808, 0.00153502, -0.00126355, -0.000227786, -0.00251638, 0.0174122, 0.0204084, 0.00120778, 0.000349527, 0.000331226, 0.00325467
-0.0238003, -0.0390926, 0.00149886, -0.00125705, -0.000235027, -0.00280289, 0.0174043, 0.0203999, 0.00120558, 0.000349187, 0.000331117, 0.00324101
-0.0232837, -0.0391477, 0.00146507, -0.00125081, -0.000238853, -0.00327768, 0.0173986, 0.0203949, 0.00120376, 0.000348617, 0.000331151, 0.00321276
-0.0226844, -0.0391339, 0.00143311, -0.00125941, -0.000243074, -0.00415622, 0.0173938, 0.0203921, 0.00120218, 0.000347792, 0.000331269, 0.00317005
-0.0219794, -0.039102, 0.0013966, -0.00127062, -0.000243025, -0.00520347, 0.017389, 0.0203902, 0.00120071, 0.000346747, 0.000331428, 0.00311614
-0.0212177, -0.0390823, 0.00135707, -0.00128358, -0.00024072, -0.00634677, 0.0173842, 0.0203887, 0.00119924, 0.000345566, 0.000331603, 0.00305746
-0.0204314, -0.039085, 0.0013184, -0.00129258, -0.000237883, -0.007483, 0.0173795, 0.0203869, 0.00119773, 0.00034434, 0.000331786, 0.0030003
-0.0195997, -0.0390423, 0.0012821, -0.00128402, -0.00023558, -0.00847645, 0.0173747, 0.0203846, 0.00119608, 0.000343136, 0.000331973, 0.00294853
-0.0187958, -0.0389505, 0.00125031, -0.00125776, -0.000235017, -0.00925426, 0.0173696, 0.0203813, 0.00119423, 0.000341993, 0.000332159, 0.0029033
-0.0181552, -0.0389086, 0.0012247, -0.001231, -0.000237407, -0.0098455, 0.0173639, 0.0203769, 0.00119215, 0.000340942, 0.000332341, 0.00286522
-0.0176706, -0.0389521, 0.00120298, -0.0012046, -0.00024345, -0.0102279, 0.017357, 0.0203707, 0.00118973, 0.00034002, 0.000332502, 0.00283664
-0.0173724, -0.0390477, 0.00118849, -0.00118021, -0.000253072, -0.0104045, 0.0173489, 0.0203626, 0.00118703, 0.000339229, 0.000332604, 0.0028191
-0.0172262, -0.0391655, 0.00118008, -0.00116134, -0.000263996, -0.0104441, 0.0173392, 0.0203516, 0.00118398, 0.000338531, 0.000332583, 0.00281078
-0.0172015, -0.0392215, 0.00117883, -0.00115189, -0.000270742, -0.0104187, 0.0173283, 0.0203384, 0.00118073, 0.000337835, 0.000332367, 0.00280721
-0.0172205, -0.0391668, 0.00118199, -0.0011594, -0.000266556, -0.0104654, 0.0173178, 0.0203226, 0.00117746, 0.000337047, 0.000331905, 0.0028031
-0.0172112, -0.0390512, 0.00118451, -0.00118117, -0.000254994, -0.0106294, 0.0173074, 0.0203041, 0.00117417, 0.000336121, 0.000331171, 0.00279446
-0.0171483, -0.0388216, 0.00118624, -0.00121865, -0.000230391, -0.0109737, 0.0172968, 0.0202829, 0.00117087, 0.000335051, 0.000330174, 0.00277874
-0.0170561, -0.0384906, 0.00118934, -0.00126878, -0.000198781, -0.0114561, 0.0172857, 0.0202591, 0.00116754, 0.000333865, 0.000328948, 0.00275508
-0.0169545, -0.0380737, 0.00119436, -0.00132693, -0.000163651, -0.0120225, 0.0172745, 0.0202336, 0.00116425, 0.000332602, 0.000327549, 0.00272382
-0.0168423, -0.0375359, 0.00120306, -0.00139121, -0.000121779, -0.0126959, 0.0172641, 0.0202086, 0.00116114, 0.000331307, 0.000326045, 0.00268653
-0.0167312, -0.0369619, 0.00121352, -0.00145716, -8.06809e-05, -0.0133712, 0.0172539, 0.0201853, 0.00115817, 0.000330031, 0.000324491, 0.00264501
-0.016611, -0.0363705, 0.00122458, -0.00152269, -3.96358e-05, -0.0140433, 0.0172435, 0.0201629, 0.00115525, 0.000328813, 0.000322936, 0.00260118
-0.0164744, -0.0357753, 0.00123443, -0.00158638, 1.99059e-06, -0.0147095, 0.0172339, 0.020141, 0.00115245, 0.000327687, 0.00032143, 0.00255771
-0.0163391, -0.0351584, 0.0012438, -0.00165187, 4.1097e-05, -0.0153246, 0.017225, 0.0201197, 0.00114976, 0.00032668, 0.000320005, 0.00251662
-0.016203, -0.0346041, 0.00125048, -0.00171153, 7.51516e-05, -0.0158353, 0.0172171, 0.0201007, 0.00114724, 0.000325795, 0.000318659, 0.00247849
-0.0160231, -0.0341081, 0.00125327, -0.00176952, 0.000108939, -0.0163055, 0.0172104, 0.0200842, 0.00114492, 0.000325027, 0.0003174, 0.00244399
-0.0158213, -0.0337582, 0.00125024, -0.00181821, 0.000137358, -0.0166554, 0.0172047, 0.0200693, 0.00114273, 0.000324389, 0.000316242, 0.00241459
-0.0156283, -0.0335313, 0.00124411, -0.00185639, 0.000160204, -0.016876, 0.0172002, 0.0200567, 0.00114074, 0.000323907, 0.000315211, 0.00239243
-0.0154526, -0.0334128, 0.00123552, -0.00188527, 0.00017714, -0.0169624, 0.0171972, 0.0200467, 0.001139, 0.000323589, 0.000314323, 0.0023782
-0.0153086, -0.0334244, 0.00122502, -0.00190185, 0.000186305, -0.016944, 0.0171951, 0.0200393, 0.00113746, 0.00032341, 0.000313574, 0.00237002
-0.0152633, -0.033462, 0.00122115, -0.00190512, 0.000189273, -0.0169295, 0.0171938, 0.0200325, 0.00113616, 0.000323318, 0.00031296, 0.00236532
-0.015287, -0.0335006, 0.00122021, -0.00190252, 0.000190834, -0.0169565, 0.0171927, 0.020025, 0.00113502, 0.000323271, 0.000312475, 0.00236118
-0.0154169, -0.0333595, 0.00122802, -0.00189746, 0.000186252, -0.0170568, 0.0171914, 0.0200173, 0.00113404, 0.000323228, 0.000312105, 0.00235536
-0.0156083, -0.0331065, 0.00124119, -0.00189205, 0.000180174, -0.0172346, 0.0171898, 0.0200097, 0.00113323, 0.000323151, 0.000311838, 0.00234657
-0.0158325, -0.0327535, 0.00125881, -0.0018875, 0.000172741, -0.0174892, 0.0171881, 0.0200026, 0.00113255, 0.000323021, 0.000311656, 0.00233445
-0.0160623, -0.0323248, 0.00127873, -0.00188479, 0.000163879, -0.0178045, 0.0171863, 0.0199959, 0.00113196, 0.000322833, 0.000311539, 0.00231976
-0.0162921, -0.0318453, 0.00130101, -0.00188321, 0.000153805, -0.0181629, 0.0171844, 0.0199898, 0.00113142, 0.000322596, 0.000311464, 0.00230412
-0.0164857, -0.0314297, 0.00132092, -0.00188167, 0.0001441, -0.0184929, 0.0171826, 0.0199846, 0.00113095, 0.00032232, 0.000311416, 0.00228902
-0.0166412, -0.0310639, 0.00133825, -0.00188093, 0.000133885, -0.0188023, 0.0171808, 0.0199807, 0.00113055, 0.000322003, 0.000311388, 0.00227485
-0.0167808, -0.0307794, 0.00135328, -0.00187794, 0.00012475, -0.0190633, 0.0171792, 0.0199774, 0.00113017, 0.000321654, 0.000311368, 0.00226202
-0.0169006, -0.0304561, 0.00136979, -0.00187659, 0.000113745, -0.0193093, 0.0171777, 0.0199742, 0.00112976, 0.000321284, 0.000311344, 0.00225125
-0.0169863, -0.0301834, 0.00138529, -0.00187465, 0.000103214, -0.0194719, 0.0171759, 0.0199712, 0.00112939, 0.000320905, 0.000311288, 0.00224405
-0.0170546, -0.0299605, 0.00139882, -0.00187187, 9.30965e-05, -0.0195601, 0.0171742, 0.0199685, 0.00112898, 0.000320527, 0.000311167, 0.0022406
-0.0170414, -0.0298578, 0.00140554, -0.00187283, 8.78543e-05, -0.0195812, 0.0171722, 0.0199661, 0.00112858, 0.000320128, 0.000310952, 0.0022396
-0.0169689, -0.0298082, 0.00140763, -0.00187825, 8.63193e-05, -0.019593, 0.0171699, 0.019964, 0.0011282, 0.000319696, 0.000310624, 0.00223918
-0.0168623, -0.0297816, 0.00140653, -0.00188848, 8.8223e-05, -0.0196233, 0.0171681, 0.0199619, 0.00112775, 0.000319225, 0.000310172, 0.0022375
-0.0167536, -0.0297919, 0.00140389, -0.00190112, 9.67974e-05, -0.0196979, 0.0171667, 0.0199596, 0.00112724, 0.000318711, 0.0003096, 0.0022331
-0.0166273, -0.029797, 0.00139941, -0.00192006, 0.000111658, -0.0198398, 0.0171659, 0.0199569, 0.00112663, 0.000318162, 0.000308933, 0.0022254
-0.01651, -0.0297439, 0.00139564, -0.00194468, 0.000127999, -0.0200201, 0.0171654, 0.019954, 0.00112598, 0.000317579, 0.000308194, 0.00221422
-0.0164033, -0.0296477, 0.00139327, -0.00197254, 0.000147077, -0.0202429, 0.017165, 0.0199503, 0.00112534, 0.000316966, 0.00030741, 0.00219977
-0.0162999, -0.0295168, 0.00139069, -0.00200583, 0.000171537, -0.0205339, 0.0171646, 0.0199458, 0.00112463, 0.000316351, 0.000306606, 0.00218283
-0.0162182, -0.0293632, 0.0013899, -0.00203772, 0.000196496, -0.0208324, 0.0171644, 0.0199411, 0.00112389, 0.000315752, 0.000305809, 0.00216437
-0.0161622, -0.0292028, 0.00139127, -0.00206829, 0.000218179, -0.0210922, 0.0171641, 0.0199365, 0.00112316, 0.000315184, 0.000305037, 0.00214538
-0.0161203, -0.0290237, 0.00139306, -0.00209615, 0.000241166, -0.0213611, 0.0171637, 0.019932, 0.00112247, 0.000314654, 0.000304303, 0.00212679
-0.0161069, -0.0288069, 0.0013943, -0.00212328, 0.000265799, -0.0216358, 0.017163, 0.0199274, 0.00112181, 0.000314181, 0.000303618, 0.00210965
-0.0161297, -0.0285117, 0.00139712, -0.00215383, 0.000293865, -0.0219282, 0.0171619, 0.0199232, 0.00112121, 0.000313768, 0.000302983, 0.00209423
-0.0161621, -0.0282169, 0.00140133, -0.00218006, 0.00031958, -0.022176, 0.0171605, 0.0199197, 0.00112065, 0.000313416, 0.000302391, 0.00208051
-0.0162097, -0.0279671, 0.00140539, -0.00220048, 0.000340422, -0.022348, 0.0171588, 0.0199165, 0.00112015, 0.000313135, 0.000301852, 0.00206944
-0.0162437, -0.0277968, 0.00140744, -0.00221199, 0.000355085, -0.0224443, 0.0171564, 0.019914, 0.00111973, 0.000312931, 0.00030137, 0.00206164
-0.0162842, -0.027683, 0.00140806, -0.00221841, 0.000365367, -0.0224839, 0.0171529, 0.0199121, 0.00111942, 0.000312804, 0.000300953, 0.00205717
-0.016314, -0.0276429, 0.0014063, -0.00221958, 0.000370264, -0.0224921, 0.0171485, 0.019911, 0.00111922, 0.000312737, 0.0003006, 0.0020546
-0.0163329, -0.0276505, 0.00140156, -0.00221684, 0.000371738, -0.0225104, 0.0171427, 0.0199102, 0.0011191, 0.000312698, 0.000300306, 0.0020521
-0.01636, -0.0277045, 0.00139603, -0.00221451, 0.000366094, -0.0225621, 0.0171354, 0.0199098, 0.00111905, 0.000312654, 0.000300067, 0.00204826
-0.0162994, -0.0277526, 0.0013887, -0.00221007, 0.000350652, -0.0227672, 0.0171265, 0.0199097, 0.00111909, 0.000312582, 0.000299874, 0.00204253
-0.0162093, -0.0277617, 0.00138104, -0.00220426, 0.000337208, -0.0230167, 0.0171169, 0.0199095, 0.00111916, 0.000312461, 0.000299725, 0.00203491
-0.0160268, -0.0278191, 0.0013701, -0.002199, 0.00032056, -0.0233568, 0.0171067, 0.0199091, 0.00111926, 0.000312288, 0.000299611, 0.00202558
-0.015816, -0.027933, 0.00135657, -0.00219384, 0.000305014, -0.0236934, 0.0170963, 0.0199085, 0.00111935, 0.000312053, 0.000299529, 0.00201517
-0.0155913, -0.0280632, 0.00134268, -0.00218955, 0.000289381, -0.0240232, 0.0170864, 0.0199078, 0.00111944, 0.00031176, 0.000299469, 0.00200421
-0.0153725, -0.0282028, 0.0013301, -0.00218909, 0.000272643, -0.0243519, 0.0170771, 0.0199073, 0.00111951, 0.00031141, 0.000299429, 0.00199296
-0.0151328, -0.0283174, 0.0013192, -0.00218761, 0.00025667, -0.0246518, 0.0170681, 0.0199069, 0.00111959, 0.000311018, 0.0002994, 0.00198196
-0.014921, -0.0284158, 0.00131101, -0.00218791, 0.00024137, -0.0248969, 0.0170597, 0.0199065, 0.00111966, 0.000310606, 0.000299368, 0.00197259
-0.014717, -0.0284994, 0.00130566, -0.00218749, 0.000227144, -0.0250654, 0.0170519, 0.0199061, 0.00111971, 0.000310193, 0.00029931, 0.00196607
-0.0145626, -0.0285792, 0.00130213, -0.00218771, 0.000215102, -0.0251583, 0.0170446, 0.0199054, 0.00111974, 0.000309787, 0.000299208, 0.00196247
-0.0144361, -0.0286521, 0.0013007, -0.00218867, 0.000204884, -0.0252001, 0.0170379, 0.0199042, 0.00111973, 0.000309383, 0.000299046, 0.00196092
-0.0143366, -0.028722, 0.0013011, -0.00219173, 0.00019677, -0.0252182, 0.0170318, 0.0199021, 0.00111968, 0.00030896, 0.000298822, 0.00196
-0.014258, -0.0287619, 0.00130331, -0.00219539, 0.000191649, -0.0252269, 0.0170259, 0.0198993, 0.00111961, 0.000308502, 0.000298544, 0.00195863
-0.014183, -0.0287472, 0.00130823, -0.00220042, 0.000190662, -0.0252433, 0.0170197, 0.0198962, 0.00111954, 0.000308027, 0.000298225, 0.00195656
-0.0141334, -0.0287108, 0.00131424, -0.00220752, 0.000191942, -0.0252701, 0.0170135, 0.019893, 0.00111947, 0.000307576, 0.000297877, 0.00195417
-0.014104, -0.028644, 0.00132003, -0.0022134, 0.000195171, -0.0252981, 0.0170078, 0.0198893, 0.00111938, 0.000307165, 0.000297508, 0.00195156
-0.0140671, -0.028565, 0.00132569, -0.0022174, 0.000198625, -0.0253218, 0.0170026, 0.0198854, 0.00111926, 0.000306813, 0.000297126, 0.00194877
-0.01403, -0.0284606, 0.00133207, -0.00222139, 0.000203739, -0.0253524, 0.0169978, 0.0198809, 0.00111912, 0.000306522, 0.00029674, 0.00194581
-0.0140021, -0.0283412, 0.0013388, -0.00222532, 0.000209898, -0.0253867, 0.0169935, 0.0198759, 0.00111895, 0.00030629, 0.000296357, 0.00194275
-0.0139536, -0.0282551, 0.00134344, -0.00222529, 0.000212509, -0.0254047, 0.0169895, 0.0198712, 0.00111877, 0.000306102, 0.000295978, 0.00193946
-0.0139214, -0.0281564, 0.00134823, -0.00222676, 0.000216525, -0.0254277, 0.0169852, 0.019865, 0.00111859, 0.000305945, 0.000295608, 0.00193607
-0.013913, -0.0280698, 0.00135214, -0.00222897, 0.00022143, -0.0254512, 0.016981, 0.019858, 0.00111839, 0.000305818, 0.000295248, 0.00193267
-0.0139028, -0.0279852, 0.00135576, -0.00223132, 0.000226763, -0.0254738, 0.0169752, 0.0198516, 0.00111828, 0.000305707, 0.0002949, 0.00192945
-0.013912, -0.0279215, 0.0013585, -0.00223404, 0.000232261, -0.025493, 0.0169692, 0.0198453, 0.00111819, 0.000305594, 0.000294564, 0.00192678
-0.013911, -0.0279016, 0.00135944, -0.00223488, 0.000233812, -0.0254976, 0.0169632, 0.0198394, 0.00111811, 0.000305459, 0.000294241, 0.00192486
-0.013905, -0.0278865, 0.00136054, -0.00223601, 0.000234473, -0.0254981, 0.0169575, 0.0198343, 0.00111803, 0.000305287, 0.000293931, 0.00192366
-0.0138927, -0.0278783, 0.00136169, -0.00223778, 0.000233651, -0.025495, 0.0169522, 0.0198297, 0.00111795, 0.000305059, 0.000293631, 0.00192292
-0.0138778, -0.0278829, 0.0013625, -0.00224001, 0.000230723, -0.0254903, 0.016947, 0.0198256, 0.00111787, 0.000304759, 0.000293338, 0.00192228
-0.0138709, -0.0279014, 0.00136293, -0.00224387, 0.000226027, -0.0254909, 0.0169424, 0.0198215, 0.00111776, 0.000304372, 0.000293052, 0.00192129
-0.0138867, -0.027909, 0.00136398, -0.00225423, 0.000224167, -0.0255282, 0.0169373, 0.0198173, 0.00111767, 0.000303882, 0.00029277, 0.00191929
-0.0138796, -0.0279117, 0.0013652, -0.0022654, 0.000219375, -0.0255771, 0.0169313, 0.0198135, 0.00111762, 0.00030329, 0.000292484, 0.00191576
-0.0138635, -0.0278889, 0.0013671, -0.00228158, 0.000218002, -0.0256701, 0.0169251, 0.0198108, 0.00111759, 0.000302613, 0.000292195, 0.00191051
-0.0138401, -0.0278568, 0.00136913, -0.00229954, 0.000216769, -0.0257853, 0.0169183, 0.0198083, 0.00111758, 0.000301874, 0.000291902, 0.00190369
-0.0138132, -0.0278297, 0.00137175, -0.00231742, 0.000213913, -0.0259047, 0.0169103, 0.0198065, 0.00111762, 0.000301112, 0.000291604, 0.00189587
-0.0137896, -0.027788, 0.00137545, -0.00233755, 0.000214129, -0.0260456, 0.0169008, 0.0198051, 0.00111769, 0.000300361, 0.000291301, 0.00188777
-0.0137764, -0.0277383, 0.00137966, -0.00235719, 0.000214986, -0.0261804, 0.0168905, 0.0198034, 0.00111778, 0.000299655, 0.000290994, 0.00188024
-0.0137546, -0.0276883, 0.00138411, -0.00237427, 0.000215123, -0.0262886, 0.0168798, 0.0198014, 0.00111787, 0.00029902, 0.000290685, 0.00187399
-0.0136922, -0.027641, 0.00138827, -0.00238854, 0.000214827, -0.026366, 0.0168686, 0.0197997, 0.00111798, 0.000298477, 0.000290375, 0.00186946
-0.0136234, -0.0275842, 0.00139224, -0.00240016, 0.000216083, -0.0264169, 0.0168581, 0.0197978, 0.00111808, 0.000298045, 0.000290066, 0.00186677
-0.0135332, -0.0275295, 0.00139583, -0.00240901, 0.000217757, -0.026442, 0.0168478, 0.0197961, 0.00111818, 0.000297721, 0.000289756, 0.00186526
-0.013431, -0.027472, 0.00139933, -0.00241613, 0.000220646, -0.0264532, 0.0168376, 0.0197945, 0.00111829, 0.000297496, 0.000289445, 0.00186395
-0.0133432, -0.027413, 0.00140254, -0.00242093, 0.00022347, -0.0264541, 0.0168278, 0.0197922, 0.00111838, 0.000297358, 0.00028913, 0.00186178
-0.0132722, -0.0273518, 0.00140554, -0.0024249, 0.000227343, -0.0264541, 0.0168193, 0.0197892, 0.00111844, 0.00029729, 0.000288811, 0.00185794
-0.0132123, -0.0272986, 0.00140782, -0.00242737, 0.000230142, -0.0264524, 0.0168105, 0.0197852, 0.00111849, 0.000297272, 0.00028849, 0.00185226
-0.0131455, -0.0272432, 0.00140991, -0.00242827, 0.000231868, -0.0264565, 0.0168014, 0.019781, 0.00111856, 0.000297291, 0.000288171, 0.00184488
-0.0130915, -0.0271913, 0.00141136, -0.00242882, 0.000234651, -0.0264733, 0.0167926, 0.0197765, 0.00111862, 0.000297336, 0.000287857, 0.00183634
-0.0130296, -0.0271427, 0.00141238, -0.00242791, 0.000235873, -0.0264997, 0.0167837, 0.0197717, 0.00111867, 0.000297395, 0.000287551, 0.00182734
-0.012961, -0.0270831, 0.00141362, -0.00242757, 0.000237661, -0.0265216, 0.0167734, 0.0197659, 0.00111875, 0.000297456, 0.000287255, 0.00181875
-0.0128962, -0.0270257, 0.00141498, -0.00242717, 0.000239145, -0.0265406, 0.0167642, 0.0197601, 0.00111881, 0.000297512, 0.000286969, 0.00181114
-0.0128301, -0.0269749, 0.00141652, -0.00242649, 0.000239653, -0.0265534, 0.0167556, 0.0197553, 0.00111886, 0.000297549, 0.000286694, 0.0018052
-0.012775, -0.0269425, 0.00141808, -0.00242582, 0.000238358, -0.0265539, 0.0167479, 0.0197511, 0.0011189, 0.000297551, 0.000286432, 0.00180127
-0.0127312, -0.0269323, 0.00141938, -0.0024251, 0.000235301, -0.0265476, 0.0167407, 0.0197477, 0.00111893, 0.000297506, 0.000286183, 0.00179916
-0.0127016, -0.0269392, 0.0014203, -0.00242443, 0.000230502, -0.0265373, 0.0167339, 0.0197445, 0.00111896, 0.000297398, 0.000285945, 0.00179832
-0.0126793, -0.0269432, 0.00142119, -0.00242426, 0.000225138, -0.0265284, 0.0167272, 0.0197417, 0.001119, 0.000297221, 0.000285716, 0.00179813
-0.0126722, -0.0269404, 0.00142204, -0.00242704, 0.000221714, -0.0265295, 0.0167196, 0.019739, 0.00111905, 0.00029696, 0.000285497, 0.00179796
-0.0126666, -0.026942, 0.00142282, -0.00243027, 0.000216104, -0.0265378, 0.0167112, 0.0197369, 0.00111914, 0.000296613, 0.000285285, 0.00179717
-0.0126686, -0.0269239, 0.00142413, -0.002438, 0.000213389, -0.0265707, 0.0167022, 0.0197351, 0.00111923, 0.000296187, 0.000285079, 0.00179536
-0.0126618, -0.0269058, 0.00142557, -0.0024462, 0.0002092, -0.0266125, 0.0166928, 0.0197336, 0.00111934, 0.000295708, 0.000284876, 0.0017926
-0.0126434, -0.0268941, 0.00142713, -0.0024541, 0.00020394, -0.0266565, 0.0166831, 0.0197327, 0.00111947, 0.000295202, 0.000284674, 0.0017892
-0.0126317, -0.0268758, 0.00142895, -0.00246338, 0.00020138, -0.0267099, 0.0166729, 0.019732, 0.00111961, 0.000294681, 0.000284473, 0.00178534
-0.0126164, -0.0268679, 0.00143091, -0.002472, 0.000198298, -0.0267609, 0.0166624, 0.0197315, 0.00111975, 0.000294161, 0.000284273, 0.00178129
-0.0126143, -0.0268498, 0.00143367, -0.00248142, 0.000196985, -0.0268165, 0.016651, 0.0197308, 0.0011199, 0.000293649, 0.000284077, 0.00177722
-0.0126365, -0.0268196, 0.00143664, -0.00249019, 0.000197114, -0.0268644, 0.0166387, 0.0197298, 0.00112005, 0.000293178, 0.000283882, 0.00177387
-0.0126637, -0.0267992, 0.00143906, -0.00249712, 0.000197099, -0.0268958, 0.0166261, 0.0197289, 0.00112021, 0.000292778, 0.000283689, 0.0017718
-0.0126949, -0.0267717, 0.00144135, -0.00250253, 0.000198032, -0.0269122, 0.0166141, 0.0197279, 0.00112035, 0.000292469, 0.000283496, 0.00177106
-0.0127162, -0.026726, 0.00144366, -0.0025068, 0.000200785, -0.0269165, 0.0166024, 0.0197268, 0.0011205, 0.000292257, 0.000283301, 0.00177104
-0.0126975, -0.0267362, 0.00144464, -0.00250833, 0.000198577, -0.0269112, 0.0165922, 0.0197256, 0.00112063, 0.000292139, 0.000283104, 0.00177072
-0.0126623, -0.026729, 0.00144554, -0.00250874, 0.000197506, -0.0269082, 0.0165831, 0.019724, 0.00112074, 0.000292093, 0.000282903, 0.00176925
-0.0126101, -0.0267559, 0.00144546, -0.00250763, 0.000192491, -0.0269129, 0.0165743, 0.0197217, 0.00112084, 0.000292103, 0.000282702, 0.00176625
-0.0125598, -0.0267592, 0.00144534, -0.0025062, 0.000190053, -0.0269277, 0.0165661, 0.0197194, 0.00112093, 0.000292156, 0.000282499, 0.00176152
-0.0125218, -0.0267696, 0.00144417, -0.00250406, 0.000188056, -0.0269583, 0.0165589, 0.0197171, 0.001121, 0.000292239, 0.000282293, 0.00175529
-0.0125031, -0.0267762, 0.00144273, -0.00250242, 0.000187752, -0.0269883, 0.0165512, 0.0197144, 0.00112107, 0.000292342, 0.000282087, 0.00174803
-0.0125273, -0.0268274, 0.00143936, -0.00250064, 0.000186346, -0.0270192, 0.0165447, 0.0197108, 0.0011211, 0.000292459, 0.000281882, 0.00174016
-0.0125577, -0.0268874, 0.00143553, -0.00249866, 0.000185037, -0.0270543, 0.016538, 0.0197069, 0.00112114, 0.000292578, 0.000281682, 0.00173261
-0.012596, -0.0269559, 0.00143175, -0.00249674, 0.000183479, -0.0270856, 0.0165307, 0.0197027, 0.0011212, 0.000292691, 0.000281488, 0.00172603
-0.0126407, -0.0270237, 0.00142803, -0.00249498, 0.000182243, -0.0271104, 0.0165243, 0.0196983, 0.00112123, 0.000292789, 0.000281302, 0.00172071
-0.0126794, -0.027066, 0.00142546, -0.00249374, 0.000182267, -0.0271237, 0.0165182, 0.0196942, 0.00112127, 0.000292852, 0.000281122, 0.00171724
-0.0127089, -0.02712, 0.00142229, -0.00249223, 0.000180676, -0.0271345, 0.0165131, 0.0196907, 0.00112127, 0.000292863, 0.00028095, 0.00171542
-0.0127418, -0.0271862, 0.00141903, -0.00249098, 0.000177679, -0.02714, 0.0165081, 0.0196878, 0.00112129, 0.000292799, 0.000280783, 0.0017149
-0.0128018, -0.0272271, 0.00141727, -0.00249142, 0.000176894, -0.0271402, 0.0165014, 0.019685, 0.00112135, 0.000292637, 0.000280619, 0.00171487
-0.0128897, -0.0272554, 0.00141597, -0.00249316, 0.000177725, -0.0271429, 0.016494, 0.0196826, 0.00112143, 0.000292372, 0.000280458, 0.00171451
-0.0129607, -0.0272809, 0.00141494, -0.00249554, 0.000177434, -0.0271517, 0.0164867, 0.0196809, 0.00112153, 0.000292005, 0.000280296, 0.00171319
-0.0129977, -0.0272962, 0.00141455, -0.00249835, 0.000175946, -0.027166, 0.0164794, 0.0196801, 0.00112165, 0.000291546, 0.000280133, 0.00171055
-0.0130157, -0.0272854, 0.00141519, -0.00250159, 0.000176905, -0.0271841, 0.0164719, 0.0196796, 0.00112177, 0.000291015, 0.000279969, 0.00170654
-0.0130102, -0.0273025, 0.00141563, -0.00250427, 0.000174662, -0.0272018, 0.0164645, 0.019679, 0.0011219, 0.000290447, 0.000279806, 0.00170158
-0.0129979, -0.027313, 0.00141667, -0.00250814, 0.000173113, -0.0272271, 0.0164571, 0.0196785, 0.00112203, 0.000289865, 0.000279643, 0.00169605
-0.0129785, -0.0273309, 0.00141765, -0.00251172, 0.000170603, -0.0272506, 0.01645, 0.0196779, 0.00112216, 0.000289293, 0.000279477, 0.00169048
-0.0129665, -0.0273436, 0.00141884, -0.00251602, 0.000168509, -0.0272774, 0.0164433, 0.0196773, 0.00112228, 0.000288755, 0.000279309, 0.00168544
-0.0129427, -0.0273637, 0.00142001, -0.00251967, 0.00016557, -0.0272974, 0.016437, 0.0196769, 0.0011224, 0.000288278, 0.000279139, 0.00168157
-0.0129153, -0.0273746, 0.00142128, -0.00252235, 0.000163312, -0.0273086, 0.0164309, 0.0196764, 0.00112251, 0.000287884, 0.000278965, 0.00167921
-0.0128874, -0.0273724, 0.00142286, -0.00252488, 0.000162362, -0.0273159, 0.0164251, 0.0196757, 0.00112262, 0.000287577, 0.000278788, 0.00167812
-0.0128541, -0.0273628, 0.00142452, -0.00252643, 0.000162337, -0.0273183, 0.0164195, 0.019675, 0.00112272, 0.000287356, 0.000278607, 0.00167774
-0.012815, -0.0273588, 0.00142575, -0.00252608, 0.000161475, -0.0273168, 0.0164146, 0.0196742, 0.00112279, 0.000287218, 0.000278423, 0.0016774
-0.0127873, -0.0273341, 0.00142716, -0.00252617, 0.000162808, -0.0273205, 0.0164102, 0.019673, 0.00112284, 0.000287148, 0.000278238, 0.00167642
-0.0127585, -0.0273368, 0.00142838, -0.00252577, 0.000160381, -0.0273154, 0.0164065, 0.019671, 0.00112284, 0.000287133, 0.000278052, 0.0016744
-0.012726, -0.0273225, 0.00143016, -0.0025254, 0.000157866, -0.0273105, 0.0164034, 0.0196681, 0.0011228, 0.000287158, 0.000277865, 0.00167125
-0.0126915, -0.0272933, 0.00143213, -0.00252475, 0.00015632, -0.0273127, 0.0164005, 0.0196648, 0.00112275, 0.000287213, 0.000277678, 0.00166703
-0.0126616, -0.0272601, 0.00143419, -0.00252382, 0.000154753, -0.0273205, 0.016398, 0.0196613, 0.00112267, 0.000287291, 0.000277495, 0.00166209
-0.0126259, -0.0272212, 0.00143665, -0.00252335, 0.000153458, -0.0273243, 0.0163954, 0.0196574, 0.0011226, 0.000287381, 0.000277315, 0.00165687
-0.0125923, -0.027175, 0.00143917, -0.00252288, 0.000153327, -0.0273322, 0.0163929, 0.019653, 0.00112252, 0.000287479, 0.000277139, 0.0016516
-0.0125677, -0.0271405, 0.00144107, -0.00252232, 0.000152859, -0.0273403, 0.0163906, 0.0196486, 0.00112242, 0.000287573, 0.000276969, 0.00164693
-0.0125471, -0.0271155, 0.00144225, -0.00252163, 0.00015287, -0.0273487, 0.016388, 0.0196442, 0.00112235, 0.000287645, 0.000276804, 0.0016435
-0.0125317, -0.0271018, 0.0014429, -0.0025207, 0.000152324, -0.0273562, 0.0163855, 0.0196402, 0.00112228, 0.000287679, 0.000276643, 0.00164144
-0.0125233, -0.0271019, 0.00144309, -0.00252015, 0.000150692, -0.0273591, 0.0163833, 0.0196365, 0.00112219, 0.000287655, 0.000276486, 0.00164061
-0.0125292, -0.0271152, 0.00144288, -0.00252102, 0.000149205, -0.0273586, 0.0163814, 0.0196327, 0.00112208, 0.000287553, 0.000276333, 0.00164052
-0.0125336, -0.0271183, 0.0014434, -0.00252255, 0.000148098, -0.0273606, 0.0163794, 0.0196297, 0.00112198, 0.00028736, 0.000276182, 0.00164047
-0.0125234, -0.0271214, 0.00144464, -0.00252406, 0.000145141, -0.027366, 0.0163769, 0.0196273, 0.00112193, 0.000287068, 0.000276032, 0.00163974
-0.012507, -0.0271268, 0.00144617, -0.00252513, 0.000140207, -0.0273723, 0.0163751, 0.0196254, 0.00112186, 0.000286688, 0.000275881, 0.00163792
-0.0124827, -0.0271057, 0.00144866, -0.00252664, 0.000139853, -0.02738, 0.0163731, 0.0196244, 0.00112183, 0.000286229, 0.00027573, 0.00163478
-0.0124493, -0.0270864, 0.00145103, -0.00252863, 0.000139472, -0.0273915, 0.0163704, 0.0196237, 0.00112184, 0.000285713, 0.000275577, 0.00163042
-0.0124112, -0.0270643, 0.00145337, -0.00253099, 0.000140355, -0.027406, 0.0163675, 0.0196232, 0.00112188, 0.000285161, 0.000275423, 0.00162509
-0.0123684, -0.0270489, 0.00145606, -0.00253272, 0.000139928, -0.0274169, 0.0163647, 0.0196229, 0.00112191, 0.000284604, 0.000275268, 0.00161933
-0.0123124, -0.0270373, 0.0014593, -0.00253396, 0.000139148, -0.0274241, 0.0163618, 0.0196227, 0.00112197, 0.000284075, 0.000275113, 0.00161394
-0.0122594, -0.0270079, 0.00146273, -0.00253724, 0.000139816, -0.0274428, 0.0163592, 0.0196223, 0.00112199, 0.000283613, 0.000274958, 0.00160988
-0.0122162, -0.0269779, 0.00146589, -0.0025403, 0.000140178, -0.0274576, 0.0163567, 0.0196216, 0.00112201, 0.000283234, 0.000274803, 0.00160741
-0.0121699, -0.0269586, 0.0014689, -0.00254199, 0.00014077, -0.0274638, 0.016354, 0.0196213, 0.00112205, 0.000282932, 0.000274646, 0.00160611
-0.0121241, -0.0269597, 0.00147237, -0.00254195, 0.000140144, -0.0274615, 0.0163514, 0.0196212, 0.0011221, 0.000282703, 0.000274486, 0.00160548
-0.0120763, -0.0269976, 0.00147644, -0.00254012, 0.000139244, -0.0274554, 0.016349, 0.0196199, 0.00112217, 0.000282528, 0.000274324, 0.00160499
-0.0120111, -0.027098, 0.00148113, -0.00253752, 0.000138039, -0.0274474, 0.0163472, 0.0196168, 0.00112225, 0.000282393, 0.000274162, 0.00160456
-0.0119376, -0.0272502, 0.00148626, -0.00253513, 0.000136428, -0.0274386, 0.0163457, 0.0196121, 0.00112234, 0.000282284, 0.000274003, 0.00160414
-0.0118585, -0.0274539, 0.00149334, -0.00253568, 0.000133839, -0.0274223, 0.0163447, 0.0196068, 0.0011224, 0.000282196, 0.000273846, 0.00160369
-0.0118065, -0.0276255, 0.00150059, -0.00253708, 0.000132123, -0.0274079, 0.016344, 0.0196018, 0.00112244, 0.000282122, 0.000273692, 0.00160318
-0.0117777, -0.0276907, 0.00150656, -0.00253837, 0.000132615, -0.027402, 0.016343, 0.0195993, 0.00112243, 0.000282049, 0.00027354, 0.00160253
-0.0117862, -0.0276528, 0.0015136, -0.00253955, 0.000134077, -0.0274014, 0.0163416, 0.0195983, 0.00112235, 0.00028197, 0.00027339, 0.00160172
-0.0117977, -0.0276108, 0.00151779, -0.00254248, 0.000135894, -0.0273978, 0.0163404, 0.019597, 0.0011222, 0.000281885, 0.000273243, 0.001601
-0.0118372, -0.0275417, 0.00152236, -0.00254819, 0.000138677, -0.0273892, 0.016339, 0.0195943, 0.00112203, 0.000281794, 0.000273098, 0.00160041
-0.0118625, -0.0274803, 0.00152587, -0.00255295, 0.000140714, -0.0273828, 0.0163377, 0.0195905, 0.00112186, 0.000281701, 0.000272955, 0.00159996
-0.0118769, -0.0274267, 0.00152872, -0.0025566, 0.000142185, -0.027378, 0.0163366, 0.0195862, 0.00112167, 0.000281612, 0.000272815, 0.0015996
-0.0118817, -0.027382, 0.00153107, -0.00255929, 0.000143019, -0.0273746, 0.0163356, 0.0195816, 0.00112149, 0.000281527, 0.000272677, 0.00159928
-0.0118815, -0.0273463, 0.00153293, -0.00256124, 0.000143418, -0.0273721, 0.0163347, 0.019577, 0.00112131, 0.00028145, 0.000272541, 0.00159897
-0.011878, -0.0273188, 0.00153453, -0.0025626, 0.000143572, -0.0273703, 0.0163338, 0.0195732, 0.00112115, 0.000281382, 0.000272408, 0.00159865
-0.0118604, -0.0272945, 0.00153752, -0.0025644, 0.000138303, -0.0273681, 0.0163329, 0.0195719, 0.00112106, 0.000281327, 0.000272275, 0.00159818
-0.0118348, -0.0272797, 0.00154301, -0.00256396, 0.000135181, -0.0273708, 0.0163317, 0.0195719, 0.00112103, 0.000281279, 0.00027214, 0.00159747
-0.0117869, -0.0273204, 0.00155029, -0.00256254, 0.000132329, -0.0273742, 0.0163305, 0.0195709, 0.00112104, 0.000281244, 0.000272005, 0.00159654
-0.0117048, -0.0274423, 0.0015605, -0.00255983, 0.000130469, -0.0273827, 0.0163296, 0.019569, 0.00112107, 0.000281227, 0.00027187, 0.00159548
-0.0116179, -0.0275887, 0.0015766, -0.00255682, 0.000128964, -0.0273944, 0.0163291, 0.0195676, 0.00112104, 0.000281227, 0.000271739, 0.00159422
-0.0115251, -0.0277199, 0.00159921, -0.00255475, 0.000128736, -0.0274052, 0.0163288, 0.0195669, 0.00112097, 0.000281239, 0.000271611, 0.00159278
-0.0114603, -0.0278241, 0.00163013, -0.00255304, 0.000126558, -0.0274135, 0.0163287, 0.0195665, 0.00112083, 0.000281265, 0.000271486, 0.00159113
-0.0114143, -0.0278907, 0.00166769, -0.00255179, 0.000125555, -0.0274224, 0.0163287, 0.0195663, 0.00112065, 0.000281298, 0.000271365, 0.00158941
-0.0113669, -0.0279393, 0.00170886, -0.00255007, 0.000124955, -0.0274346, 0.0163286, 0.019566, 0.00112045, 0.000281332, 0.000271246, 0.00158777
-0.0113322, -0.0279917, 0.00175268, -0.00254772, 0.000123112, -0.0274488, 0.0163285, 0.0195658, 0.00112024, 0.000281362, 0.000271132, 0.00158634
-0.0113441, -0.028053, 0.00180005, -0.00254573, 0.000119884, -0.0274609, 0.0163285, 0.0195656, 0.00111998, 0.000281378, 0.000271022, 0.00158523
-0.011386, -0.0280951, 0.00184851, -0.00254409, 0.000117582, -0.0274703, 0.0163283, 0.0195653, 0.00111969, 0.000281372, 0.000270914, 0.0015845
-0.0114952, -0.0281004, 0.00189885, -0.00254284, 0.000115164, -0.0274791, 0.0163279, 0.0195649, 0.00111931, 0.000281342, 0.000270809, 0.00158401
-0.0116675, -0.0280711, 0.00195114, -0.00254199, 0.00011309, -0.0274878, 0.0163271, 0.0195644, 0.00111884, 0.000281288, 0.000270706, 0.00158368
-0.0118322, -0.0280449, 0.00199952, -0.00254135, 0.000111851, -0.0274935, 0.0163262, 0.0195637, 0.00111836, 0.00028121, 0.000270605, 0.00158347
-0.0120113, -0.0280207, 0.00204535, -0.00254081, 0.000111344, -0.0274966, 0.016325, 0.019563, 0.00111784, 0.000281109, 0.000270506, 0.00158328
-0.0121908, -0.0279693, 0.0020885, -0.00254037, 0.00011314, -0.0274941, 0.0163238, 0.0195621, 0.00111731, 0.000280984, 0.000270407, 0.00158307
-0.0123665, -0.0279185, 0.00212861, -0.00253995, 0.000115157, -0.0274907, 0.0163223, 0.0195612, 0.00111676, 0.00028084, 0.000270311, 0.00158279
-0.0125376, -0.0278715, 0.00216576, -0.00253941, 0.000117168, -0.0274866, 0.0163208, 0.0195601, 0.0011162, 0.000280679, 0.000270215, 0.00158243
-0.0127051, -0.0278264, 0.00220014, -0.00253879, 0.000119312, -0.0274816, 0.016319, 0.0195591, 0.00111561, 0.000280502, 0.000270122, 0.00158199
-0.0128682, -0.0277838, 0.00223175, -0.00253812, 0.00012151, -0.027476, 0.016317, 0.019558, 0.00111499, 0.000280313, 0.00027003, 0.00158145
-0.0130268, -0.0277448, 0.00226068, -0.00253748, 0.000123646, -0.0274702, 0.0163148, 0.0195569, 0.00111434, 0.000280114, 0.00026994, 0.00158082
-0.0131792, -0.0277105, 0.00228699, -0.00253677, 0.000125656, -0.0274644, 0.0163123, 0.0195557, 0.00111365, 0.000279905, 0.000269851, 0.0015801
-0.013324, -0.027681, 0.00231071, -0.00253598, 0.000127522, -0.0274585, 0.0163094, 0.0195546, 0.00111293, 0.000279689, 0.000269764, 0.00157931
-0.0134601, -0.0276539, 0.00233183, -0.00253516, 0.000129342, -0.0274524, 0.0163061, 0.0195535, 0.00111216, 0.000279468, 0.000269679, 0.00157844
-0.0135824, -0.0276311, 0.0023501, -0.00253408, 0.000131068, -0.0274456, 0.0163023, 0.0195523, 0.00111134, 0.000279243, 0.000269595, 0.00157751
-0.0136895, -0.0276101, 0.00236561, -0.00253265, 0.000132847, -0.0274376, 0.0162981, 0.0195513, 0.00111046, 0.000279014, 0.000269513, 0.00157651
-0.013784, -0.0275905, 0.00237881, -0.00253113, 0.000134607, -0.0274291, 0.0162932, 0.0195502, 0.00110953, 0.000278783, 0.000269433, 0.00157547
-0.0138614, -0.0275717, 0.00238943, -0.00252937, 0.000136407, -0.0274197, 0.0162876, 0.0195492, 0.00110853, 0.00027855, 0.000269354, 0.00157438
