-0.000478098, -0.000132517, 0.00662617, -0.00106986, -0.000383826, 0.00013399, 0.0316228, 0.0316228, 0.0316228, 0.0316228, 0.0316228, 0.0316228
-0.000478098, -0.000132517, 0.00662617, -0.00106986, -0.000383826, 0.00013399, 0.0316228, 0.0316228, 0.0316228, 0.0316228, 0.0316228, 0.0316228
-0.000500055, -0.000146345, 0.00644567, -0.00117762, 1.25166e-05, 0.000138802, 0.0315942, 0.0315936, 0.031588, 0.0315029, 0.0315049, 0.0316062
-0.000625802, -0.000137317, 0.00636093, -0.00109315, 0.000424333, 0.000149312, 0.0315679, 0.0315648, 0.0315379, 0.0313251, 0.0313388, 0.0315888
-0.000683627, -7.33108e-05, 0.00611861, -0.000758959, 0.000639218, 0.000152315, 0.0315456, 0.0315408, 0.0314659, 0.031085, 0.0311107, 0.0315709
-0.000665441, -4.44263e-05, 0.0059958, -0.000674698, 0.000452815, 0.000156963, 0.0315281, 0.0315234, 0.0313655, 0.0307914, 0.030816, 0.0315522
-0.000615446, -3.84557e-05, 0.00556285, -0.000809702, 0.000337589, 0.000144685, 0.0315152, 0.0315117, 0.0312247, 0.0304358, 0.0304493, 0.0315334
-0.000527904, -3.05565e-05, 0.00469303, -0.000927761, 0.000281771, 0.000136802, 0.0315065, 0.0315044, 0.0310446, 0.0300077, 0.0300108, 0.0315138
-0.000457708, -2.51247e-05, 0.00389525, -0.000953208, 0.00036321, 0.000142809, 0.0315013, 0.0315001, 0.0308413, 0.0294916, 0.0294862, 0.0314922
-0.000414524, -1.51133e-05, 0.00359227, -0.000834803, 2.17068e-05, 0.000144923, 0.0314977, 0.0314979, 0.0305977, 0.0288626, 0.0288402, 0.0314689
-0.000338959, 1.18968e-06, 0.00263836, -0.000804606, -0.000228864, 0.00011839, 0.0314953, 0.0314969, 0.0302996, 0.0280892, 0.0280514, 0.0314478
-0.00024428, 2.69967e-05, 0.00114927, -0.000910971, -0.000216952, 0.000117426, 0.0314937, 0.0314965, 0.0299501, 0.0271491, 0.0271104, 0.0314271
-0.000105724, 7.16839e-05, -0.00124282, -0.00108672, -0.000113656, 0.000175412, 0.0314924, 0.0314964, 0.0295515, 0.0260394, 0.02601, 0.031406
3.34104e-05, 0.000125586, -0.00373924, -0.00148019, 4.52255e-06, 0.00017477, 0.0314912, 0.0314962, 0.0291343, 0.0247851, 0.0247596, 0.031382
-5.32462e-05, 9.33847e-05, -0.00238043, -0.00161046, -0.00103319, 5.10901e-05, 0.0314898, 0.0314956, 0.0286792, 0.0234019, 0.023401, 0.0313555
-0.000131401, 5.97761e-05, -0.000848613, -0.00164117, -0.00198638, 6.26457e-06, 0.0314887, 0.0314948, 0.028118, 0.0219115, 0.0220121, 0.0313386
-0.00022468, 6.03093e-06, 0.0014542, -0.00148415, -0.00276509, -3.6189e-05, 0.0314876, 0.0314937, 0.0273392, 0.020354, 0.0207061, 0.0313208
-0.000301957, -4.86406e-05, 0.00376803, -0.00138942, -0.00317761, -9.17665e-05, 0.0314865, 0.0314922, 0.0264704, 0.0187771, 0.0194471, 0.0313016
-0.000344054, -9.07111e-05, 0.00519919, -0.00117794, -0.00341929, -8.60543e-05, 0.0314852, 0.0314905, 0.0255786, 0.017241, 0.0182328, 0.0312812
-0.000360313, -0.00015419, 0.00670731, -0.0006719, -0.00319724, -0.000119006, 0.0314837, 0.0314887, 0.0248556, 0.0158643, 0.0169828, 0.0312584
-0.000360889, -0.000219897, 0.00816195, -0.000371297, -0.00281737, -7.44099e-05, 0.0314818, 0.0314871, 0.0245023, 0.0148506, 0.0156281, 0.0312254
-0.000356921, -0.00025661, 0.0085945, -0.000238585, -0.00262131, -5.074e-06, 0.0314796, 0.0314857, 0.0244103, 0.0142479, 0.0143431, 0.0311461
-0.000346637, -0.0002575, 0.00867579, -0.00033305, -0.00239413, 0.00012225, 0.0314777, 0.0314844, 0.0243852, 0.0138161, 0.0132486, 0.0310627
-0.000340701, -0.000250547, 0.0086823, -0.000432905, -0.00228608, 0.000191203, 0.0314761, 0.0314831, 0.0243749, 0.0133891, 0.0122807, 0.0310138
-0.000332434, -0.000229727, 0.00869614, -0.000708213, -0.00215686, 0.000282529, 0.0314745, 0.0314816, 0.0243668, 0.0128962, 0.0114081, 0.0309819
-0.000318916, -0.000188566, 0.00867155, -0.00106892, -0.00193692, 0.000384137, 0.0314729, 0.0314795, 0.0243565, 0.0122568, 0.0105602, 0.0309491
-0.000295197, -0.000126071, 0.00859609, -0.00151946, -0.00158118, 0.000494751, 0.0314712, 0.0314762, 0.0243357, 0.0113816, 0.0097005, 0.0309073
-0.000275846, -7.72158e-05, 0.00853313, -0.00187089, -0.00132873, 0.000571622, 0.0314693, 0.0314716, 0.0243031, 0.010357, 0.00886114, 0.0308571
-0.000255767, -3.85661e-06, 0.00839274, -0.00222731, -0.00106105, 0.000649992, 0.0314673, 0.031465, 0.024245, 0.00922067, 0.00803771, 0.0308085
-0.000239443, 0.000107822, 0.00807006, -0.00248073, -0.000826216, 0.000713547, 0.0314654, 0.0314552, 0.0241242, 0.00802305, 0.00725514, 0.0307669
-0.000235446, 0.00027706, 0.00745422, -0.00251827, -0.000703416, 0.000743968, 0.0314636, 0.0314399, 0.0238815, 0.00685169, 0.00652235, 0.0307348
-0.000227518, 0.000614743, 0.00608357, -0.00264961, -0.000532483, 0.000849869, 0.0314621, 0.0314144, 0.0233224, 0.00578748, 0.00587908, 0.0307061
-0.000224878, 0.00105464, 0.00397387, -0.00255027, -0.000491106, 0.000983492, 0.0314607, 0.0313752, 0.0221069, 0.00495822, 0.0053641, 0.0306595
-0.000223459, 0.00153329, 0.00148288, -0.00242609, -0.000518119, 0.00110949, 0.0314598, 0.0313275, 0.020201, 0.00443526, 0.00498639, 0.0305476
-0.000221994, 0.0017573, 0.000285126, -0.0022611, -0.000558815, 0.00121023, 0.031459, 0.031284, 0.0181249, 0.00414323, 0.00472928, 0.0303212
-0.000218347, 0.00181187, -9.2176e-06, -0.00219512, -0.00055454, 0.00133822, 0.0314585, 0.0312507, 0.0163117, 0.00397219, 0.00454975, 0.0300062
-0.000224269, 0.00171273, 0.000553928, -0.00214324, -0.000562734, 0.00136023, 0.031458, 0.0312277, 0.0149034, 0.00386083, 0.00442138, 0.029628
-0.000240954, 0.00152224, 0.00162125, -0.0021355, -0.000568594, 0.00127601, 0.0314576, 0.0312123, 0.0138914, 0.00377589, 0.00432592, 0.029217
-0.000264006, 0.00132572, 0.00261014, -0.00213957, -0.000574014, 0.00119113, 0.0314571, 0.0312002, 0.0131997, 0.00369403, 0.00425292, 0.0287957
-0.000298692, 0.000988669, 0.00387833, -0.00209228, -0.000587901, 0.00119094, 0.0314567, 0.0311856, 0.0126796, 0.00359646, 0.00419774, 0.0283666
-0.000317622, 0.00076507, 0.00452474, -0.00200441, -0.00061138, 0.00128838, 0.0314563, 0.0311679, 0.0122368, 0.00348131, 0.00415634, 0.0279343
-0.000329401, 0.000646243, 0.00482397, -0.00193492, -0.000628793, 0.00138017, 0.031456, 0.0311526, 0.0118932, 0.00336179, 0.00413087, 0.0274563
-0.000339569, 0.000555477, 0.00502226, -0.00186911, -0.000645092, 0.00143408, 0.0314557, 0.0311384, 0.0116114, 0.00323676, 0.00411644, 0.0269312
-0.00035162, 0.000442028, 0.00523836, -0.00178083, -0.000659292, 0.00153553, 0.0314553, 0.0311235, 0.0113789, 0.00309398, 0.00410899, 0.0263744
-0.000363268, 0.000332184, 0.00541776, -0.001683, -0.000672951, 0.00163215, 0.031455, 0.0311072, 0.0111744, 0.00293375, 0.00410476, 0.0258024
-0.000375806, 0.000219476, 0.00560669, -0.00160591, -0.000683901, 0.00168387, 0.0314547, 0.0310914, 0.0109929, 0.00276776, 0.00410111, 0.0252234
-0.000385823, 0.000139204, 0.00573912, -0.00154066, -0.000693039, 0.0017307, 0.0314545, 0.0310792, 0.0108339, 0.00261519, 0.00409608, 0.0246526
-0.000395291, 8.60768e-05, 0.00584483, -0.0014964, -0.000703596, 0.00180293, 0.0314542, 0.0310732, 0.0107117, 0.00249042, 0.00408856, 0.0241046
-0.000402274, 5.6287e-05, 0.00589628, -0.00145665, -0.000715598, 0.00191867, 0.0314539, 0.0310706, 0.0106232, 0.0023907, 0.00407899, 0.0235959
-0.000405812, 2.3774e-05, 0.00585567, -0.00140139, -0.000731033, 0.00206258, 0.0314536, 0.0310683, 0.0105585, 0.00229803, 0.00406933, 0.0231353
-0.000411065, -8.003e-06, 0.00585386, -0.00135112, -0.000746058, 0.00220707, 0.0314534, 0.0310656, 0.0105034, 0.00220058, 0.00406029, 0.0227204
-0.000418854, -5.57344e-05, 0.00584413, -0.00127863, -0.000759465, 0.00225869, 0.0314531, 0.0310623, 0.0104572, 0.00209657, 0.00405205, 0.0223515
-0.000431389, -8.57505e-05, 0.00591066, -0.0012048, -0.000775679, 0.00235828, 0.0314529, 0.0310586, 0.0104122, 0.00198778, 0.00404484, 0.0220319
-0.000440003, -8.99902e-05, 0.00596156, -0.00116392, -0.000784942, 0.00240284, 0.0314527, 0.0310543, 0.0103697, 0.0018754, 0.00403905, 0.0217666
-0.000451732, -9.18928e-05, 0.00601669, -0.00110438, -0.000796473, 0.00245653, 0.0314524, 0.0310482, 0.0103328, 0.00176113, 0.00403487, 0.0215548
-0.000455703, -6.02754e-05, 0.00607291, -0.00109833, -0.000799588, 0.00247745, 0.0314521, 0.0310413, 0.0102883, 0.00164526, 0.00403228, 0.0214002
-0.000460156, -2.00302e-05, 0.00614263, -0.00108656, -0.000804947, 0.00252119, 0.0314519, 0.031033, 0.0102331, 0.00152978, 0.00403062, 0.0213011
-0.000465335, 1.60587e-05, 0.00620576, -0.001059, -0.000808606, 0.00255, 0.0314516, 0.0310226, 0.010163, 0.00141794, 0.00402825, 0.0212481
-0.000467428, 5.42592e-05, 0.00626649, -0.00103477, -0.000807578, 0.00257793, 0.0314512, 0.0310094, 0.0100747, 0.00131116, 0.00402281, 0.0212273
-0.000465395, 2.36069e-05, 0.00621719, -0.00102577, -0.00080136, 0.00256546, 0.0314508, 0.0309939, 0.00995609, 0.00120891, 0.00401053, 0.0212197
-0.000457181, -8.5283e-05, 0.00601042, -0.00105299, -0.000786893, 0.00253276, 0.0314504, 0.0309805, 0.0097546, 0.00110759, 0.0039854, 0.0211952
-0.000454996, -0.000175464, 0.00573565, -0.00106175, -0.000774569, 0.00249256, 0.0314498, 0.0309704, 0.00942699, 0.00101106, 0.00393975, 0.0211116
-0.000458651, -0.000279991, 0.00535486, -0.00108368, -0.000777647, 0.00251101, 0.031449, 0.0309625, 0.00898744, 0.00092605, 0.0038674, 0.0209293
-0.000461878, -0.00032237, 0.00522624, -0.00110657, -0.000789169, 0.00256603, 0.0314481, 0.0309575, 0.00843931, 0.000854499, 0.00376213, 0.0206066
-0.000471903, -0.000380605, 0.00489928, -0.00113497, -0.000813308, 0.00268588, 0.031447, 0.0309545, 0.00786945, 0.000795005, 0.00362072, 0.0201133
-0.000461012, -0.000348855, 0.00531048, -0.00114445, -0.000813876, 0.0026895, 0.0314459, 0.0309521, 0.00735445, 0.000747907, 0.00344469, 0.019443
-0.000447284, -0.000255004, 0.00569868, -0.00114875, -0.000812917, 0.00268659, 0.0314449, 0.0309457, 0.00694415, 0.000708733, 0.00325012, 0.0186617
-0.000433663, -0.000173786, 0.00589632, -0.00114854, -0.000790021, 0.00257471, 0.0314439, 0.0309327, 0.0066008, 0.000674586, 0.00304093, 0.0177838
-0.000432795, -0.000210444, 0.00581783, -0.00114764, -0.000764445, 0.00244697, 0.031443, 0.0309178, 0.00629216, 0.000644114, 0.00282102, 0.0168252
-0.000436955, -0.000277096, 0.00567531, -0.00114331, -0.000740789, 0.00232286, 0.0314422, 0.0309052, 0.00600806, 0.000617291, 0.00259564, 0.0158102
-0.000439144, -0.000321236, 0.00558454, -0.00113631, -0.000718251, 0.00219936, 0.0314415, 0.0308941, 0.00575015, 0.000593884, 0.00237431, 0.0147878
-0.000447371, -0.000404841, 0.00541569, -0.00113152, -0.000700102, 0.00209914, 0.031441, 0.0308842, 0.0055188, 0.00057344, 0.0021644, 0.0137985
-0.00045694, -0.000518266, 0.00519053, -0.00113117, -0.00067273, 0.0019494, 0.0314406, 0.0308749, 0.00531371, 0.000555525, 0.00196898, 0.0128612
-0.000456288, -0.000536415, 0.00516533, -0.00112425, -0.000644125, 0.0017838, 0.0314402, 0.0308675, 0.00513444, 0.000539851, 0.00179011, 0.0119899
-0.000455041, -0.000542352, 0.00516849, -0.00111827, -0.000627295, 0.0016832, 0.0314398, 0.0308605, 0.00497913, 0.000525893, 0.00162918, 0.0111965
-0.000451156, -0.00053547, 0.00518815, -0.00111385, -0.00060406, 0.00154538, 0.0314395, 0.0308528, 0.00484485, 0.000513111, 0.00148509, 0.0104785
-0.000440865, -0.000494261, 0.00525736, -0.00111194, -0.000590559, 0.00146448, 0.0314391, 0.0308455, 0.00472813, 0.00050127, 0.00135668, 0.0098326
-0.000413803, -0.000365051, 0.00543689, -0.00110322, -0.00056994, 0.00133598, 0.0314387, 0.0308359, 0.00462508, 0.000489734, 0.00124331, 0.00925898
-0.000386518, -0.000209536, 0.00559545, -0.00109582, -0.000552686, 0.00122724, 0.0314382, 0.0308215, 0.00453178, 0.000478024, 0.00114414, 0.00875624
-0.000368518, -0.000113999, 0.0056789, -0.00109579, -0.000539868, 0.00114758, 0.0314377, 0.030805, 0.00444716, 0.000466156, 0.00105645, 0.00830997
-0.00035725, -7.01833e-05, 0.00571791, -0.00109826, -0.00052472, 0.00105246, 0.0314371, 0.0307903, 0.0043707, 0.00045435, 0.000978725, 0.0079132
-0.00033036, 5.19952e-05, 0.0058239, -0.00109816, -0.000514318, 0.000985946, 0.0314365, 0.030777, 0.00430128, 0.000442446, 0.000910011, 0.00756257
-0.000272024, 0.000357951, 0.00604343, -0.00109296, -0.000505577, 0.000927887, 0.0314357, 0.0307586, 0.00423345, 0.000429584, 0.000849677, 0.00725675
-0.000159288, 0.0010258, 0.00641153, -0.00108465, -0.000499507, 0.000885677, 0.0314347, 0.0307258, 0.00415989, 0.000414774, 0.000796757, 0.00699159
-2.94291e-05, 0.00182485, 0.00677399, -0.00108432, -0.000494261, 0.000847934, 0.0314332, 0.0306707, 0.00407726, 0.000397831, 0.000750031, 0.00676007
5.1054e-05, 0.00228026, 0.00696451, -0.00109029, -0.000485425, 0.000786405, 0.0314313, 0.0305974, 0.00398609, 0.000379664, 0.000708259, 0.00655462
0.000178165, 0.00295892, 0.00724132, -0.0010972, -0.000481285, 0.00075532, 0.0314289, 0.0305201, 0.00389018, 0.000361581, 0.000670731, 0.0063715
0.00022285, 0.00311465, 0.00731291, -0.00110801, -0.0004802, 0.000747523, 0.0314262, 0.0304499, 0.00379616, 0.000344544, 0.000637023, 0.00620864
0.000241553, 0.00312488, 0.00732721, -0.00111803, -0.000480541, 0.000750772, 0.0314235, 0.0303909, 0.00371, 0.000329117, 0.000606964, 0.0060662
0.000290103, 0.00324709, 0.00739558, -0.00112754, -0.000477387, 0.000729955, 0.0314208, 0.0303353, 0.0036287, 0.000314943, 0.000580345, 0.00594401
0.000320477, 0.00330507, 0.00742997, -0.00113518, -0.000471644, 0.000691876, 0.031418, 0.0302768, 0.0035491, 0.000301595, 0.000557057, 0.00584218
0.000359772, 0.00339529, 0.0074744, -0.00114317, -0.000463117, 0.000635729, 0.0314149, 0.0302223, 0.00347152, 0.000289114, 0.000536435, 0.00575598
0.000363552, 0.00337148, 0.00746511, -0.00114844, -0.000455333, 0.000584902, 0.0314115, 0.0301631, 0.00339506, 0.000277288, 0.000518022, 0.00568237
0.00037175, 0.00338141, 0.00746302, -0.00115354, -0.00044757, 0.000534868, 0.0314081, 0.0300865, 0.00331917, 0.000266152, 0.000501508, 0.00561947
0.000312484, 0.00309415, 0.00737747, -0.00115157, -0.000439672, 0.000484908, 0.0314046, 0.029996, 0.00324531, 0.000255966, 0.000486673, 0.0055658
0.000269093, 0.00289549, 0.0073252, -0.00114765, -0.00043317, 0.000443243, 0.0314009, 0.0299044, 0.00317528, 0.000246917, 0.000473247, 0.00551958
0.000233995, 0.00273181, 0.00728898, -0.00114304, -0.000427352, 0.000405919, 0.0313972, 0.0298075, 0.00310914, 0.000238978, 0.0004611, 0.00547995
0.00019343, 0.00254038, 0.00725306, -0.00113671, -0.000422925, 0.000376114, 0.0313933, 0.0297103, 0.00304687, 0.000231979, 0.000449996, 0.00544538
0.000162389, 0.00240115, 0.00723392, -0.00112948, -0.000418609, 0.000345275, 0.0313894, 0.0296149, 0.00298881, 0.000225716, 0.000439794, 0.00541493
0.000140702, 0.00230869, 0.00722084, -0.00112481, -0.000414981, 0.000319282, 0.0313856, 0.0295221, 0.00293505, 0.000220008, 0.000430378, 0.00538778
8.43786e-05, 0.00207357, 0.00717636, -0.00111801, -0.000411541, 0.000290486, 0.0313817, 0.0294369, 0.00288522, 0.000214673, 0.000421628, 0.00536313
2.42059e-05, 0.00183687, 0.00711792, -0.00111681, -0.000409008, 0.00027275, 0.0313776, 0.0293659, 0.00283835, 0.000209555, 0.000413416, 0.00534
-8.06957e-05, 0.00148599, 0.00702513, -0.00111332, -0.000405624, 0.000244661, 0.0313732, 0.0293079, 0.00279344, 0.000204652, 0.000405778, 0.00531867
-0.000243572, 0.00106748, 0.00688689, -0.00111063, -0.000403966, 0.000227438, 0.0313681, 0.0292688, 0.00274941, 0.00019968, 0.000398559, 0.00529814
-0.000434665, 0.00074787, 0.00673531, -0.00110855, -0.000402747, 0.000214253, 0.0313622, 0.0292484, 0.00270597, 0.000194521, 0.000391696, 0.00527816
-0.000511948, 0.000656082, 0.00667452, -0.00110957, -0.000402308, 0.000213543, 0.0313556, 0.0292394, 0.00266408, 0.000189344, 0.000385209, 0.00525927
-0.000507326, 0.00063336, 0.00667407, -0.00111194, -0.000401696, 0.000215111, 0.031349, 0.0292338, 0.00262465, 0.000184318, 0.000379089, 0.00524145
-0.000506997, 0.000602938, 0.006671, -0.00111477, -0.000402813, 0.000228649, 0.0313424, 0.0292273, 0.00258669, 0.000179376, 0.000373181, 0.00522381
-0.000530563, 0.000545808, 0.00665219, -0.00111756, -0.000404388, 0.000244871, 0.0313358, 0.0292155, 0.00254869, 0.000174603, 0.000367413, 0.00520608
-0.000617688, 0.000407679, 0.00659336, -0.00111966, -0.000405111, 0.000254423, 0.0313287, 0.0291999, 0.00251072, 0.000169944, 0.000361617, 0.00518717
-0.000728134, 0.00025976, 0.0065255, -0.00112062, -0.000404618, 0.000253397, 0.0313209, 0.0291853, 0.00247419, 0.000165366, 0.000355701, 0.00516636
-0.000902231, 9.24554e-05, 0.00642974, -0.00112041, -0.000403818, 0.00024796, 0.0313125, 0.0291755, 0.00244194, 0.000160842, 0.000349614, 0.00514316
-0.00100134, 2.15938e-05, 0.00638169, -0.00112062, -0.000401778, 0.000232421, 0.0313044, 0.0291701, 0.00241751, 0.000156348, 0.000343355, 0.00511738
-0.00105773, -1.63887e-05, 0.00635829, -0.00112132, -0.00039754, 0.000198413, 0.0312974, 0.0291666, 0.00240168, 0.000151975, 0.000336985, 0.0050889
-0.0010513, -4.17142e-05, 0.00635996, -0.0011227, -0.000391612, 0.000149327, 0.0312915, 0.0291636, 0.00239276, 0.000147792, 0.000330564, 0.00505778
-0.00100734, -8.11929e-05, 0.00636899, -0.00112465, -0.000385774, 9.97837e-05, 0.0312863, 0.0291604, 0.00238824, 0.000143826, 0.000324124, 0.00502396
-0.000902258, -0.000134548, 0.00638466, -0.00112748, -0.000379473, 4.53509e-05, 0.0312808, 0.0291572, 0.00238531, 0.000140084, 0.000317664, 0.00498726
-0.000754732, -0.000152835, 0.00640284, -0.00113024, -0.000374158, -9.28016e-07, 0.0312738, 0.0291541, 0.00238266, 0.000136525, 0.000311128, 0.004947
-0.000601591, -0.000130293, 0.00641971, -0.00113222, -0.000370121, -3.67618e-05, 0.0312639, 0.0291499, 0.00237982, 0.000133113, 0.000304451, 0.00490255
-0.00042552, -8.21887e-05, 0.00643704, -0.00113384, -0.000366454, -7.02882e-05, 0.0312503, 0.0291446, 0.00237682, 0.000129845, 0.000297635, 0.00485407
-0.000253745, -1.88032e-05, 0.00645317, -0.00113508, -0.000364068, -9.16828e-05, 0.0312311, 0.0291374, 0.00237343, 0.00012671, 0.000290662, 0.00480147
-8.12668e-05, 4.9698e-05, 0.00646776, -0.00113609, -0.000362359, -0.000106685, 0.031205, 0.0291282, 0.00236978, 0.000123692, 0.000283545, 0.00474492
0.000162737, 0.000157523, 0.00648769, -0.00113704, -0.000359513, -0.000134393, 0.0311689, 0.0291157, 0.00236538, 0.000120787, 0.00027627, 0.00468441
0.000395989, 0.000260309, 0.00650529, -0.0011376, -0.00035748, -0.000155108, 0.0311215, 0.0291012, 0.00236074, 0.000117995, 0.000268879, 0.00462003
0.000655168, 0.000379243, 0.00652495, -0.00113804, -0.000355272, -0.000178203, 0.031057, 0.029082, 0.00235483, 0.000115314, 0.000261324, 0.00455151
0.000930925, 0.000522834, 0.00654867, -0.0011382, -0.000353313, -0.000199419, 0.0309642, 0.0290514, 0.00234513, 0.00011274, 0.000253527, 0.00447846
0.00169836, 0.000988439, 0.00662764, -0.00113849, -0.000353216, -0.000193868, 0.0308193, 0.0289898, 0.00232425, 0.000110259, 0.000245382, 0.00440053
0.00242366, 0.00147554, 0.00671146, -0.00113868, -0.000356321, -0.000148723, 0.0305997, 0.0288741, 0.00228248, 0.000107867, 0.000236934, 0.00431831
0.00271338, 0.00167009, 0.00674472, -0.00113898, -0.000362416, -7.0985e-05, 0.0303062, 0.0286998, 0.00221619, 0.000105562, 0.000228431, 0.00423411
0.00336085, 0.00215345, 0.00682815, -0.00113905, -0.00036901, 1.77974e-05, 0.029964, 0.0284791, 0.00212768, 0.000103353, 0.000220106, 0.00414957
0.00320918, 0.00202567, 0.00680353, -0.00113956, -0.000374848, 8.84549e-05, 0.0296204, 0.0282416, 0.00202566, 0.000101265, 0.000212173, 0.00406626
0.00225351, 0.00128637, 0.00666877, -0.00114044, -0.000381133, 0.000151378, 0.029322, 0.0280488, 0.00193955, 9.9352e-05, 0.000204678, 0.0039832
0.00166862, 0.00085369, 0.0065895, -0.00114081, -0.000385212, 0.000190829, 0.0290666, 0.0278936, 0.00186875, 9.7608e-05, 0.000197476, 0.00389789
0.000915166, 0.000315629, 0.00649158, -0.00114108, -0.000388068, 0.000209842, 0.0288505, 0.0277705, 0.00181114, 9.6037e-05, 0.000190574, 0.00381113
0.000652862, 0.000130124, 0.00645748, -0.00114102, -0.000388706, 0.000208665, 0.0286771, 0.0276684, 0.00176253, 9.46248e-05, 0.00018397, 0.0037232
0.000120636, -0.000240922, 0.00639007, -0.00114094, -0.000388775, 0.000191145, 0.0285359, 0.0275888, 0.00172418, 9.33732e-05, 0.000177668, 0.00363525
-0.00022198, -0.000471271, 0.0063482, -0.00114067, -0.000388072, 0.000164836, 0.0284197, 0.0275251, 0.00169392, 9.22762e-05, 0.000171619, 0.00354658
-0.000391756, -0.000571405, 0.00632876, -0.00114024, -0.00038714, 0.000136899, 0.0283229, 0.0274767, 0.00167031, 9.13344e-05, 0.000165799, 0.00345744
-0.000626015, -0.000713957, 0.00630179, -0.00114001, -0.000385395, 9.85832e-05, 0.0282423, 0.0274403, 0.00165176, 9.05352e-05, 0.000160196, 0.00336818
-0.000888093, -0.000877946, 0.00627158, -0.00113997, -0.000383016, 5.27215e-05, 0.0281743, 0.0274105, 0.00163684, 8.98549e-05, 0.000154815, 0.00327955
-0.00113681, -0.00103742, 0.00624383, -0.00114006, -0.00038051, 7.80664e-06, 0.0281123, 0.0273836, 0.00162454, 8.92709e-05, 0.000149652, 0.00319227
-0.00121451, -0.00108186, 0.00623569, -0.00114001, -0.000378366, -3.06402e-05, 0.0280492, 0.0273598, 0.00161433, 8.87725e-05, 0.00014465, 0.00310595
-0.00133409, -0.00113208, 0.00622679, -0.00113989, -0.000376552, -6.7923e-05, 0.0279621, 0.0273374, 0.00160571, 8.83252e-05, 0.000139694, 0.00302032
-0.00148241, -0.00118588, 0.00621852, -0.00113993, -0.000375078, -9.49858e-05, 0.0278248, 0.0273147, 0.00159812, 8.78932e-05, 0.000134714, 0.00293536
-0.00204654, -0.0013766, 0.0061921, -0.00114021, -0.000373458, -0.000124658, 0.0276446, 0.0272922, 0.00159122, 8.74802e-05, 0.000129794, 0.00285179
-0.00189666, -0.0013287, 0.00619825, -0.00114017, -0.000372996, -0.000132564, 0.0274281, 0.0272702, 0.00158489, 8.70799e-05, 0.00012501, 0.00277061
-0.00188429, -0.00132823, 0.00619844, -0.00114031, -0.000372706, -0.000133665, 0.0271884, 0.0272475, 0.00157895, 8.66924e-05, 0.000120452, 0.00269305
-0.00209312, -0.00140213, 0.0061903, -0.00114066, -0.000372271, -0.000133214, 0.0269283, 0.0272208, 0.00157314, 8.63083e-05, 0.000116163, 0.00262014
-0.00262789, -0.00159697, 0.00617025, -0.00114132, -0.000370996, -0.000143147, 0.0266614, 0.0271904, 0.00156748, 8.59325e-05, 0.000112155, 0.00255205
-0.00262421, -0.00160452, 0.00616967, -0.00114158, -0.000370584, -0.000143672, 0.0263941, 0.0271598, 0.00156222, 8.55696e-05, 0.000108389, 0.00248795
-0.00219422, -0.00147397, 0.00618297, -0.00114164, -0.000370067, -0.000151333, 0.0261257, 0.0271336, 0.00155766, 8.52196e-05, 0.000104811, 0.0024266
-0.00197724, -0.00141698, 0.0061888, -0.00114183, -0.000369145, -0.000165832, 0.0258578, 0.0271123, 0.00155384, 8.48799e-05, 0.00010141, 0.00236765
-0.00171211, -0.00135515, 0.00619496, -0.00114218, -0.000367959, -0.000180687, 0.0255927, 0.027094, 0.00155061, 8.45462e-05, 9.81932e-05, 0.00231153
-0.001489, -0.00130915, 0.00619949, -0.00114255, -0.000366747, -0.000196399, 0.0253347, 0.027079, 0.00154796, 8.42206e-05, 9.51678e-05, 0.00225846
-0.00169011, -0.00135724, 0.00619436, -0.00114258, -0.000366597, -0.000201267, 0.0251171, 0.027066, 0.00154551, 8.39276e-05, 9.23996e-05, 0.00220905
-0.0019202, -0.00141769, 0.00618794, -0.0011429, -0.000365792, -0.000212188, 0.0249145, 0.0270541, 0.00154333, 8.36503e-05, 8.98187e-05, 0.00216297
-0.00209536, -0.00146574, 0.00618289, -0.00114322, -0.000365024, -0.000221337, 0.0247275, 0.0270433, 0.00154136, 8.33902e-05, 8.74133e-05, 0.00212001
-0.00214923, -0.0014836, 0.00618101, -0.00114353, -0.000364195, -0.000232379, 0.024548, 0.0270342, 0.00153969, 8.31432e-05, 8.51539e-05, 0.00207974
-0.00195768, -0.00145379, 0.00618422, -0.00114396, -0.000362798, -0.000251787, 0.0243714, 0.0270266, 0.00153831, 8.29083e-05, 8.3023e-05, 0.00204179
-0.00193805, -0.00145939, 0.00618369, -0.00114435, -0.000361795, -0.000263336, 0.0241956, 0.0270198, 0.00153718, 8.26834e-05, 8.10066e-05, 0.00200599
-0.0019061, -0.00146332, 0.00618332, -0.00114478, -0.000360602, -0.000278233, 0.0240236, 0.0270139, 0.00153626, 8.24706e-05, 7.90945e-05, 0.00197207
-0.00181506, -0.0014591, 0.00618372, -0.00114525, -0.000359272, -0.000295174, 0.0238508, 0.0270094, 0.00153557, 8.2266e-05, 7.72713e-05, 0.00193975
-0.00191912, -0.00148008, 0.00618164, -0.00114559, -0.000358441, -0.000305111, 0.0236802, 0.0270056, 0.00153504, 8.20736e-05, 7.55382e-05, 0.00190887
-0.00192112, -0.00148751, 0.00618091, -0.00114597, -0.000357448, -0.000317508, 0.0235091, 0.0270028, 0.00153466, 8.18916e-05, 7.3888e-05, 0.00187929
-0.00236767, -0.00152849, 0.00617638, -0.00114624, -0.000356927, -0.000326282, 0.0233402, 0.027001, 0.00153441, 8.17232e-05, 7.23188e-05, 0.00185081
-0.00339056, -0.00160694, 0.00616495, -0.00114649, -0.000356863, -0.00032944, 0.0231855, 0.0269996, 0.00153411, 8.15745e-05, 7.0836e-05, 0.00182342
-0.00412188, -0.00165286, 0.00615501, -0.00114662, -0.000356931, -0.000332576, 0.0230462, 0.0269985, 0.00153373, 8.14477e-05, 6.94318e-05, 0.00179713
-0.00465045, -0.00168652, 0.00614672, -0.00114691, -0.000356405, -0.000341593, 0.0229183, 0.0269975, 0.00153328, 8.13423e-05, 6.80962e-05, 0.00177187
-0.00514342, -0.00171087, 0.00613877, -0.00114726, -0.000355692, -0.00035215, 0.0227984, 0.0269967, 0.00153283, 8.12521e-05, 6.68242e-05, 0.00174754
-0.00578952, -0.00173481, 0.00612731, -0.00114783, -0.000354537, -0.000365502, 0.0226911, 0.0269961, 0.00153237, 8.1173e-05, 6.5621e-05, 0.00172403
-0.00624348, -0.00174715, 0.0061184, -0.00114838, -0.000353181, -0.000376482, 0.0225969, 0.0269956, 0.00153191, 8.11048e-05, 6.44863e-05, 0.00170135
-0.00650019, -0.00175827, 0.00611285, -0.00114886, -0.000351745, -0.000388996, 0.0225141, 0.026995, 0.00153149, 8.10461e-05, 6.34202e-05, 0.0016796
-0.00648416, -0.00177135, 0.00611252, -0.00114914, -0.000350574, -0.000399709, 0.0224389, 0.0269944, 0.00153113, 8.09931e-05, 6.24183e-05, 0.00165879
-0.0063921, -0.0017866, 0.00611343, -0.00114934, -0.000349575, -0.000408268, 0.022367, 0.0269938, 0.00153087, 8.0941e-05, 6.14711e-05, 0.00163882
-0.00637717, -0.00179957, 0.00611302, -0.00114961, -0.000348467, -0.000417659, 0.0222991, 0.0269932, 0.0015307, 8.08878e-05, 6.05735e-05, 0.00161953
-0.00637679, -0.00181043, 0.00611241, -0.00114991, -0.000347256, -0.000428395, 0.0222362, 0.0269924, 0.00153059, 8.08318e-05, 5.97192e-05, 0.00160073
-0.00629569, -0.0018275, 0.00611282, -0.00115013, -0.000346233, -0.00043717, 0.0221783, 0.0269916, 0.00153052, 8.07723e-05, 5.89044e-05, 0.00158235
-0.0061272, -0.00185225, 0.00611413, -0.00115022, -0.000345572, -0.000442024, 0.0221206, 0.0269908, 0.00153049, 8.07076e-05, 5.81198e-05, 0.00156444
-0.00542621, -0.00193216, 0.00611722, -0.00114994, -0.000345468, -0.000443069, 0.0220482, 0.0269901, 0.00153051, 8.06269e-05, 5.73338e-05, 0.00154686
-0.00480715, -0.00201273, 0.00611619, -0.0011499, -0.000344961, -0.000450753, 0.0219456, 0.0269887, 0.00153056, 8.05211e-05, 5.65205e-05, 0.00152942
-0.00414877, -0.00211682, 0.00611227, -0.00114991, -0.000344436, -0.000461622, 0.021816, 0.026986, 0.00153054, 8.04009e-05, 5.56911e-05, 0.00151204
-0.0035595, -0.00221423, 0.0061074, -0.00114992, -0.000343945, -0.00046815, 0.0216699, 0.0269827, 0.00153045, 8.02709e-05, 5.48677e-05, 0.00149482
-0.00322888, -0.00226702, 0.00610428, -0.00114997, -0.000343552, -0.00047213, 0.0215121, 0.0269789, 0.0015303, 8.01331e-05, 5.40588e-05, 0.0014779
-0.00251417, -0.00238398, 0.00609661, -0.00114987, -0.000343301, -0.000475696, 0.0213427, 0.0269746, 0.00153008, 7.99905e-05, 5.32657e-05, 0.00146148
-0.00235085, -0.0024041, 0.00609483, -0.00115004, -0.00034277, -0.000480225, 0.0211691, 0.0269707, 0.00152982, 7.98492e-05, 5.24982e-05, 0.00144572
-0.00241553, -0.00238738, 0.00609567, -0.00115021, -0.000342322, -0.000482512, 0.0210021, 0.0269665, 0.00152955, 7.9715e-05, 5.17669e-05, 0.00143065
-0.00250033, -0.00236356, 0.00609687, -0.00115042, -0.000341812, -0.000485045, 0.0208417, 0.026961, 0.00152922, 7.95856e-05, 5.10689e-05, 0.00141622
-0.00255628, -0.00234353, 0.00609778, -0.00115059, -0.00034135, -0.000487238, 0.0206902, 0.0269542, 0.00152886, 7.94622e-05, 5.04064e-05, 0.0014024
-0.00246344, -0.00235726, 0.00609653, -0.00115074, -0.00034086, -0.000490389, 0.0205447, 0.0269468, 0.00152846, 7.93452e-05, 4.97754e-05, 0.00138924
-0.00228065, -0.00238867, 0.00609388, -0.00115083, -0.000340379, -0.00049191, 0.0204025, 0.0269394, 0.00152802, 7.92347e-05, 4.91726e-05, 0.00137677
-0.00226029, -0.00238088, 0.0060938, -0.001151, -0.000339835, -0.000494409, 0.0202652, 0.0269309, 0.00152753, 7.91295e-05, 4.85983e-05, 0.00136481
-0.0022928, -0.00236206, 0.00609461, -0.00115113, -0.00033945, -0.000496479, 0.020136, 0.0269209, 0.00152699, 7.90308e-05, 4.80549e-05, 0.00135333
-0.00225566, -0.00236904, 0.00609404, -0.0011512, -0.00033921, -0.000498661, 0.0200155, 0.0269102, 0.00152644, 7.89404e-05, 4.75403e-05, 0.00134236
-0.00239499, -0.0023209, 0.00609669, -0.00115129, -0.000339085, -0.000500149, 0.0199061, 0.0268992, 0.00152595, 7.88581e-05, 4.70539e-05, 0.00133185
-0.00269916, -0.00221119, 0.00610206, -0.00115142, -0.000339095, -0.000502183, 0.0198078, 0.0268866, 0.00152548, 7.87808e-05, 4.65923e-05, 0.00132168
-0.00283381, -0.00216208, 0.00610416, -0.00115151, -0.000339107, -0.000504926, 0.0197195, 0.0268734, 0.00152507, 7.87108e-05, 4.61528e-05, 0.0013119
-0.00294398, -0.00211674, 0.00610602, -0.00115158, -0.000339073, -0.000506159, 0.0196374, 0.0268599, 0.00152468, 7.86496e-05, 4.57313e-05, 0.00130258
-0.00318601, -0.00199636, 0.00611045, -0.00115175, -0.000338803, -0.000509611, 0.0195634, 0.0268444, 0.0015243, 7.859e-05, 4.5328e-05, 0.00129357
-0.00330486, -0.00192508, 0.0061131, -0.00115186, -0.000338484, -0.000512345, 0.0194956, 0.0268276, 0.00152392, 7.85359e-05, 4.49412e-05, 0.00128496
-0.00344427, -0.00183538, 0.00611629, -0.00115199, -0.000338021, -0.000516541, 0.0194336, 0.0268109, 0.00152358, 7.84861e-05, 4.4573e-05, 0.00127676
-0.00353878, -0.00176812, 0.00611867, -0.00115207, -0.000337659, -0.000518759, 0.0193772, 0.0267942, 0.00152325, 7.84385e-05, 4.42238e-05, 0.00126894
-0.00355897, -0.00174596, 0.00611956, -0.00115209, -0.000337407, -0.000520592, 0.0193241, 0.0267769, 0.00152291, 7.83925e-05, 4.38921e-05, 0.00126146
-0.00351297, -0.00177034, 0.0061189, -0.00115205, -0.000337358, -0.000520531, 0.0192732, 0.02676, 0.00152257, 7.8348e-05, 4.35774e-05, 0.00125433
-0.00350505, -0.00176779, 0.00611917, -0.00115201, -0.00033724, -0.00051993, 0.0192237, 0.0267423, 0.0015222, 7.83016e-05, 4.32768e-05, 0.00124737
-0.00370097, -0.00162527, 0.00612446, -0.00115207, -0.000337004, -0.000517994, 0.0191711, 0.0267217, 0.0015217, 7.82502e-05, 4.29823e-05, 0.0012404
-0.00417837, -0.0013265, 0.00613729, -0.00115231, -0.000336798, -0.000517249, 0.019104, 0.0266984, 0.00152093, 7.81877e-05, 4.26801e-05, 0.0012334
-0.00406818, -0.00139821, 0.0061337, -0.00115222, -0.000336991, -0.000516187, 0.0190204, 0.0266725, 0.00151985, 7.81198e-05, 4.2371e-05, 0.00122643
-0.00397494, -0.0014705, 0.00612997, -0.00115213, -0.000337343, -0.000514399, 0.0189226, 0.0266443, 0.0015185, 7.80486e-05, 4.20606e-05, 0.00121949
-0.0038915, -0.00154022, 0.00612639, -0.00115209, -0.000337641, -0.000514087, 0.0188189, 0.026614, 0.00151697, 7.79779e-05, 4.17569e-05, 0.00121265
-0.00373417, -0.0016521, 0.00612041, -0.00115201, -0.000337926, -0.000513863, 0.0187164, 0.0265819, 0.00151538, 7.79083e-05, 4.14648e-05, 0.00120597
-0.00349, -0.00181801, 0.00611154, -0.00115188, -0.000338231, -0.00051322, 0.0186176, 0.0265479, 0.00151375, 7.78407e-05, 4.11848e-05, 0.00119954
-0.00325119, -0.00198029, 0.00610311, -0.0011517, -0.000338542, -0.000510489, 0.0185251, 0.0265128, 0.00151214, 7.7775e-05, 4.09176e-05, 0.00119331
-0.00312321, -0.0020426, 0.00610009, -0.00115138, -0.000338759, -0.000500873, 0.0184366, 0.0264744, 0.00151045, 7.77106e-05, 4.06581e-05, 0.0011873
-0.00309609, -0.00196091, 0.00610493, -0.00115076, -0.000338839, -0.000479505, 0.0183486, 0.026421, 0.00150828, 7.76418e-05, 4.03974e-05, 0.00118135
-0.00319229, -0.00180411, 0.00611523, -0.00115016, -0.000339047, -0.000456077, 0.0182578, 0.0263331, 0.00150505, 7.7563e-05, 4.0132e-05, 0.00117537
-0.00315357, -0.00169138, 0.00612341, -0.00114948, -0.000339186, -0.000434074, 0.018162, 0.0261954, 0.00150035, 7.74816e-05, 3.98711e-05, 0.00116964
-0.00316806, -0.00132276, 0.00614076, -0.00114882, -0.000338993, -0.000414712, 0.0180633, 0.0260108, 0.00149435, 7.74098e-05, 3.96311e-05, 0.00116449
-0.00325128, -0.000845112, 0.00616069, -0.00114857, -0.000338605, -0.000403743, 0.0179642, 0.0257872, 0.00148733, 7.73477e-05, 3.9421e-05, 0.00115997
-0.00323365, -0.000413036, 0.00617575, -0.00114833, -0.000338201, -0.000397076, 0.0178652, 0.0255359, 0.0014796, 7.7297e-05, 3.92459e-05, 0.00115617
-0.00308375, -0.000119219, 0.00618313, -0.00114811, -0.000337831, -0.000393363, 0.0177664, 0.0252722, 0.00147154, 7.72574e-05, 3.91052e-05, 0.00115298
-0.0025012, -0.000594176, 0.00614642, -0.00114851, -0.000337342, -0.000416643, 0.0176676, 0.025004, 0.00146332, 7.72249e-05, 3.89918e-05, 0.00115027
-0.00228793, -0.000576783, 0.00613905, -0.0011485, -0.000336997, -0.000420785, 0.0175697, 0.0247415, 0.00145515, 7.71968e-05, 3.88987e-05, 0.00114782
-0.00193561, -0.00096717, 0.00611062, -0.00114879, -0.00033674, -0.00043675, 0.0174708, 0.0244908, 0.00144709, 7.71715e-05, 3.88162e-05, 0.00114551
-0.00149079, -0.00156458, 0.00607015, -0.00114925, -0.000336501, -0.00045977, 0.0173705, 0.0242491, 0.00143903, 7.7144e-05, 3.87337e-05, 0.00114313
-0.00106274, -0.0021606, 0.00602957, -0.00114973, -0.000336331, -0.000483235, 0.0172674, 0.0240152, 0.00143087, 7.71105e-05, 3.86447e-05, 0.00114045
-0.00081236, -0.00217317, 0.00600008, -0.0011503, -0.000335457, -0.000512933, 0.01716, 0.0237934, 0.00142265, 7.70654e-05, 3.85363e-05, 0.0011373
-0.00166111, -0.00138972, 0.00593036, -0.00115502, -0.000332058, -0.000664892, 0.0170497, 0.0235834, 0.00141437, 7.70085e-05, 3.84017e-05, 0.00113338
-0.00271375, -0.000364805, 0.00587096, -0.00116123, -0.00032849, -0.000845961, 0.0169389, 0.0233882, 0.00140617, 7.69385e-05, 3.82299e-05, 0.00112863
-0.00378493, 0.000483162, 0.00581612, -0.00116669, -0.000325433, -0.00101307, 0.0168315, 0.0232114, 0.00139826, 7.68638e-05, 3.80361e-05, 0.00112349
-0.00482826, 0.00111611, 0.00576598, -0.00117137, -0.000322888, -0.00115729, 0.0167311, 0.0230526, 0.00139076, 7.67891e-05, 3.7837e-05, 0.00111837
-0.00603688, 0.0018493, 0.005734, -0.00117559, -0.000320753, -0.00127904, 0.01664, 0.0229105, 0.00138377, 7.67145e-05, 3.76443e-05, 0.00111356
-0.00739975, 0.00266987, 0.00571969, -0.00117956, -0.000318999, -0.00138108, 0.0165591, 0.0227829, 0.00137735, 7.66424e-05, 3.74677e-05, 0.00110932
-0.00881703, 0.0034882, 0.0057208, -0.00118313, -0.000317736, -0.00145971, 0.0164874, 0.022667, 0.00137145, 7.65747e-05, 3.73152e-05, 0.00110579
-0.0102689, 0.00437589, 0.00573503, -0.00118651, -0.000316556, -0.00152283, 0.0164237, 0.022561, 0.00136605, 7.65098e-05, 3.71836e-05, 0.00110286
-0.0117206, 0.00540878, 0.00576235, -0.00118953, -0.000315557, -0.00157094, 0.0163669, 0.0224602, 0.00136102, 7.64482e-05, 3.70758e-05, 0.00110042
-0.013161, 0.00665184, 0.00579974, -0.00119242, -0.000314628, -0.00160969, 0.0163155, 0.0223608, 0.00135625, 7.63883e-05, 3.6991e-05, 0.00109834
-0.0146114, 0.00795449, 0.00584105, -0.00119547, -0.000313678, -0.00164712, 0.0162672, 0.0222622, 0.00135167, 7.6332e-05, 3.69216e-05, 0.00109664
-0.0159631, 0.00922918, 0.00588471, -0.00119824, -0.000312851, -0.00167636, 0.0162209, 0.0221644, 0.00134723, 7.62798e-05, 3.68645e-05, 0.0010953
