-0.000126255, -3.49947e-05, 0.00174982, -0.00106986, -0.000383826, 0.00013399, 0.0316228, 0.0316228, 0.0316228, 0.0316228, 0.0316228, 0.0316228
-0.000126255, -3.49947e-05, 0.00174982, -0.00106986, -0.000383826, 0.00013399, 0.0316228, 0.0316228, 0.0316228, 0.0316228, 0.0316228, 0.0316228
-0.000148212, -4.88309e-05, 0.00156933, -0.00117761, 1.24768e-05, 0.000138801, 0.0315943, 0.0315936, 0.031588, 0.031503, 0.031505, 0.0316062
-0.000273992, -3.98203e-05, 0.00148462, -0.00109319, 0.000424206, 0.000149306, 0.0315679, 0.0315648, 0.0315379, 0.0313254, 0.031339, 0.0315888
-0.000331884, 2.41688e-05, 0.00124238, -0.000759148, 0.000639154, 0.000152298, 0.0315456, 0.0315408, 0.0314659, 0.0310854, 0.0311111, 0.031571
-0.000313777, 5.3032e-05, 0.00111967, -0.000675021, 0.000453053, 0.000156938, 0.0315281, 0.0315234, 0.0313656, 0.030792, 0.0308166, 0.0315523
-0.000263888, 5.89784e-05, 0.000687007, -0.000810104, 0.000338302, 0.000144658, 0.0315152, 0.0315117, 0.0312249, 0.0304366, 0.0304502, 0.0315334
-0.000176486, 6.68506e-05, -0.000182109, -0.000928209, 0.000283125, 0.000136779, 0.0315066, 0.0315044, 0.0310451, 0.0300089, 0.030012, 0.0315138
-0.000106443, 7.22574e-05, -0.000978965, -0.000953669, 0.00036535, 0.000142796, 0.0315013, 0.0315001, 0.030842, 0.0294932, 0.029488, 0.0314922
-6.339e-05, 8.22539e-05, -0.00128116, -0.000835348, 2.50786e-05, 0.000144903, 0.0314977, 0.0314979, 0.0305988, 0.028865, 0.0288427, 0.0314689
1.19863e-05, 9.85282e-05, -0.00223347, -0.000805173, -0.000224045, 0.000118377, 0.0314953, 0.0314969, 0.0303013, 0.0280927, 0.0280549, 0.0314479
0.000106411, 0.000124291, -0.00371993, -0.000911483, -0.000210624, 0.000117426, 0.0314937, 0.0314966, 0.0299525, 0.027154, 0.0271154, 0.0314272
0.00024458, 0.000168907, -0.00610759, -0.00108709, -0.000105856, 0.000175427, 0.0314924, 0.0314964, 0.0295549, 0.0260462, 0.0260169, 0.0314061
0.000383253, 0.000222708, -0.00859844, -0.00147946, 1.33811e-05, 0.000175025, 0.0314912, 0.0314962, 0.0291389, 0.0247943, 0.024769, 0.0313822
0.000296746, 0.000190486, -0.00723946, -0.0016091, -0.00102037, 5.15576e-05, 0.0314899, 0.0314956, 0.0286852, 0.0234142, 0.0234132, 0.0313558
0.000218805, 0.000156872, -0.00570808, -0.00163945, -0.00196957, 6.84861e-06, 0.0314888, 0.0314948, 0.0281259, 0.0219274, 0.0220276, 0.0313388
0.000125864, 0.000103163, -0.00340752, -0.00148246, -0.00274473, -3.55126e-05, 0.0314877, 0.0314937, 0.0273502, 0.020374, 0.0207248, 0.031321
4.89425e-05, 4.8554e-05, -0.00109729, -0.00138758, -0.00315447, -9.0962e-05, 0.0314866, 0.0314923, 0.0264855, 0.0188016, 0.0194689, 0.0313019
7.09135e-06, 6.5349e-06, 0.000331026, -0.00117595, -0.00339408, -8.50837e-05, 0.0314853, 0.0314906, 0.0255983, 0.0172703, 0.0182577, 0.0312815
-8.912e-06, -5.68794e-05, 0.00183535, -0.000669303, -0.00317057, -0.000117813, 0.0314839, 0.0314888, 0.0248793, 0.0158982, 0.0170111, 0.0312588
-9.25758e-06, -0.000122537, 0.00328627, -0.000367796, -0.00278955, -7.3073e-05, 0.0314819, 0.0314872, 0.0245278, 0.0148878, 0.0156605, 0.0312257
-5.18655e-06, -0.000159271, 0.00371779, -0.000234003, -0.00259253, -3.66251e-06, 0.0314797, 0.0314857, 0.0244363, 0.014287, 0.0143798, 0.0311466
5.14849e-06, -0.000160203, 0.00379872, -0.00032749, -0.00236454, 0.000123498, 0.0314778, 0.0314845, 0.0244113, 0.0138563, 0.0132891, 0.0310632
1.11211e-05, -0.000153299, 0.00380481, -0.000425781, -0.00225593, 0.000192128, 0.0314762, 0.0314832, 0.024401, 0.0134303, 0.0123247, 0.0310144
1.9388e-05, -0.000132653, 0.00381855, -0.000699152, -0.00212656, 0.000282701, 0.0314747, 0.0314817, 0.0243929, 0.0129382, 0.0114552, 0.0309825
3.276e-05, -9.17666e-05, 0.00379342, -0.00105627, -0.00190843, 0.000383335, 0.0314731, 0.0314796, 0.0243826, 0.0123001, 0.0106107, 0.0309498
5.62606e-05, -2.96281e-05, 0.00371719, -0.00150177, -0.00155505, 0.00049257, 0.0314713, 0.0314763, 0.0243617, 0.011427, 0.00975494, 0.0309081
7.53156e-05, 1.87953e-05, 0.00365349, -0.00184651, -0.00130546, 0.000567796, 0.0314695, 0.0314717, 0.024329, 0.0104059, 0.00892007, 0.0308581
9.50077e-05, 9.17371e-05, 0.00351209, -0.00219565, -0.00104152, 0.000644603, 0.0314675, 0.0314652, 0.0242709, 0.00927472, 0.00810197, 0.0308097
0.000110962, 0.000203344, 0.00318742, -0.00244178, -0.000809915, 0.000706673, 0.0314656, 0.0314554, 0.0241501, 0.00808446, 0.00732555, 0.0307684
0.00011461, 0.000373031, 0.00256835, -0.00247315, -0.00069002, 0.00073614, 0.0314638, 0.03144, 0.0239078, 0.00692283, 0.00659973, 0.0307364
0.000122214, 0.000711827, 0.0011929, -0.00260036, -0.000521226, 0.000841604, 0.0314623, 0.0314146, 0.0233502, 0.0058707, 0.00596377, 0.0307077
0.000124485, 0.00115357, -0.000923851, -0.00249909, -0.000481315, 0.000975067, 0.031461, 0.0313754, 0.0221395, 0.00505409, 0.00545556, 0.0306608
0.000125545, 0.00163432, -0.00342289, -0.00237445, -0.000509231, 0.00110053, 0.03146, 0.0313278, 0.0202436, 0.00454123, 0.00508336, 0.0305483
0.000126728, 0.00185996, -0.00462786, -0.00220928, -0.000550698, 0.00119954, 0.0314593, 0.0312843, 0.0181816, 0.00425558, 0.00483021, 0.0303211
0.000129423, 0.00187638, -0.00471305, -0.00212576, -0.000546091, 0.00133298, 0.0314587, 0.0312511, 0.0163837, 0.00408838, 0.00465337, 0.0300057
0.000124523, 0.00179144, -0.0042297, -0.00207063, -0.000552536, 0.0013808, 0.0314583, 0.0312282, 0.0149892, 0.0039789, 0.00452488, 0.0296372
0.00010814, 0.00161066, -0.00321313, -0.00206935, -0.000560847, 0.00127411, 0.0314578, 0.031213, 0.0139882, 0.00389541, 0.00442978, 0.0292307
8.58223e-05, 0.0014207, -0.00225589, -0.00207723, -0.000566616, 0.00117619, 0.0314574, 0.0312008, 0.0133046, 0.00381472, 0.00435729, 0.0288111
5.32373e-05, 0.00110328, -0.00106059, -0.00203573, -0.000580166, 0.00116256, 0.031457, 0.0311862, 0.0127906, 0.00371821, 0.00430252, 0.0283828
3.45407e-05, 0.000882763, -0.000422285, -0.00195054, -0.000603488, 0.00123967, 0.0314566, 0.0311685, 0.0123531, 0.00360416, 0.00426164, 0.0279493
2.4161e-05, 0.000777269, -0.000152514, -0.00189343, -0.000618061, 0.00130642, 0.0314563, 0.0311533, 0.0120136, 0.0034855, 0.00423626, 0.0274719
1.33584e-05, 0.000678483, 6.46078e-05, -0.00182199, -0.000634893, 0.00136828, 0.031456, 0.031139, 0.0117349, 0.00336126, 0.00422172, 0.0269484
1.07794e-06, 0.000561618, 0.000288085, -0.00173028, -0.000649311, 0.00147362, 0.0314557, 0.0311241, 0.0115048, 0.00321939, 0.00421411, 0.0263973
-1.16914e-05, 0.000441239, 0.000491373, -0.00163078, -0.000663063, 0.00155818, 0.0314554, 0.0311079, 0.0113022, 0.00306059, 0.00420984, 0.0258339
-2.39336e-05, 0.000329661, 0.000681779, -0.00155738, -0.000673007, 0.00160101, 0.0314551, 0.0310921, 0.011122, 0.00289663, 0.00420642, 0.0252669
-3.36078e-05, 0.000252771, 0.0008081, -0.00149201, -0.000682175, 0.00164486, 0.0314548, 0.03108, 0.0109641, 0.00274643, 0.00420191, 0.02471
-4.31136e-05, 0.000199495, 0.000919388, -0.00145029, -0.00069207, 0.00170591, 0.0314545, 0.0310741, 0.0108425, 0.00262373, 0.00419522, 0.0241772
-5.06202e-05, 0.000169234, 0.000990401, -0.00141454, -0.000702843, 0.00181169, 0.0314543, 0.0310715, 0.0107543, 0.00252566, 0.00418671, 0.0236854
-5.41049e-05, 0.00014022, 0.000961231, -0.00136408, -0.000716623, 0.001947, 0.031454, 0.0310693, 0.0106895, 0.00243471, 0.00417829, 0.023244
-5.85906e-05, 0.000112099, 0.000960161, -0.00131807, -0.000730073, 0.00208629, 0.0314538, 0.0310667, 0.0106343, 0.00233958, 0.00417063, 0.0228495
-6.5332e-05, 7.0519e-05, 0.000952545, -0.00125211, -0.000742479, 0.00214189, 0.0314535, 0.0310635, 0.0105879, 0.00223875, 0.00416384, 0.0225011
-7.6875e-05, 4.43959e-05, 0.00101677, -0.00118213, -0.000757851, 0.00224046, 0.0314533, 0.03106, 0.0105427, 0.00213409, 0.00415808, 0.0222024
-8.44478e-05, 4.20356e-05, 0.00106233, -0.00114572, -0.00076607, 0.00227648, 0.0314531, 0.0310558, 0.0104997, 0.00202687, 0.0041536, 0.0219572
-9.41544e-05, 3.98103e-05, 0.00110823, -0.00109222, -0.000776112, 0.00232931, 0.0314528, 0.0310498, 0.0104623, 0.0019189, 0.00415045, 0.0217643
-9.68867e-05, 7.00876e-05, 0.00115882, -0.00109202, -0.00077831, 0.00234767, 0.0314526, 0.031043, 0.0104172, 0.00181057, 0.00414842, 0.0216267
-0.000100313, 0.00010909, 0.00122456, -0.00108556, -0.000782642, 0.00238661, 0.0314523, 0.0310348, 0.0103611, 0.00170391, 0.00414659, 0.0215418
-0.000104256, 0.000142611, 0.00128209, -0.00106312, -0.00078497, 0.00241225, 0.031452, 0.0310244, 0.01029, 0.00160197, 0.00414308, 0.0214993
-0.000105372, 0.000176898, 0.00133648, -0.00104326, -0.000782121, 0.0024348, 0.0314517, 0.0310113, 0.0102005, 0.00150603, 0.00413528, 0.0214838
-0.000102763, 0.000142804, 0.00128172, -0.00103795, -0.000774756, 0.00241952, 0.0314514, 0.0309959, 0.0100805, 0.00141564, 0.00411914, 0.0214749
-9.51058e-05, 2.95299e-05, 0.00106488, -0.00106699, -0.000760505, 0.00238656, 0.031451, 0.0309825, 0.00987755, 0.00132786, 0.00408844, 0.0214408
-9.3336e-05, -6.05295e-05, 0.0007895, -0.0010771, -0.000749074, 0.00234938, 0.0314504, 0.0309725, 0.00954901, 0.00124618, 0.00403571, 0.0213394
-9.6807e-05, -0.000159771, 0.000424649, -0.00109898, -0.000752861, 0.00237043, 0.0314497, 0.0309648, 0.00911018, 0.00117599, 0.00395542, 0.021133
-0.000100319, -0.000206956, 0.000265186, -0.00112324, -0.000764594, 0.00242643, 0.0314488, 0.0309599, 0.00856589, 0.00111832, 0.00384242, 0.020784
-0.000108713, -0.00025759, 1.3688e-06, -0.00115108, -0.000790258, 0.00255152, 0.0314479, 0.030957, 0.00800296, 0.00107155, 0.00369441, 0.0202664
-9.80471e-05, -0.000228971, 0.000395835, -0.00116072, -0.000788979, 0.00254636, 0.0314469, 0.0309547, 0.00749674, 0.00103498, 0.00351496, 0.0195827
-8.5411e-05, -0.000142209, 0.000762622, -0.00116588, -0.00078864, 0.00254653, 0.031446, 0.0309484, 0.00709478, 0.0010048, 0.00331977, 0.0187982
-7.29775e-05, -6.64772e-05, 0.000949634, -0.00116675, -0.000767038, 0.00244206, 0.0314452, 0.0309357, 0.00675935, 0.000978604, 0.00311301, 0.0179289
-7.37722e-05, -0.000112932, 0.000850224, -0.00116709, -0.000743783, 0.00232776, 0.0314444, 0.0309211, 0.00645869, 0.000955363, 0.0028988, 0.0169917
-7.86021e-05, -0.000181619, 0.000702153, -0.00116322, -0.000722379, 0.00221656, 0.0314437, 0.0309087, 0.00618278, 0.000935022, 0.00268204, 0.0160089
-8.15061e-05, -0.000226242, 0.00060956, -0.00115623, -0.000703959, 0.00211601, 0.0314431, 0.0308979, 0.00593302, 0.000917265, 0.00247164, 0.015027
-9.06816e-05, -0.000317159, 0.000423408, -0.00115134, -0.000686517, 0.00202089, 0.0314427, 0.0308882, 0.0057096, 0.000901647, 0.00227423, 0.0140833
-0.000101404, -0.000436952, 0.000182241, -0.00115183, -0.000662437, 0.00189103, 0.0314423, 0.0308792, 0.00551206, 0.000887801, 0.00209218, 0.0131933
-0.000103487, -0.000470876, 0.000121428, -0.00114562, -0.000635925, 0.00173967, 0.031442, 0.0308719, 0.00533976, 0.000875428, 0.00192716, 0.0123694
-0.000103186, -0.000480266, 0.000117531, -0.00113895, -0.000621694, 0.00165487, 0.0314416, 0.0308651, 0.00519072, 0.00086407, 0.00178011, 0.0116217
-9.98514e-05, -0.000474884, 0.000134622, -0.00113416, -0.000600323, 0.00152938, 0.0314413, 0.0308576, 0.00506196, 0.00085331, 0.0016499, 0.0109484
-9.03734e-05, -0.00043652, 0.000199635, -0.00113245, -0.000587969, 0.00145628, 0.0314409, 0.0308505, 0.00495009, 0.000842965, 0.00153527, 0.0103461
-6.39101e-05, -0.000310166, 0.000377317, -0.00112233, -0.000568886, 0.00133867, 0.0314405, 0.0308412, 0.00485125, 0.000832512, 0.00143537, 0.00981481
-3.7429e-05, -0.000159547, 0.000532496, -0.00111432, -0.000553912, 0.00124548, 0.0314401, 0.0308271, 0.00476167, 0.000821569, 0.00134921, 0.00935351
-2.05126e-05, -6.96802e-05, 0.000612279, -0.00111522, -0.000541747, 0.00117158, 0.0314396, 0.0308109, 0.0046803, 0.000810267, 0.00127412, 0.00894798
-9.86636e-06, -2.76354e-05, 0.000650611, -0.0011191, -0.000526737, 0.00107968, 0.031439, 0.0307967, 0.00460668, 0.000798878, 0.00120858, 0.00859163
1.63732e-05, 9.18721e-05, 0.000756638, -0.00111965, -0.000516908, 0.00101857, 0.0314385, 0.0307837, 0.0045397, 0.000787352, 0.0011516, 0.00828152
7.85936e-05, 0.000418478, 0.000996073, -0.00111211, -0.000509167, 0.000967907, 0.0314378, 0.0307658, 0.00447407, 0.000775079, 0.00110246, 0.00801652
0.000189422, 0.00106883, 0.00136397, -0.00110262, -0.000503361, 0.000927412, 0.0314368, 0.0307337, 0.00440269, 0.000761526, 0.00106015, 0.00779262
0.000316375, 0.00184756, 0.00172727, -0.0011032, -0.000497869, 0.000887151, 0.0314354, 0.03068, 0.00432239, 0.000747015, 0.00102344, 0.00760248
0.000408217, 0.00238044, 0.00195562, -0.00111056, -0.000488635, 0.000824769, 0.0314335, 0.0306086, 0.00423381, 0.000732589, 0.000991158, 0.00743865
0.000523402, 0.00299381, 0.0022141, -0.00112013, -0.000483359, 0.000785472, 0.0314313, 0.0305336, 0.00414069, 0.000719217, 0.000962683, 0.00729783
0.000560561, 0.00312575, 0.00227722, -0.00113293, -0.000481695, 0.000773151, 0.0314287, 0.0304659, 0.00404954, 0.000707338, 0.000937577, 0.00717795
0.000571096, 0.00311479, 0.00228126, -0.0011445, -0.000481603, 0.000772724, 0.0314262, 0.0304097, 0.00396616, 0.000696998, 0.000915664, 0.00707913
0.000608512, 0.0032072, 0.00233676, -0.0011553, -0.000478347, 0.000753924, 0.0314237, 0.0303573, 0.00388767, 0.000687849, 0.000896747, 0.00700092
0.000640728, 0.00329755, 0.00238394, -0.00116304, -0.000472248, 0.000720906, 0.0314211, 0.0303024, 0.00381107, 0.000679556, 0.000880679, 0.00694274
0.000672314, 0.00337981, 0.00242457, -0.00117144, -0.000463697, 0.000678138, 0.0314182, 0.0302515, 0.00373662, 0.000672017, 0.000866843, 0.00689932
0.000677122, 0.00338102, 0.00242404, -0.00117606, -0.000456585, 0.000645263, 0.0314151, 0.0301961, 0.00366354, 0.00066509, 0.00085483, 0.00686726
0.000676379, 0.0033671, 0.00241423, -0.0011808, -0.000448892, 0.000613522, 0.031412, 0.030124, 0.00359144, 0.000658762, 0.000844363, 0.00684423
0.000613625, 0.00305715, 0.0023197, -0.00117741, -0.000441438, 0.000586435, 0.0314088, 0.0300388, 0.0035217, 0.000653049, 0.000835238, 0.00682836
0.000567527, 0.00283276, 0.00225939, -0.00117172, -0.000435407, 0.000565265, 0.0314054, 0.029953, 0.0034559, 0.000647932, 0.000827233, 0.00681768
0.000530688, 0.00264448, 0.00221617, -0.00116529, -0.000430023, 0.00054694, 0.0314021, 0.0298628, 0.00339412, 0.00064334, 0.000820213, 0.00681089
0.000488662, 0.00242532, 0.00217149, -0.00115671, -0.000426021, 0.000530522, 0.0313986, 0.0297729, 0.00333624, 0.000639149, 0.000813981, 0.00680652
0.000458231, 0.0022658, 0.00214584, -0.00114676, -0.000422041, 0.000511063, 0.031395, 0.0296854, 0.00328251, 0.000635195, 0.000808407, 0.00680358
0.00043591, 0.00215465, 0.00212693, -0.00114005, -0.000418868, 0.000495432, 0.0313915, 0.0296007, 0.00323297, 0.00063134, 0.000803374, 0.00680127
0.000383135, 0.00191488, 0.00207699, -0.0011299, -0.000415792, 0.000471712, 0.031388, 0.0295236, 0.00318712, 0.000627445, 0.000798758, 0.00679916
0.000323056, 0.00167705, 0.0020142, -0.00112774, -0.000413871, 0.000462898, 0.0313843, 0.0294599, 0.00314392, 0.000623366, 0.000794437, 0.00679659
0.000222356, 0.0013369, 0.00191618, -0.00112193, -0.00041075, 0.000442117, 0.0313803, 0.0294084, 0.00310236, 0.0006191, 0.000790422, 0.00679362
6.95321e-05, 0.000952525, 0.00177576, -0.00111722, -0.000409288, 0.000424692, 0.0313756, 0.0293745, 0.00306125, 0.000614427, 0.000786593, 0.00679005
-0.000108591, 0.000671377, 0.00162332, -0.00111432, -0.000408415, 0.000412559, 0.0313702, 0.0293575, 0.00302025, 0.000609298, 0.000782911, 0.00678626
-0.000179638, 0.000595968, 0.00156507, -0.00111688, -0.000408651, 0.000416465, 0.0313643, 0.0293504, 0.00298033, 0.000603973, 0.000779396, 0.00678313
-0.000176542, 0.000575801, 0.00156697, -0.00112132, -0.000409158, 0.000426441, 0.0313583, 0.0293462, 0.00294267, 0.000598723, 0.000776017, 0.00678043
-0.000177587, 0.000551997, 0.00156662, -0.00112624, -0.000411188, 0.000437956, 0.0313523, 0.0293416, 0.00290646, 0.000593672, 0.000772653, 0.00677797
-0.00019565, 0.00051501, 0.00155432, -0.00113082, -0.000414187, 0.000448741, 0.0313463, 0.0293329, 0.00287044, 0.000588941, 0.000769243, 0.00677577
-0.000274201, 0.000406498, 0.00149968, -0.00113443, -0.000415446, 0.000456651, 0.0313398, 0.029321, 0.00283445, 0.000584483, 0.000765644, 0.00677361
-0.000382777, 0.000277727, 0.00142891, -0.00113635, -0.000415385, 0.000459412, 0.0313326, 0.02931, 0.00279967, 0.00058025, 0.000761767, 0.00677112
-0.000550095, 0.000134963, 0.0013298, -0.00113727, -0.000414444, 0.000457476, 0.0313249, 0.0293031, 0.00276868, 0.000576219, 0.000757547, 0.00676771
-0.000649121, 7.82328e-05, 0.00127825, -0.00113841, -0.000410763, 0.000445425, 0.0313174, 0.0292999, 0.00274488, 0.00057239, 0.000752945, 0.0067627
-0.00069509, 5.63863e-05, 0.0012581, -0.0011401, -0.000405693, 0.00042624, 0.0313108, 0.0292983, 0.00272927, 0.000568744, 0.000747982, 0.00675521
-0.000676424, 4.43989e-05, 0.00126527, -0.00114188, -0.000399184, 0.00040025, 0.0313051, 0.0292972, 0.00272039, 0.000565245, 0.000742708, 0.00674491
-0.0006241, 1.84097e-05, 0.00127889, -0.00114379, -0.000392207, 0.000370494, 0.0313001, 0.0292959, 0.00271591, 0.000561848, 0.000737167, 0.00673155
-0.000510545, -1.64435e-05, 0.00130046, -0.00114628, -0.000384271, 0.000334914, 0.0312948, 0.0292948, 0.00271312, 0.000558513, 0.000731352, 0.00671456
-0.000353136, -1.39943e-05, 0.00132529, -0.00114873, -0.000377835, 0.0003057, 0.031288, 0.0292939, 0.00271069, 0.000555206, 0.000725218, 0.00669265
-0.000186616, 2.80229e-05, 0.00134849, -0.00115026, -0.000372537, 0.000279545, 0.0312786, 0.0292921, 0.00270812, 0.000551926, 0.000718709, 0.00666488
2.20699e-06, 9.53008e-05, 0.00137186, -0.00115127, -0.000367426, 0.000251706, 0.0312654, 0.0292893, 0.00270541, 0.000548696, 0.00071185, 0.00663166
0.000186152, 0.000176089, 0.00139344, -0.00115211, -0.000365019, 0.000238856, 0.0312469, 0.0292848, 0.00270227, 0.000545523, 0.000704656, 0.00659328
0.000374445, 0.000263012, 0.00141345, -0.00115267, -0.000363714, 0.00023156, 0.0312217, 0.0292784, 0.00269886, 0.000542413, 0.000697171, 0.0065503
0.000635577, 0.00039125, 0.00143984, -0.00115314, -0.000360943, 0.000214251, 0.0311867, 0.0292689, 0.00269464, 0.000539368, 0.000689427, 0.00650303
0.000864213, 0.000500289, 0.0014609, -0.00115298, -0.00035932, 0.00020155, 0.0311408, 0.0292575, 0.00269011, 0.000536395, 0.000681493, 0.00645151
0.00111928, 0.00062484, 0.00148406, -0.00115267, -0.000356688, 0.000181267, 0.0310781, 0.0292414, 0.00268416, 0.000533497, 0.000673374, 0.00639594
0.00137449, 0.00076054, 0.00150917, -0.00115198, -0.000355566, 0.000169003, 0.0309878, 0.0292142, 0.00267409, 0.000530681, 0.000665074, 0.00633627
0.00214812, 0.0012299, 0.00159716, -0.00115189, -0.000357257, 0.000179846, 0.0308474, 0.029157, 0.00265234, 0.000527951, 0.000656612, 0.0062727
0.00290061, 0.00173374, 0.00169226, -0.00115165, -0.000362879, 0.000216367, 0.0306362, 0.029049, 0.00260974, 0.000525318, 0.000648139, 0.00620597
0.00314271, 0.00189055, 0.0017212, -0.00115119, -0.000373152, 0.000279536, 0.0303582, 0.0288882, 0.0025439, 0.000522794, 0.000639936, 0.0061383
0.00373414, 0.00232515, 0.00180304, -0.00115099, -0.000385854, 0.000361568, 0.0300404, 0.0286884, 0.00245853, 0.000520394, 0.000632182, 0.00606983
0.0036878, 0.00228075, 0.00179137, -0.00115043, -0.000397793, 0.000428957, 0.0297284, 0.0284779, 0.00236329, 0.000518123, 0.000624992, 0.006002
0.00272432, 0.00153719, 0.00164312, -0.00114933, -0.000405717, 0.00045758, 0.0294617, 0.0283102, 0.00228493, 0.000515992, 0.000618208, 0.00593251
0.00212915, 0.00109627, 0.00155499, -0.00114819, -0.000411259, 0.000472546, 0.0292357, 0.028177, 0.00222181, 0.000514027, 0.000611614, 0.00585602
0.00138492, 0.000563186, 0.00144922, -0.00114666, -0.000414021, 0.000461222, 0.0290461, 0.0280725, 0.00217126, 0.000512223, 0.000605225, 0.005775
0.00115093, 0.000396366, 0.00141582, -0.00114544, -0.000414032, 0.000440663, 0.0288957, 0.0279868, 0.0021293, 0.000510583, 0.000599066, 0.00569004
0.000657244, 4.78568e-05, 0.00134692, -0.00114383, -0.000412873, 0.000401278, 0.028774, 0.0279205, 0.00209653, 0.000509082, 0.00059313, 0.00560478
0.000325981, -0.000181546, 0.00130188, -0.0011422, -0.000410613, 0.000355098, 0.0286742, 0.0278678, 0.00207084, 0.000507721, 0.000587352, 0.00551783
0.000166696, -0.000283226, 0.00128103, -0.00114053, -0.000408112, 0.000308413, 0.0285913, 0.0278283, 0.00205083, 0.000506491, 0.000581703, 0.00543041
-6.92027e-05, -0.000432019, 0.00125033, -0.00113936, -0.000403948, 0.000255028, 0.0285222, 0.027799, 0.0020351, 0.000505373, 0.000576175, 0.00534385
-0.000344305, -0.000606236, 0.00121468, -0.00113863, -0.000398534, 0.000197892, 0.0284641, 0.0277751, 0.00202237, 0.000504349, 0.000570775, 0.00525909
-0.000571846, -0.000751716, 0.00118606, -0.0011383, -0.000392895, 0.000146043, 0.0284108, 0.0277533, 0.00201175, 0.000503395, 0.000565494, 0.0051773
-0.00064372, -0.000793414, 0.00117732, -0.00113778, -0.000388069, 9.98652e-05, 0.0283562, 0.027734, 0.00200273, 0.000502498, 0.000560266, 0.00509857
-0.000857489, -0.000891712, 0.00115875, -0.00113699, -0.00038388, 5.23376e-05, 0.0282791, 0.0277156, 0.00199475, 0.000501618, 0.000554951, 0.00502402
-0.00102979, -0.00095354, 0.0011475, -0.00113689, -0.000380223, 2.05889e-05, 0.0281554, 0.0276965, 0.00198723, 0.00050072, 0.000549487, 0.00495424
-0.00146971, -0.00109829, 0.00112285, -0.00113697, -0.000376922, -7.51113e-06, 0.0279922, 0.0276776, 0.00198001, 0.000499815, 0.000544069, 0.00488981
-0.00123475, -0.00102538, 0.00113471, -0.00113701, -0.000375937, -1.29182e-05, 0.0277963, 0.0276592, 0.00197307, 0.000498909, 0.000538851, 0.00483157
-0.00115887, -0.00100245, 0.00113826, -0.00113734, -0.000373058, -2.92962e-05, 0.0275806, 0.0276402, 0.0019663, 0.000498004, 0.000533969, 0.00478035
-0.00139725, -0.00107815, 0.00112695, -0.00113857, -0.000371593, -2.58419e-05, 0.0273479, 0.0276175, 0.00195952, 0.000497091, 0.000529467, 0.00473667
-0.00173259, -0.00119347, 0.0011112, -0.00113975, -0.000369486, -2.75691e-05, 0.0271113, 0.0275913, 0.00195278, 0.000496166, 0.000525341, 0.00469996
-0.00180032, -0.00121918, 0.00110777, -0.00114064, -0.000368246, -2.59142e-05, 0.0268767, 0.0275652, 0.00194639, 0.000495239, 0.000521537, 0.00466866
-0.00142679, -0.00110428, 0.00112355, -0.00114064, -0.00036697, -3.1792e-05, 0.0266437, 0.0275432, 0.00194066, 0.000494313, 0.000517985, 0.00464129
-0.00118594, -0.00103772, 0.00113301, -0.0011406, -0.000364979, -4.28281e-05, 0.0264137, 0.0275256, 0.00193565, 0.000493388, 0.000514654, 0.00461709
-0.000977063, -0.000983687, 0.00114058, -0.00114103, -0.000362342, -5.29661e-05, 0.0261883, 0.0275107, 0.00193124, 0.000492448, 0.000511526, 0.00459614
-0.00079213, -0.000939887, 0.00114689, -0.00114139, -0.000359854, -6.25978e-05, 0.0259712, 0.0274988, 0.00192746, 0.000491481, 0.00050859, 0.00457839
-0.000996579, -0.000990085, 0.00113903, -0.00114091, -0.000359905, -6.65486e-05, 0.0257915, 0.0274885, 0.00192394, 0.000490509, 0.000505855, 0.0045637
-0.00121192, -0.00104256, 0.00113059, -0.00114099, -0.00035871, -7.24664e-05, 0.0256261, 0.0274792, 0.0019207, 0.000489511, 0.000503275, 0.00455171
-0.00124785, -0.00105125, 0.00112904, -0.00114102, -0.000356779, -8.00257e-05, 0.0254752, 0.0274709, 0.00191772, 0.000488482, 0.000500822, 0.00454206
-0.00130049, -0.00106347, 0.00112696, -0.00114102, -0.000355568, -8.48033e-05, 0.0253314, 0.027464, 0.00191507, 0.000487426, 0.000498477, 0.00453423
-0.00116016, -0.00103596, 0.00113182, -0.00114094, -0.000352918, -9.35968e-05, 0.0251908, 0.0274585, 0.00191276, 0.000486347, 0.000496232, 0.0045279
-0.00114297, -0.00103395, 0.00113221, -0.00114119, -0.00035096, -9.81474e-05, 0.025051, 0.0274536, 0.00191075, 0.000485245, 0.000494076, 0.0045228
-0.00111452, -0.00103003, 0.00113296, -0.00114131, -0.000348589, -0.000103921, 0.0249148, 0.0274494, 0.00190899, 0.000484129, 0.000491984, 0.00451856
-0.0010515, -0.00102084, 0.00113473, -0.00114115, -0.000346175, -0.000110272, 0.0247779, 0.0274464, 0.00190753, 0.000483003, 0.000489946, 0.00451495
-0.00125331, -0.00104913, 0.00112914, -0.00114083, -0.00034563, -0.000113089, 0.024643, 0.0274438, 0.00190628, 0.000481885, 0.000487961, 0.00451177
-0.00126669, -0.00105058, 0.00112882, -0.00114054, -0.000344361, -0.00011646, 0.0245076, 0.0274421, 0.00190526, 0.000480775, 0.000486023, 0.00450892
-0.0016806, -0.00108539, 0.00111908, -0.00113979, -0.000345177, -0.000119098, 0.0243742, 0.0274412, 0.0019044, 0.0004797, 0.000484131, 0.00450614
-0.0026149, -0.001155, 0.00109397, -0.00113918, -0.00034825, -0.000121568, 0.0242541, 0.0274405, 0.00190341, 0.000478693, 0.000482276, 0.00450296
-0.00318857, -0.00119065, 0.00107543, -0.00113864, -0.000352346, -0.000126845, 0.0241483, 0.0274401, 0.00190222, 0.000477757, 0.000480472, 0.00449904
-0.0037178, -0.00122013, 0.00105697, -0.00113829, -0.000352656, -0.000131968, 0.0240532, 0.0274397, 0.00190087, 0.000476888, 0.000478736, 0.00449421
-0.00415369, -0.00123567, 0.00104119, -0.00113794, -0.000352583, -0.00013766, 0.0239652, 0.0274395, 0.00189951, 0.000476075, 0.000477074, 0.00448856
-0.00471469, -0.00124508, 0.00101937, -0.00113799, -0.000351265, -0.00014077, 0.0238881, 0.0274394, 0.00189811, 0.000475325, 0.000475497, 0.00448185
-0.0051366, -0.0012405, 0.00100189, -0.0011383, -0.000348767, -0.000137664, 0.023822, 0.0274393, 0.00189675, 0.000474629, 0.000474007, 0.00447414
-0.00532545, -0.00123731, 0.000993762, -0.00113814, -0.000346046, -0.000134622, 0.0237648, 0.0274391, 0.00189547, 0.000473971, 0.000472599, 0.00446592
-0.00531441, -0.00123948, 0.000994352, -0.0011375, -0.000343648, -0.000132729, 0.0237133, 0.0274389, 0.00189432, 0.000473329, 0.000471258, 0.00445778
-0.00523787, -0.00124501, 0.00099759, -0.00113691, -0.000341782, -0.000130735, 0.0236638, 0.0274387, 0.00189336, 0.000472687, 0.00046996, 0.00445019
-0.00522515, -0.00124741, 0.000998149, -0.00113635, -0.000339714, -0.000129203, 0.0236173, 0.0274385, 0.00189256, 0.000472045, 0.000468689, 0.00444306
-0.00525643, -0.00124456, 0.000996992, -0.00113571, -0.00033723, -0.000128298, 0.0235746, 0.0274379, 0.00189189, 0.000471413, 0.000467433, 0.00443613
-0.00520935, -0.00125126, 0.000998827, -0.00113512, -0.000335464, -0.000127594, 0.0235359, 0.0274372, 0.00189129, 0.000470789, 0.000466184, 0.00442935
-0.00503202, -0.00127615, 0.00100538, -0.00113458, -0.000335151, -0.000127262, 0.0234973, 0.0274366, 0.00189074, 0.000470151, 0.000464927, 0.0044232
-0.00446532, -0.00134854, 0.00102162, -0.00113384, -0.000335998, -0.000125693, 0.0234473, 0.0274359, 0.00189034, 0.000469465, 0.000463622, 0.00441826
-0.00393921, -0.00142236, 0.00103168, -0.00113279, -0.000335669, -0.000126063, 0.0233739, 0.0274345, 0.00189012, 0.000468698, 0.000462242, 0.00441481
-0.00333, -0.00152723, 0.00103948, -0.00113162, -0.000336005, -0.000127958, 0.0232802, 0.027432, 0.00189003, 0.000467877, 0.00046082, 0.0044122
-0.00281126, -0.00162035, 0.00104484, -0.00113102, -0.000335934, -0.000127825, 0.0231749, 0.0274289, 0.00188998, 0.000467026, 0.000459403, 0.00441007
-0.00251139, -0.00167573, 0.00104739, -0.00113079, -0.000336847, -0.000127923, 0.0230622, 0.0274255, 0.00188997, 0.000466152, 0.000458021, 0.00440831
-0.00190755, -0.00178414, 0.00105192, -0.00113047, -0.000337369, -0.000127017, 0.0229421, 0.0274218, 0.00188998, 0.000465242, 0.000456683, 0.00440703
-0.00176354, -0.00180787, 0.00105295, -0.00113053, -0.000337536, -0.000126535, 0.0228203, 0.0274186, 0.00189, 0.000464305, 0.0004554, 0.00440611
-0.00182346, -0.00179763, 0.00105252, -0.0011308, -0.000338222, -0.000126539, 0.0227054, 0.0274153, 0.00189003, 0.000463351, 0.000454176, 0.00440541
-0.00187367, -0.00178686, 0.00105223, -0.00113104, -0.000338501, -0.0001264, 0.022597, 0.027411, 0.00189008, 0.000462384, 0.000452999, 0.00440487
-0.0019342, -0.00177239, 0.00105189, -0.00113133, -0.000339047, -0.000126606, 0.0224968, 0.0274057, 0.00189014, 0.000461416, 0.000451864, 0.00440441
-0.00187251, -0.0017886, 0.00105223, -0.00113139, -0.000339253, -0.000126529, 0.0224018, 0.0274, 0.0018902, 0.000460438, 0.000450763, 0.00440405
-0.00170592, -0.00182865, 0.00105312, -0.00113173, -0.000338789, -0.00012517, 0.0223095, 0.0273946, 0.00189028, 0.000459449, 0.000449689, 0.00440377
-0.00169447, -0.00183089, 0.00105321, -0.0011319, -0.000338622, -0.000124853, 0.022221, 0.0273885, 0.00189036, 0.000458473, 0.000448633, 0.00440349
-0.00173695, -0.00181934, 0.00105305, -0.001132, -0.000339399, -0.000125822, 0.0221391, 0.0273813, 0.00189045, 0.000457522, 0.000447595, 0.00440317
-0.00170392, -0.00183428, 0.00105299, -0.00113186, -0.000340561, -0.000127742, 0.022064, 0.0273738, 0.00189054, 0.000456604, 0.000446574, 0.00440274
-0.00181986, -0.0017973, 0.00105199, -0.00113187, -0.000342582, -0.000131691, 0.0219979, 0.0273662, 0.00189061, 0.000455744, 0.000445568, 0.00440201
-0.00205091, -0.00170675, 0.00104939, -0.00113174, -0.000345139, -0.000137996, 0.0219411, 0.0273578, 0.00189066, 0.000454953, 0.000444564, 0.00440085
-0.00215868, -0.00166529, 0.0010471, -0.00113165, -0.000348015, -0.000145996, 0.0218925, 0.0273492, 0.00189066, 0.00045422, 0.000443569, 0.00439919
-0.00225352, -0.00162418, 0.00104513, -0.00113173, -0.000349587, -0.000150274, 0.0218489, 0.0273408, 0.00189063, 0.000453519, 0.000442586, 0.00439726
-0.00241197, -0.00153799, 0.00104164, -0.00113142, -0.000350636, -0.000155368, 0.0218119, 0.0273311, 0.00189057, 0.00045286, 0.00044161, 0.00439503
-0.00250754, -0.00147928, 0.00103939, -0.00113117, -0.000350937, -0.00015826, 0.0217795, 0.0273207, 0.00189049, 0.000452226, 0.000440649, 0.00439268
-0.00261881, -0.00140498, 0.00103654, -0.00113055, -0.000350478, -0.00016108, 0.0217511, 0.0273109, 0.00189037, 0.000451603, 0.000439717, 0.00439033
-0.00267746, -0.00136478, 0.0010348, -0.00113031, -0.000350444, -0.000162964, 0.0217264, 0.0273016, 0.00189024, 0.00045099, 0.000438814, 0.00438803
-0.002695, -0.00135322, 0.00103415, -0.0011302, -0.000350764, -0.000164803, 0.0217036, 0.0272921, 0.00189012, 0.000450371, 0.000437938, 0.00438591
-0.00265255, -0.00138711, 0.00103523, -0.00113051, -0.00035181, -0.000165901, 0.0216821, 0.0272831, 0.00189001, 0.000449734, 0.000437081, 0.00438409
-0.00264185, -0.00139685, 0.00103551, -0.00113084, -0.000352343, -0.000165834, 0.0216614, 0.0272738, 0.00188992, 0.000449099, 0.000436231, 0.00438239
-0.00275824, -0.00130845, 0.00103305, -0.00113155, -0.000352573, -0.000164665, 0.0216388, 0.0272629, 0.00188989, 0.000448478, 0.000435362, 0.0043807
-0.00261201, -0.0014095, 0.00103456, -0.00113213, -0.000353528, -0.000162436, 0.0216064, 0.0272507, 0.00188993, 0.000447831, 0.000434433, 0.00437943
-0.00256323, -0.00144454, 0.00103433, -0.00113258, -0.000355427, -0.000161992, 0.0215627, 0.0272376, 0.00189, 0.00044714, 0.000433444, 0.00437858
-0.00249576, -0.00149008, 0.00103386, -0.00113315, -0.000357817, -0.000160716, 0.0215091, 0.0272237, 0.00189008, 0.000446408, 0.000432421, 0.00437802
-0.00245805, -0.00151998, 0.00103336, -0.00113339, -0.000359952, -0.00016042, 0.0214516, 0.027209, 0.00189015, 0.00044565, 0.000431395, 0.00437764
-0.0023813, -0.00157221, 0.00103275, -0.00113362, -0.000361741, -0.00016021, 0.0213957, 0.0271938, 0.00189022, 0.000444892, 0.000430392, 0.00437733
-0.00222577, -0.0016732, 0.00103193, -0.00113387, -0.000363345, -0.000159591, 0.0213433, 0.027178, 0.00189028, 0.000444133, 0.00042941, 0.00437708
-0.00208549, -0.00176917, 0.00103152, -0.00113468, -0.000364989, -0.000158193, 0.0212962, 0.0271624, 0.00189035, 0.000443401, 0.000428446, 0.00437681
-0.00199623, -0.00181953, 0.00103254, -0.00113667, -0.000364694, -0.00015397, 0.0212527, 0.0271467, 0.00189039, 0.000442704, 0.000427473, 0.00437645
-0.00195478, -0.00180102, 0.00103747, -0.0011409, -0.000362223, -0.000145695, 0.0212106, 0.0271247, 0.00189028, 0.000442068, 0.000426447, 0.00437574
-0.00201929, -0.00167584, 0.00104607, -0.0011453, -0.000359709, -0.000136257, 0.021168, 0.0270846, 0.00188977, 0.000441516, 0.000425343, 0.0043742
-0.00195759, -0.001615, 0.00105708, -0.00114899, -0.000357473, -0.000127546, 0.0211225, 0.0270176, 0.0018886, 0.000441034, 0.000424205, 0.00437184
-0.00190949, -0.00144531, 0.00107016, -0.00115152, -0.000354277, -0.000125615, 0.0210755, 0.0269274, 0.0018868, 0.000440603, 0.000423098, 0.00436913
-0.00186273, -0.00123467, 0.00108164, -0.00115312, -0.000350642, -0.000132039, 0.0210285, 0.0268199, 0.00188453, 0.000440227, 0.000422072, 0.00436641
-0.00178954, -0.00105122, 0.00108822, -0.00115337, -0.000347146, -0.000142403, 0.0209817, 0.0267018, 0.00188188, 0.000439898, 0.000421171, 0.00436414
-0.00163444, -0.000977511, 0.00109088, -0.00115272, -0.000343969, -0.000153627, 0.0209352, 0.0265822, 0.00187908, 0.000439606, 0.000420406, 0.00436246
-0.00116533, -0.00139583, 0.001062, -0.00114644, -0.000340064, -0.000203456, 0.020889, 0.026465, 0.00187624, 0.000439329, 0.000419742, 0.0043612
-0.000978249, -0.00154047, 0.00105192, -0.00114349, -0.000338784, -0.000207707, 0.0208444, 0.0263585, 0.00187346, 0.00043907, 0.000419133, 0.00435998
-0.000699502, -0.00192625, 0.00102744, -0.00113829, -0.000338397, -0.000233477, 0.0208013, 0.0262687, 0.00187093, 0.000438782, 0.000418553, 0.00435882
-0.000385907, -0.0023723, 0.000997074, -0.00113159, -0.000338888, -0.00026847, 0.0207604, 0.0261955, 0.00186871, 0.000438444, 0.000417945, 0.00435749
-0.000122699, -0.00271602, 0.000970802, -0.00112473, -0.000340682, -0.00029118, 0.0207221, 0.0261398, 0.00186685, 0.000438023, 0.000417291, 0.0043559
-0.000809304, -0.00229094, 0.000994821, -0.00113694, -0.000345413, -0.000243817, 0.0206864, 0.0261041, 0.0018655, 0.000437428, 0.000416548, 0.00435437
-0.00137222, -0.00210986, 0.00100589, -0.00115225, -0.000357538, -0.000234487, 0.0206548, 0.0260821, 0.00186465, 0.000436672, 0.00041572, 0.00435267
-0.00183152, -0.00177288, 0.00101503, -0.00115978, -0.000356151, -0.000208702, 0.020627, 0.0260643, 0.00186426, 0.000435806, 0.000414819, 0.00435093
-0.00213838, -0.00159273, 0.00102225, -0.00116724, -0.000355049, -0.000182243, 0.0206035, 0.0260474, 0.00186406, 0.000434883, 0.000413986, 0.00434902
-0.00236157, -0.00138347, 0.00103118, -0.00117772, -0.000357162, -0.000180021, 0.020584, 0.0260277, 0.00186385, 0.000433989, 0.000413296, 0.00434678
-0.00253952, -0.00109427, 0.00104029, -0.00118656, -0.000360019, -0.000188519, 0.0205673, 0.0260018, 0.00186353, 0.000433185, 0.000412744, 0.00434448
-0.0027422, -0.000699295, 0.00104973, -0.00119404, -0.00036309, -0.000203814, 0.020552, 0.0259705, 0.00186305, 0.000432482, 0.000412301, 0.00434245
-0.00295492, -0.000246976, 0.00106105, -0.00120112, -0.000366344, -0.000224822, 0.0205376, 0.0259373, 0.00186238, 0.000431861, 0.000411948, 0.00434064
-0.00313784, 0.000162612, 0.00107234, -0.00120711, -0.00036865, -0.00024375, 0.0205228, 0.0259006, 0.0018615, 0.000431311, 0.000411638, 0.00433926
-0.00324858, 0.000469169, 0.00108386, -0.00121134, -0.000370658, -0.000259459, 0.0205075, 0.0258584, 0.00186041, 0.000430816, 0.000411347, 0.00433823
-0.00335955, 0.000743097, 0.00109456, -0.00121452, -0.000372666, -0.000273263, 0.0204914, 0.0258104, 0.00185912, 0.00043034, 0.00041106, 0.00433733
-0.00357531, 0.00108396, 0.00110297, -0.00121671, -0.00037573, -0.000280916, 0.0204737, 0.0257593, 0.00185766, 0.000429874, 0.000410729, 0.00433662
-0.003886, 0.00150909, 0.001118, -0.00121913, -0.000381459, -0.000282263, 0.0204547, 0.0257082, 0.00185604, 0.0004294, 0.000410329, 0.00433586
-0.00418703, 0.00187945, 0.00113906, -0.00122092, -0.000388782, -0.000274829, 0.0204351, 0.0256547, 0.00185425, 0.000428927, 0.000409883, 0.00433508
-0.00467452, 0.00238104, 0.00118143, -0.00122272, -0.00040266, -0.000253571, 0.0204145, 0.0256001, 0.00185235, 0.000428463, 0.000409399, 0.00433446
-0.00517324, 0.00293945, 0.00122465, -0.00122529, -0.000416258, -0.00023417, 0.0203932, 0.0255479, 0.00185047, 0.000428017, 0.000408883, 0.00433409
-0.00564207, 0.00350598, 0.00126841, -0.0012282, -0.000429657, -0.000215962, 0.0203717, 0.0255, 0.00184863, 0.000427597, 0.000408336, 0.00433393
-0.00589221, 0.00373717, 0.00129382, -0.00122871, -0.000437606, -0.000214678, 0.0203507, 0.0254589, 0.00184687, 0.000427213, 0.000407769, 0.00433373
-0.00590516, 0.00271315, 0.00127365, -0.0012092, -0.00043112, -0.000300426, 0.0203315, 0.0254283, 0.00184527, 0.000426838, 0.00040718, 0.00433311
-0.00589336, 0.00190745, 0.00125598, -0.0011914, -0.000419294, -0.000402984, 0.0203135, 0.0254071, 0.0018438, 0.000426476, 0.00040655, 0.00433167
-0.00546326, 0.00254805, 0.00125548, -0.00121908, -0.000431472, -0.000191062, 0.0202963, 0.0253908, 0.00184233, 0.000426175, 0.000405857, 0.00432871
-0.00508597, 0.00274844, 0.00125061, -0.00123572, -0.000438474, -4.36503e-05, 0.0202805, 0.0253773, 0.00184075, 0.000425884, 0.000405126, 0.00432519
-0.00477099, 0.00282357, 0.00124025, -0.00124729, -0.000443084, 6.9485e-05, 0.0202642, 0.0253646, 0.00183907, 0.000425616, 0.000404364, 0.00432144
-0.0044593, 0.00279537, 0.00122919, -0.00125531, -0.000444679, 0.000150555, 0.0202463, 0.0253509, 0.00183725, 0.000425374, 0.000403587, 0.00431773
-0.00422961, 0.00273661, 0.00121742, -0.00126003, -0.000444663, 0.000199183, 0.0202261, 0.0253343, 0.00183525, 0.000425175, 0.000402814, 0.00431385
-0.00405223, 0.00260272, 0.00121629, -0.00126167, -0.00044316, 0.000216627, 0.0202043, 0.0253149, 0.00183307, 0.000425034, 0.000402061, 0.0043094
-0.00396829, 0.00242491, 0.00121888, -0.00126121, -0.000439323, 0.000199126, 0.0201829, 0.0252952, 0.00183081, 0.000424954, 0.00040135, 0.00430426
-0.00394293, 0.00223591, 0.00121698, -0.00126001, -0.000433781, 0.000161798, 0.0201625, 0.0252778, 0.00182859, 0.000424913, 0.00040069, 0.0042989
-0.00393507, 0.00202034, 0.00122442, -0.00125816, -0.000426753, 0.0001022, 0.020144, 0.0252632, 0.00182641, 0.000424903, 0.000400084, 0.00429345
-0.00395005, 0.00179425, 0.00123171, -0.0012562, -0.000419033, 3.24063e-05, 0.0201275, 0.0252501, 0.00182419, 0.000424935, 0.000399528, 0.00428757
-0.00394979, 0.0015363, 0.0012428, -0.00125476, -0.000409899, -5.08961e-05, 0.0201123, 0.0252377, 0.00182192, 0.000424991, 0.000399003, 0.00428138
-0.00395958, 0.0012128, 0.00124559, -0.00125354, -0.000399379, -0.000152093, 0.0200977, 0.0252253, 0.00181962, 0.000425059, 0.000398494, 0.00427498
-0.00396947, 0.000877149, 0.0012467, -0.00125286, -0.000388898, -0.00025944, 0.0200837, 0.0252129, 0.00181728, 0.000425138, 0.000397996, 0.0042683
-0.00392195, 0.000431343, 0.00122411, -0.00125259, -0.000377263, -0.000373779, 0.0200703, 0.0251998, 0.00181496, 0.000425203, 0.000397504, 0.00426211
-0.00389558, -3.88761e-06, 0.00120722, -0.00125204, -0.000366973, -0.000483965, 0.0200572, 0.0251847, 0.00181259, 0.000425234, 0.000397001, 0.00425657
-0.00379569, -0.000519049, 0.00118143, -0.00125195, -0.000356066, -0.000592264, 0.0200442, 0.0251659, 0.00181006, 0.000425234, 0.000396487, 0.00425144
-0.00359244, -0.00108479, 0.00114893, -0.00125327, -0.000343265, -0.000705436, 0.0200312, 0.0251433, 0.00180731, 0.000425203, 0.000395956, 0.00424656
-0.00331837, -0.00164216, 0.00111369, -0.00125561, -0.000329457, -0.000814257, 0.0200187, 0.0251186, 0.00180457, 0.000425118, 0.000395416, 0.00424237
-0.00303102, -0.00213058, 0.00109039, -0.00125827, -0.000314283, -0.000929869, 0.0200075, 0.0250945, 0.00180187, 0.000424969, 0.000394842, 0.00423839
-0.0027489, -0.00257921, 0.00106966, -0.00126153, -0.000298134, -0.00105698, 0.0199971, 0.0250723, 0.00179903, 0.000424742, 0.000394204, 0.00423406
-0.00245424, -0.00304521, 0.00103954, -0.00126457, -0.000281527, -0.00118806, 0.0199879, 0.0250519, 0.00179603, 0.000424443, 0.000393509, 0.00422942
-0.00215764, -0.00345672, 0.00100729, -0.00126748, -0.000265092, -0.00131674, 0.0199797, 0.0250313, 0.00179277, 0.000424094, 0.000392771, 0.00422461
-0.00193959, -0.00378904, 0.00097803, -0.00126768, -0.000253346, -0.00140915, 0.0199729, 0.0250119, 0.00178934, 0.000423707, 0.000391979, 0.0042195
-0.00186278, -0.0040126, 0.000967583, -0.00126129, -0.000250736, -0.00143402, 0.0199675, 0.0249944, 0.00178593, 0.000423303, 0.000391153, 0.00421445
-0.00183717, -0.00405871, 0.000968048, -0.00125746, -0.000250759, -0.0014392, 0.0199626, 0.0249785, 0.00178243, 0.000422892, 0.000390277, 0.00420925
-0.00167563, -0.00401291, 0.000965592, -0.00124694, -0.000240188, -0.00152845, 0.0199565, 0.0249623, 0.00177866, 0.000422487, 0.000389363, 0.00420404
-0.00111806, -0.00461958, 0.00090121, -0.00121415, -0.000272359, -0.00133057, 0.0199479, 0.0249429, 0.00177441, 0.000422097, 0.000388438, 0.00419914
-0.000785816, -0.00392363, 0.000888434, -0.0011902, -0.000240679, -0.00155748, 0.0199379, 0.0249205, 0.00177, 0.000421643, 0.00038751, 0.00419463
-0.000509162, -0.00322972, 0.00087657, -0.00116577, -0.00021837, -0.0016807, 0.0199266, 0.024896, 0.00176527, 0.0004212, 0.000386672, 0.00419139
-0.000131171, -0.00274828, 0.000851177, -0.00113936, -0.000209, -0.00169442, 0.0199149, 0.0248697, 0.00176034, 0.000420762, 0.000385977, 0.0041895
-3.14792e-05, -0.0026118, 0.000846181, -0.0011311, -0.000206798, -0.00166996, 0.0199036, 0.0248421, 0.00175535, 0.000420285, 0.000385429, 0.00418838
0.000137365, -0.00268515, 0.000821446, -0.0011242, -0.000207728, -0.00163735, 0.0198913, 0.0248132, 0.00175008, 0.000419835, 0.000385005, 0.00418771
0.000606729, -0.0031831, 0.000764066, -0.00111831, -0.000226521, -0.00158571, 0.0198788, 0.0247848, 0.00174469, 0.000419373, 0.000384684, 0.00418701
0.00125716, -0.00385907, 0.000681904, -0.00110811, -0.000250326, -0.00152093, 0.0198669, 0.0247576, 0.00173943, 0.000418866, 0.000384417, 0.00418578
0.00139506, -0.00447542, 0.000656525, -0.00112709, -0.000276325, -0.00159717, 0.0198539, 0.0247292, 0.0017339, 0.000418328, 0.000384184, 0.00418405
0.00137031, -0.00475708, 0.000655154, -0.00114394, -0.00029813, -0.00166789, 0.0198395, 0.0246985, 0.00172812, 0.000417826, 0.000383955, 0.00418238
0.00111067, -0.00459984, 0.000683348, -0.00115985, -0.000315513, -0.00170523, 0.0198241, 0.0246663, 0.00172212, 0.000417402, 0.000383711, 0.004181
0.000765288, -0.00427665, 0.000717923, -0.00117518, -0.000327279, -0.00173626, 0.0198078, 0.0246332, 0.00171612, 0.000417054, 0.000383473, 0.00417996
0.000408041, -0.00390696, 0.000751469, -0.00118994, -0.000333077, -0.00177539, 0.0197911, 0.024598, 0.00171019, 0.000416741, 0.000383243, 0.00417907
7.03587e-05, -0.00351831, 0.000781871, -0.00120433, -0.000335637, -0.0018193, 0.0197729, 0.0245583, 0.0017041, 0.000416436, 0.00038301, 0.00417819
-0.000214495, -0.00308501, 0.000808237, -0.00121853, -0.000332899, -0.00187295, 0.0197536, 0.0245129, 0.00169783, 0.000416123, 0.000382738, 0.00417708
-0.00035079, -0.00280752, 0.000814532, -0.00123215, -0.000326484, -0.00193674, 0.0197335, 0.0244664, 0.00169152, 0.000415801, 0.000382423, 0.00417579
-0.000397585, -0.00258823, 0.000811721, -0.00124526, -0.000316159, -0.00201664, 0.0197136, 0.0244232, 0.00168539, 0.00041545, 0.000382053, 0.00417416
-0.000525878, -0.00222937, 0.000825561, -0.0012584, -0.000302838, -0.00211579, 0.0196947, 0.0243826, 0.00167944, 0.00041504, 0.000381611, 0.0041719
-0.000686121, -0.00185239, 0.000846333, -0.00127048, -0.000287761, -0.00222301, 0.0196761, 0.0243441, 0.00167355, 0.000414577, 0.00038111, 0.00416922
-0.000801512, -0.00162373, 0.000859701, -0.00127874, -0.000273967, -0.00231177, 0.0196571, 0.0243067, 0.00166759, 0.00041406, 0.000380575, 0.00416649
-0.000940735, -0.00136962, 0.000881231, -0.00127699, -0.000267313, -0.00233645, 0.0196366, 0.0242684, 0.00166148, 0.000413471, 0.000379996, 0.00416359
-0.00121889, -0.00095961, 0.000919876, -0.00127517, -0.000259936, -0.00236045, 0.0196136, 0.0242262, 0.00165504, 0.000412779, 0.000379369, 0.0041602
-0.00150251, -0.000612137, 0.000954931, -0.00127531, -0.000251309, -0.00239742, 0.0195887, 0.0241777, 0.00164827, 0.000411975, 0.000378689, 0.00415599
-0.00170159, -0.000449652, 0.000974054, -0.00127686, -0.000241698, -0.00244696, 0.019565, 0.0241228, 0.00164147, 0.000411082, 0.00037795, 0.0041508
-0.00180798, -0.00046076, 0.000975913, -0.00127686, -0.000232918, -0.00248577, 0.0195396, 0.0240663, 0.00163453, 0.000410182, 0.000377217, 0.00414577
-0.00210543, -0.000221533, 0.00100599, -0.00127672, -0.00022282, -0.00252829, 0.0195125, 0.0240092, 0.00162745, 0.000409321, 0.000376507, 0.00414135
-0.0023458, -0.000133343, 0.00102373, -0.00127705, -0.000211487, -0.00257546, 0.0194847, 0.0239512, 0.00162037, 0.000408499, 0.000375827, 0.00413747
